svm_type epsilon_svr
kernel_type rbf
gamma 0.5
nr_class 2
total_sv 458
rho -9.4767425248056867
SV
-263.88325569516212 1:0.66154546 2:0.52311701 3:0.051434897 4:0.084034018 5:0.038623888 6:0.078755774 7:0.037598941 8:0.078804992 9:0.032805 10:0.053434238 11:0.031679984 12:0.056014415 13:0.023977993 14:0.052093107 15:0.023659008 16:0.043354038 
450 1:0.54448938 2:0.43249482 3:0.050679471 4:0.082107678 5:0.037301362 6:0.076679684 7:0.034372419 8:0.073536292 9:0.03065435 10:0.048945818 11:0.02984947 12:0.052500162 13:0.023359535 14:0.050460856 15:0.02181793 16:0.040710382 
-450 1:0.23540941 2:0.18487355 3:0.044606496 4:0.070518337 5:0.028087484 6:0.054033425 7:0.024576493 8:0.054363374 9:0.021953449 10:0.028403228 11:0.01937649 12:0.029890301 13:0.016873758 14:0.034585897 15:0.014042264 16:0.023989797 
450 1:0.1037131 2:0.081441522 3:0.033679783 4:0.051980518 5:0.019774541 6:0.037158981 7:0.015140212 8:0.035837691 9:0.016224062 10:0.02581102 11:0.011631291 12:0.020603877 13:0.012115402 14:0.024412408 15:0.0072006388 16:0.01268497 
450 1:0.043139413 2:0.033895943 3:0.023359155 4:0.033859175 5:0.0088592293 6:0.024525033 7:0.0051350575 8:0.019940205 9:0.0091218948 10:0.016165262 11:0.0045138267 12:0.0085763168 13:0.0051115393 14:0.015074594 15:0.0024760051 16:0.0059094965 
450 1:0.66155285 2:0.52321178 3:0.053199202 4:0.083381034 5:0.035529818 6:0.074141629 7:0.034942344 8:0.073782429 9:0.02916877 10:0.050650686 11:0.027065482 12:0.051984344 13:0.021620726 14:0.049285866 15:0.020286191 16:0.0393622 
-450 1:0.236515 2:0.18541503 3:0.056110833 4:0.072845601 5:0.040938068 6:0.051821534 7:0.035820924 8:0.053452406 9:0.031281289 10:0.031255189 11:0.022881476 12:0.023665916 13:0.023782289 14:0.031250577 15:0.020318052 16:0.019121243 
450 1:0.11703798 2:0.089234926 3:0.056700241 4:0.063038625 5:0.048377663 6:0.047015395 7:0.044703037 8:0.047981162 9:0.040362347 10:0.037656508 11:0.029445702 12:0.022171797 13:0.028647434 14:0.027176419 15:0.02961259 16:0.021296633 
450 1:0.061489921 2:0.044922527 3:0.051761631 4:0.050918173 5:0.04553378 6:0.043645412 7:0.043541342 8:0.042032495 9:0.039380021 10:0.039476693 11:0.036360197 12:0.027898785 13:0.027727401 14:0.023032587 15:0.036931481 16:0.032498699 
450 1:0.013116348 2:0.0065400586 3:0.04038744 4:0.03434857 5:0.054417785 6:0.05127687 7:0.05078622 8:0.046201337 9:0.076520614 10:0.1123305 11:0.06634485 12:0.061382927 13:0.042525206 14:0.044520956 15:0.055063009 16:0.057291154 
450 1:0.66192293 2:0.52365804 3:0.070148937 4:0.091785029 5:0.042670924 6:0.066965759 7:0.042739466 8:0.068250425 9:0.034641959 10:0.043527998 11:0.027750304 12:0.043922484 13:0.025121035 14:0.044012975 15:0.024375383 16:0.032621656 
450 1:0.54611379 2:0.43314365 3:0.072655588 4:0.090583667 5:0.042618856 6:0.065513462 7:0.044536799 8:0.065754727 9:0.03598256 10:0.038345117 11:0.028462764 12:0.039422158 13:0.025223274 14:0.042357862 15:0.025293717 16:0.030462667 
-450 1:0.24190272 2:0.18773827 3:0.092041783 4:0.093768388 5:0.07927113 6:0.064764813 7:0.075343475 8:0.070246421 9:0.060530674 10:0.061443441 11:0.045686878 12:0.034173355 13:0.04620773 14:0.037827719 15:0.045357559 16:0.0293906 
450 1:0.66331571 2:0.52372068 3:0.087841056 4:0.10370158 5:0.05337977 6:0.066031501 7:0.054388173 8:0.069863796 9:0.0368172 10:0.04281063 11:0.033418812 12:0.040848896 13:0.030775033 14:0.042518772 15:0.030975858 16:0.031860627 
450 1:0.54680854 2:0.43315229 3:0.090860859 4:0.10235112 5:0.054958947 6:0.064843237 7:0.058250748 8:0.068203263 9:0.040092103 10:0.037813816 11:0.035672534 12:0.037501507 13:0.031884205 14:0.04119553 15:0.034500904 16:0.031115571 
450 1:0.13702078 2:0.10165388 3:0.11031532 4:0.10003337 5:0.10265772 6:0.079661012 7:0.10446211 8:0.088253818 9:0.068939582 10:0.05624593 11:0.065985069 12:0.045018326 13:0.061211322 14:0.046491925 15:0.068916447 16:0.049906977 
-129.93458839304853 1:0.093273044 2:0.064356305 3:0.12780546 4:0.10884355 5:0.11994766 6:0.095157675 7:0.12664951 8:0.10584327 9:0.080405399 10:0.067375675 11:0.094506398 12:0.073571272 13:0.074561723 14:0.056470666 15:0.096305393 16:0.081379816 
5.3044870530154231 1:0.048392996 2:0.028842233 3:0.12768081 4:0.10937178 5:0.14408238 6:0.12920839 7:0.14126626 8:0.12965363 9:0.14983395 10:0.1864889 11:0.14672406 12:0.13236593 13:0.10650034 14:0.11101062 15:0.12378639 16:0.12163193 
450 1:0.2486538 2:0.19107631 3:0.12327213 4:0.11560444 5:0.11134536 6:0.079902507 7:0.10616999 8:0.089337051 9:0.071198128 10:0.064685337 11:0.063254289 12:0.044447113 13:0.064787008 14:0.046307046 15:0.064291194 16:0.039668098 
-450 1:0.15341212 2:0.11085359 3:0.15720652 4:0.13496687 5:0.14261061 6:0.10294588 7:0.15005974 8:0.11933774 9:0.086395562 10:0.063909002 11:0.091776118 12:0.06054556 13:0.085257769 14:0.060601667 15:0.096703812 16:0.066996932 
-450 1:0.10694119 2:0.072788753 3:0.1674602 4:0.13741325 5:0.15154935 6:0.1127413 7:0.16437481 8:0.13257675 9:0.095829435 10:0.072569482 11:0.11702825 12:0.089302227 13:0.094734803 14:0.068192899 15:0.11980221 16:0.098805398 
-450 1:0.074988745 2:0.045388617 3:0.2016298 4:0.16788307 5:0.20396356 6:0.16723087 7:0.20859863 8:0.18570337 9:0.19099699 10:0.21204448 11:0.19659294 12:0.17454898 13:0.1490943 14:0.14211154 15:0.17062168 16:0.15851454 
38.158423600774292 1:0.68537819 2:0.5356155 3:0.29544905 4:0.29371464 5:0.18136682 6:0.11700261 7:0.19917938 8:0.15800458 9:0.073413104 10:0.042831957 11:0.1022898 12:0.054295477 13:0.10170296 14:0.063158527 15:0.11026403 16:0.061600652 
-450 1:0.58018637 2:0.45240241 3:0.31283718 4:0.30647841 5:0.18458679 6:0.11924066 7:0.21577775 8:0.17190292 9:0.08273834 10:0.044247106 11:0.1083215 12:0.056851067 13:0.10307937 14:0.063050076 15:0.11994615 16:0.064531751 
450 1:0.31308165 2:0.23340324 3:0.36537883 4:0.3296372 5:0.27774158 6:0.18138941 7:0.29477417 8:0.23195465 9:0.133168 10:0.10798227 11:0.15052393 12:0.10250397 13:0.15864572 14:0.10373947 15:0.15989071 16:0.10077145 
-263.30765595492574 1:0.23636186 2:0.16843641 3:0.42023778 4:0.35977504 5:0.30343252 6:0.20997107 7:0.35394138 8:0.28232196 9:0.15103599 10:0.10992333 11:0.18450487 12:0.13271624 13:0.17801641 14:0.12571485 15:0.20177604 16:0.14470755 
-450 1:0.19940874 2:0.13693281 3:0.4495399 4:0.38355702 5:0.31697169 6:0.23423418 7:0.38222051 8:0.32147542 9:0.17235264 10:0.13629606 11:0.22878516 12:0.19503571 13:0.19465335 14:0.1432105 15:0.24099627 16:0.2014128 
-450 1:0.16275425 2:0.10739331 3:0.46486974 4:0.40078962 5:0.37675342 6:0.30384853 7:0.41281483 8:0.36306745 9:0.29505038 10:0.36803079 11:0.32204434 12:0.32750237 13:0.26547027 14:0.25389701 15:0.29530913 16:0.27279302 
-450 1:0.94836628 2:0.73970717 3:0.057796177 4:0.0912771 5:0.030507142 6:0.053347263 7:0.03226557 8:0.057917662 9:0.016720437 10:0.035950277 11:0.01718864 12:0.035396811 13:0.015993565 14:0.028193774 15:0.015014909 16:0.025172235 
-450 1:0.78928643 2:0.59856164 3:0.056405876 4:0.088525541 5:0.028564533 6:0.050042562 7:0.029290821 8:0.052905336 9:0.015470942 10:0.0338884 11:0.015506585 12:0.033285305 13:0.01490812 14:0.026299933 15:0.013029508 16:0.021636704 
-450 1:0.33817053 2:0.26040429 3:0.043233745 4:0.067961283 5:0.019635787 6:0.035313744 7:0.018168578 8:0.037121706 9:0.0098229907 10:0.022913279 11:0.0082426025 12:0.018661983 13:0.0096247923 14:0.017631164 15:0.0077188406 16:0.012744438 
450 1:0.065127611 2:0.051431488 3:0.023883589 4:0.037614617 5:0.0054348824 6:0.017420927 7:0.0041321055 8:0.015925007 9:0.0023548296 10:0.0076426286 11:0.00016483293 12:0.0023509567 13:0.0017044365 14:0.0063560414 15:0.00046231574 16:0.00080069009 
415.1596819190662 1:0.94913095 2:0.73988765 3:0.062792301 4:0.093121134 5:0.033037525 6:0.051340967 7:0.034368034 8:0.056578565 9:0.015804356 10:0.032507487 11:0.015150619 12:0.030925553 13:0.01651272 14:0.026040204 15:0.014707544 16:0.021753583 
-450 1:0.78972733 2:0.59869015 3:0.064875826 4:0.0926117 5:0.033109114 6:0.047557794 7:0.03444184 8:0.052916858 9:0.016231751 10:0.03026134 11:0.015237065 12:0.028228723 13:0.016956281 14:0.024288876 15:0.014493839 16:0.018046893 
-450 1:0.34082073 2:0.26097274 3:0.067889802 4:0.080368832 5:0.043090593 6:0.040285666 7:0.041917875 8:0.045541201 9:0.024521753 10:0.020674402 11:0.023166928 12:0.016240502 13:0.024079803 14:0.020212464 15:0.022810468 16:0.012742032 
450 1:0.16748674 2:0.1244797 3:0.069384702 4:0.07468845 5:0.056744948 6:0.048242282 7:0.051501684 8:0.049370993 9:0.031603094 10:0.018580198 11:0.032771885 12:0.018440468 13:0.033396192 14:0.025479859 15:0.033686142 16:0.017661238 
450 1:0.95042324 2:0.74013799 3:0.072682723 4:0.098306134 5:0.041875768 6:0.051702127 7:0.042256519 8:0.058852196 9:0.01960922 10:0.030307818 11:0.018375063 12:0.028055606 13:0.02098215 14:0.025570696 15:0.019694073 16:0.020747537 
450 1:0.096082412 2:0.06437055 3:0.072365381 4:0.066202924 5:0.059574567 6:0.045656834 7:0.059713691 8:0.048972771 9:0.040852405 10:0.022256097 11:0.04643283 12:0.027742274 13:0.036270913 14:0.02433968 15:0.045565128 16:0.029057071 
450 1:0.026071776 2:0.0069802934 3:0.057634391 4:0.040684421 5:0.061829876 6:0.042460807 7:0.062053118 8:0.0468737 9:0.062078889 10:0.056958042 11:0.06522385 12:0.052178666 13:0.044781469 14:0.032119807 15:0.057513457 16:0.043212052 
-450 1:0.79221332 2:0.59884644 3:0.080750704 4:0.10106675 5:0.045901932 6:0.049655322 7:0.048511367 8:0.058973912 9:0.023300318 10:0.028155597 11:0.022547966 12:0.025597852 13:0.024073355 14:0.025234157 15:0.023074217 16:0.01831812 
450 1:0.95170248 2:0.74028713 3:0.083963528 4:0.1051404 5:0.050999954 6:0.054901134 7:0.052461047 8:0.062975541 9:0.023893252 10:0.029917616 11:0.022424523 12:0.026199568 13:0.025740001 14:0.026585108 15:0.025414227 16:0.02109508 
-450 1:0.7936933 2:0.59891838 3:0.095253706 4:0.11109948 5:0.057869215 6:0.051880959 7:0.061577268 8:0.066923015 9:0.030018486 10:0.027848102 11:0.028721191 12:0.025261512 13:0.030966718 14:0.026335018 15:0.030640019 16:0.020675194 
-450 1:0.34753329 2:0.26234782 3:0.10549503 4:0.10654744 5:0.076320365 6:0.054500982 7:0.077666909 8:0.067116156 9:0.046397071 10:0.027404547 11:0.047656856 12:0.024845319 13:0.044780631 14:0.029549051 15:0.045741282 16:0.022515815 
-450 1:0.18854488 2:0.13323274 3:0.12119281 4:0.11013816 5:0.10534852 6:0.077867292 7:0.10083707 8:0.082933053 9:0.060607668 10:0.031212395 11:0.066368945 12:0.03733794 13:0.063627213 14:0.045633446 15:0.066482402 16:0.038312953 
-450 1:0.12409706 2:0.07775645 3:0.13679111 4:0.11340712 5:0.1179693 6:0.082895033 7:0.12158834 8:0.094426312 9:0.079890639 10:0.042924937 11:0.091900207 12:0.059538834 13:0.073187463 14:0.050272748 15:0.088384189 16:0.061473079 
450 1:0.059575059 2:0.023296822 3:0.13583124 4:0.10378936 5:0.13543621 6:0.099449523 7:0.13767563 8:0.10804752 9:0.12160696 10:0.10351168 11:0.12749742 12:0.10428382 13:0.094257213 14:0.075129688 15:0.11232328 16:0.08902847 
-450 1:0.35302669 2:0.2638689 3:0.13819389 4:0.13103679 5:0.10447947 6:0.067981809 7:0.10663854 8:0.085351802 9:0.063148305 10:0.033458576 11:0.066559866 12:0.034565549 13:0.061287735 14:0.037820205 15:0.063815378 16:0.031933356 
450 1:0.20506425 2:0.14073801 3:0.16493328 4:0.14060162 5:0.14291981 6:0.098913014 7:0.14191169 8:0.10902054 9:0.082099214 10:0.041637272 11:0.091857903 12:0.05303935 13:0.086842045 14:0.059780702 15:0.091445021 16:0.054266699 
450 1:0.14969084 2:0.088513523 3:0.19757478 4:0.16198684 5:0.16628061 6:0.11624213 7:0.17415641 8:0.13309634 9:0.10832182 10:0.057512619 11:0.12719427 12:0.083266333 13:0.1029276 14:0.072323471 15:0.12283877 16:0.085358001 
450 1:0.088865928 2:0.037715666 3:0.20366037 4:0.16122921 5:0.19149674 6:0.14490974 7:0.19717866 8:0.15900129 9:0.16353537 10:0.1323179 11:0.17359444 12:0.13957822 13:0.13070026 14:0.10939211 15:0.1523312 16:0.12218804 
450 1:0.96707743 2:0.74324346 3:0.20319694 4:0.20168296 5:0.15300415 6:0.10315347 7:0.15502582 8:0.13028276 9:0.065227874 10:0.038070217 11:0.076783732 12:0.040619843 13:0.081330121 14:0.05340565 15:0.085981496 16:0.047180142 
450 1:0.81540155 2:0.60230684 3:0.22430182 4:0.22186197 5:0.16048637 6:0.10142009 7:0.17123309 8:0.14611183 9:0.076607026 10:0.038392119 11:0.088226974 12:0.043444853 13:0.089430898 14:0.054768894 15:0.094348319 16:0.052706737 
450 1:0.39014211 2:0.27554083 3:0.27066556 4:0.24051782 5:0.20436373 6:0.12920035 7:0.21504207 8:0.16797118 9:0.11816245 10:0.061162263 11:0.13185504 12:0.072901897 13:0.1205167 14:0.075164072 15:0.12707749 16:0.071255296 
450 1:0.25786629 2:0.1641539 3:0.30105364 4:0.25489008 5:0.24639617 6:0.17399418 7:0.25151634 8:0.19823396 9:0.13713643 10:0.072991505 11:0.15945968 12:0.1007468 13:0.14864267 14:0.1089541 15:0.15725869 16:0.103713 
450 1:0.19786187 2:0.1129421 3:0.31556228 4:0.25991723 5:0.2553921 6:0.18552738 7:0.27476642 8:0.21707971 9:0.16301009 10:0.094066307 11:0.19203672 12:0.13507622 13:0.15731323 14:0.11750692 15:0.18520328 16:0.13705491 
450 1:0.1430506 2:0.064734146 3:0.32831135 4:0.27572131 5:0.29353213 6:0.22276877 7:0.30563107 8:0.25143513 9:0.23915602 10:0.20072716 11:0.25440732 12:0.21025722 13:0.1959894 14:0.16612977 15:0.22375752 16:0.18565507 
450 1:0.41919494 2:0.32556778 3:0.084800646 4:0.15658061 5:0.059009816 6:0.10442822 7:0.0597714 8:0.12468024 9:0.02860843 10:0.040122457 11:0.033173289 12:0.050680477 13:0.033211753 14:0.055637199 15:0.029109811 16:0.043640003 
-90.708059124579393 1:0.32858503 2:0.26100039 3:0.076535739 4:0.13990004 5:0.052456647 6:0.094654433 7:0.052839953 8:0.11293541 9:0.024031548 10:0.032918733 11:0.027934741 12:0.043117695 13:0.029076958 14:0.049904786 15:0.024805663 16:0.037489884 
-450 1:0.14629143 2:0.10016846 3:0.044087566 4:0.08077722 5:0.027103089 6:0.059373017 7:0.029016411 8:0.069776461 9:0.01314304 10:0.017496176 11:0.013385235 12:0.019805599 13:0.014518011 14:0.029346654 15:0.011294642 16:0.016413074 
450 1:0.060349587 2:0.040946003 3:0.027660087 4:0.050888143 5:0.016065732 6:0.041938182 7:0.017064609 8:0.049215056 9:0.010788579 10:0.01879302 11:0.0089089181 12:0.018082814 13:0.0091204792 14:0.020304076 15:0.0065837423 16:0.011312177 
450 1:0.022371134 2:0.015036584 3:0.017603343 4:0.034980264 5:0.0092207799 6:0.031799793 7:0.0091635743 8:0.038219206 9:0.0060462276 10:0.010775596 11:0.0039728093 12:0.010041085 13:0.0057714302 14:0.016356779 15:0.0032715644 16:0.0070205363 
450 1:0.41910848 2:0.32563648 3:0.098800205 4:0.16438249 5:0.073366225 6:0.11284972 7:0.072570622 8:0.13201274 9:0.035937428 10:0.042290729 11:0.03937377 12:0.051854733 13:0.041314479 14:0.058895715 15:0.036576029 16:0.047935508 
-450 1:0.32887256 2:0.26082444 3:0.094838202 4:0.14977916 5:0.072058134 6:0.10595891 7:0.072431967 8:0.12355507 9:0.040902663 10:0.041348767 11:0.043363608 12:0.048869189 13:0.042544954 14:0.057138048 15:0.039218597 16:0.047074232 
-450 1:0.15019417 2:0.10233065 3:0.098189354 4:0.11635368 5:0.09395358 6:0.10052422 7:0.096605122 8:0.12136927 9:0.082008332 10:0.073516861 11:0.085760877 12:0.080159046 13:0.066273876 14:0.069867425 15:0.077817924 16:0.075880677 
-450 1:0.085102938 2:0.055097923 3:0.11031318 4:0.11632574 5:0.12454793 6:0.1237556 7:0.13176283 8:0.1511731 9:0.093925528 10:0.073066905 11:0.11017146 12:0.095330164 13:0.088449694 14:0.090310402 15:0.10548804 16:0.10212069 
-450 1:0.058148805 2:0.036102578 3:0.12376671 4:0.12470815 5:0.1423391 6:0.1362877 7:0.15858968 8:0.17659295 9:0.12063882 10:0.1020117 11:0.14532772 12:0.12812506 13:0.097047344 14:0.095508546 15:0.13191824 16:0.1243809 
-450 1:0.034616176 2:0.018491965 3:0.13646586 4:0.13622318 5:0.17471108 6:0.16270199 7:0.19387612 8:0.21236993 9:0.16924144 10:0.14972098 11:0.19501065 12:0.18372752 13:0.13078387 14:0.12978593 15:0.16979672 16:0.16719949 
-450 1:0.42384309 2:0.32853249 3:0.16696922 4:0.21387334 5:0.14333038 6:0.16781543 7:0.14022349 8:0.18537833 9:0.099045791 10:0.090432309 11:0.10322375 12:0.10316164 13:0.089428976 14:0.099438198 15:0.092327572 16:0.097977735 
-450 1:0.33527523 2:0.26465958 3:0.16765203 4:0.20666859 5:0.15672012 6:0.16944444 7:0.15730111 8:0.18910775 9:0.1336015 10:0.11569441 11:0.13734531 12:0.1268651 13:0.10370272 14:0.11156882 15:0.11558846 16:0.11102209 
450 1:0.4258436 2:0.33030623 3:0.1833628 4:0.22602062 5:0.17092142 6:0.18633407 7:0.16322903 8:0.20364964 9:0.12226023 10:0.11038674 11:0.1254935 12:0.11863213 13:0.10792103 14:0.1131752 15:0.11119765 16:0.11178454 
-450 1:0.33721629 2:0.26620638 3:0.18171835 4:0.21462853 5:0.17969051 6:0.18116565 7:0.1780809 8:0.20796135 9:0.15658191 10:0.12901565 11:0.16022471 12:0.14530103 13:0.12024183 14:0.12281305 15:0.1340667 16:0.12602858 
-450 1:0.16897336 2:0.11370153 3:0.20154944 4:0.20941684 5:0.25564054 6:0.22181575 7:0.25879008 8:0.26792204 9:0.2556597 10:0.22179723 11:0.27954012 12:0.25237039 13:0.19408952 14:0.1798079 15:0.23885436 16:0.2098854 
-450 1:0.12255049 2:0.079829298 3:0.23555478 4:0.23929985 5:0.3490158 6:0.2952303 7:0.35677439 8:0.36325625 9:0.26745114 10:0.19689658 11:0.32656869 12:0.27281201 13:0.25749916 14:0.23585537 15:0.29997054 16:0.25290599 
450 1:0.10121835 2:0.063638441 3:0.25378862 4:0.25916764 5:0.37951756 6:0.31903315 7:0.41339532 8:0.41941997 9:0.31323019 10:0.24611107 11:0.38655579 12:0.3270359 13:0.26894861 14:0.24002276 15:0.34434256 16:0.28749561 
-450 1:0.1773895 2:0.11905868 3:0.22416921 4:0.22674964 5:0.31519231 6:0.25725457 7:0.32322407 8:0.32003868 9:0.29359233 10:0.24273747 11:0.32880038 12:0.28572097 13:0.23891264 14:0.2119512 15:0.28136384 16:0.23725685 
-450 1:0.089324825 2:0.052802686 3:0.29410815 4:0.29971963 5:0.48744982 6:0.40138695 7:0.54679418 8:0.54196072 9:0.43517566 10:0.34621787 11:0.51328421 12:0.44408882 13:0.37008473 14:0.33145431 15:0.44432113 16:0.37179527 
-450 1:0.13581297 2:0.088018171 3:0.26435766 4:0.26359165 5:0.41873005 6:0.34031177 7:0.43713784 8:0.42737019 9:0.3044228 10:0.21998344 11:0.37646785 12:0.30636206 13:0.30881312 14:0.27392685 15:0.34734043 16:0.28339273 
450 1:0.12458566 2:0.07734599 3:0.30496743 4:0.30444252 5:0.47700596 6:0.38375339 7:0.53502429 8:0.52195626 9:0.37484655 10:0.28446341 11:0.4679147 12:0.38358122 13:0.33799878 14:0.29027915 15:0.41861108 16:0.33443615 
-450 1:0.11126451 2:0.065770306 3:0.34612644 4:0.35002413 5:0.55956221 6:0.45583862 7:0.62962782 8:0.61434811 9:0.48540729 10:0.37525016 11:0.57636243 12:0.48847756 13:0.42578501 14:0.37570429 15:0.50436312 16:0.41364238 
450 1:0.46464977 2:0.35248765 3:0.28835157 4:0.30571306 5:0.26733774 6:0.2519308 7:0.26796213 8:0.26987824 9:0.18578611 10:0.1478323 11:0.19814396 12:0.16785601 13:0.1723424 14:0.15804304 15:0.17611162 16:0.15375704 
450 1:0.38409749 2:0.29136276 3:0.29584646 4:0.30793023 5:0.29658198 6:0.24999039 7:0.30218577 8:0.28558049 9:0.23760827 10:0.18354239 11:0.2543689 12:0.21410725 13:0.20141512 14:0.17748339 15:0.21620302 16:0.17676176 
450 1:0.23183934 2:0.15134266 3:0.33289462 4:0.31033781 5:0.44982299 6:0.3411811 7:0.47644773 8:0.43614933 9:0.39963406 10:0.31870413 11:0.45331469 12:0.38321468 13:0.33922851 14:0.2820721 15:0.3890613 16:0.31218466 
450 1:0.19603245 2:0.12220468 3:0.37723616 4:0.36417314 5:0.55415523 6:0.42902133 7:0.58988494 8:0.55517811 9:0.37913105 10:0.27128446 11:0.47512248 12:0.38034344 13:0.40872532 14:0.34537542 15:0.44822007 16:0.35176548 
-347.46820919079107 1:0.17813937 2:0.10728705 3:0.40122551 4:0.38972661 5:0.5981794 6:0.46149582 7:0.67304015 8:0.63500297 9:0.4450503 10:0.33194411 11:0.56135452 12:0.45261118 13:0.42268595 14:0.34883243 15:0.50774759 16:0.39554572 
334.43581768445108 1:0.15392199 2:0.091505833 3:0.42184737 4:0.42174944 5:0.66966182 6:0.53048277 7:0.75411135 8:0.72310644 9:0.56439447 10:0.43636596 11:0.66628605 12:0.56637645 13:0.50836807 14:0.43693951 15:0.58845854 16:0.47637224 
450 1:0.1531031 2:0.12105966 3:0.047203407 4:0.085318059 5:0.049527466 6:0.089660153 7:0.046775393 8:0.099659696 9:0.022791089 10:0.036630925 11:0.026721718 12:0.046191964 13:0.027190868 14:0.049410056 15:0.020096252 16:0.029938797 
450 1:0.12839237 2:0.098761223 3:0.042978358 4:0.07893233 5:0.042548034 6:0.079256512 7:0.043604024 8:0.094894551 9:0.018517293 10:0.029070944 11:0.02194996 12:0.038614042 13:0.023776876 14:0.043875474 15:0.018378325 16:0.027462939 
-450 1:0.060838375 2:0.039513815 3:0.031829417 4:0.061914105 5:0.022342196 6:0.047749355 7:0.026693767 8:0.065500721 9:0.010112859 10:0.015348486 11:0.010596641 12:0.019021226 13:0.01189845 14:0.023706101 15:0.0079269707 16:0.011173612 
-450 1:0.021762671 2:0.013545768 3:0.02636219 4:0.051907148 5:0.01659178 6:0.03873961 7:0.018844038 8:0.049995039 9:0.0082798265 10:0.014516421 11:0.0078574261 12:0.015233976 13:0.0084690666 14:0.017915074 15:0.0049873837 16:0.0071441992 
-450 1:0.0040326845 2:0.0019007392 3:0.023329774 4:0.046086561 5:0.013215944 6:0.035613995 7:0.015076973 8:0.043319717 9:0.0057435976 10:0.010125523 11:0.0055983383 12:0.010763431 13:0.0062554767 14:0.01581797 15:0.0032432436 16:0.0042786961 
450 1:0.15531972 2:0.12173036 3:0.091266334 4:0.10922685 5:0.062969603 6:0.082732931 7:0.076922268 8:0.10020798 9:0.042117923 10:0.038969576 11:0.046750423 12:0.046143174 13:0.038173262 14:0.045712013 15:0.050108444 16:0.044030689 
450 1:0.13161869 2:0.099619657 3:0.10352518 4:0.11433501 5:0.071342394 6:0.079660684 7:0.085899808 8:0.10111739 9:0.056142781 10:0.04170524 11:0.061993513 12:0.046562981 13:0.044748809 14:0.044538639 15:0.059266221 16:0.048905481 
-450 1:0.071088053 2:0.042524517 3:0.13907878 4:0.13745731 5:0.12705886 6:0.09867952 7:0.142309 8:0.13009326 9:0.11278872 10:0.072935238 11:0.1319727 12:0.086354025 13:0.087613776 14:0.065419905 15:0.11241248 16:0.087024815 
-450 1:0.050914653 2:0.024689635 3:0.16363955 4:0.15657406 5:0.18207417 6:0.14328274 7:0.19744106 8:0.17281838 9:0.13986953 10:0.09418235 11:0.16858615 12:0.11696488 13:0.1238575 14:0.097450197 15:0.14408493 16:0.11605293 
450 1:0.044827603 2:0.018202038 3:0.19249468 4:0.17938098 5:0.2245308 6:0.1771722 7:0.25674641 8:0.22916742 9:0.17623018 10:0.12433078 11:0.21390085 12:0.15665677 13:0.15089375 14:0.11842779 15:0.17591372 16:0.14470205 
450 1:0.037492815 2:0.011145215 3:0.19308664 4:0.17090374 5:0.25801766 6:0.19569546 7:0.29789874 8:0.25891912 9:0.21384677 10:0.15912752 11:0.25455523 12:0.19608578 13:0.18360865 14:0.14771789 15:0.20251963 16:0.16694488 
450 1:0.16539717 2:0.12501152 3:0.19253621 4:0.19572593 5:0.13604677 6:0.10916578 7:0.17710732 8:0.16199166 9:0.11383624 10:0.070334271 11:0.13454488 12:0.083658747 13:0.092720456 14:0.067512482 15:0.13035375 16:0.096058235 
450 1:0.14617579 2:0.10366891 3:0.21867523 4:0.22026451 5:0.17337258 6:0.12394631 7:0.20327744 8:0.1702922 9:0.16202904 10:0.098287091 11:0.18606113 12:0.11343585 13:0.11900725 14:0.079343744 15:0.15578637 16:0.11149441 
450 1:0.1727358 2:0.12679279 3:0.22681324 4:0.23718284 5:0.16741127 6:0.12220734 7:0.21569151 8:0.17943223 9:0.14681314 10:0.08991085 11:0.17750479 12:0.10839184 13:0.1174475 14:0.079514846 15:0.1708515 16:0.12323235 
-450 1:0.15290011 2:0.10555484 3:0.25119522 4:0.24556398 5:0.23230743 6:0.1521595 7:0.26532459 8:0.19895433 9:0.21600331 10:0.13490476 11:0.2496594 12:0.15745465 13:0.1610889 14:0.10425054 15:0.21158688 16:0.14832188 
-450 1:0.10264267 2:0.05345127 3:0.2901471 4:0.2818085 5:0.34386167 6:0.2283701 7:0.36937118 8:0.28178278 9:0.28461939 10:0.19423461 11:0.3510859 12:0.23975287 13:0.24469881 14:0.16798744 15:0.28913188 16:0.21820018 
450 1:0.090120859 2:0.040688153 3:0.31702107 4:0.30463189 5:0.42040187 6:0.29751968 7:0.45525444 8:0.35604981 9:0.29578984 10:0.20320155 11:0.37388912 12:0.26287496 13:0.29022539 14:0.21381271 15:0.31817108 16:0.24987294 
450 1:0.08952754 2:0.037364859 3:0.36556658 4:0.34139812 5:0.50276965 6:0.36112538 7:0.58357334 8:0.47112027 9:0.35677737 10:0.26182356 11:0.45160037 12:0.33973584 13:0.34151348 14:0.25380674 15:0.38505384 16:0.31136626 
25.995630298671902 1:0.092386045 2:0.032996546 3:0.401903 4:0.35537204 5:0.60733217 6:0.44035861 7:0.73413712 8:0.59801316 9:0.4300656 10:0.33481452 11:0.53995353 12:0.43207902 13:0.42397285 14:0.33454713 15:0.46530989 16:0.38129598 
-450 1:0.12031457 2:0.061770074 3:0.37007594 4:0.33568698 5:0.48187897 6:0.31986973 7:0.53241754 8:0.39400801 9:0.37518659 10:0.25973934 11:0.4664717 12:0.32734698 13:0.34008002 14:0.23903902 15:0.40476882 16:0.30496347 
450 1:0.11104263 2:0.049592696 3:0.40478608 4:0.36481169 5:0.57740521 6:0.40832147 7:0.64502835 8:0.50188571 9:0.38077131 10:0.26415417 11:0.4876419 12:0.35019916 13:0.39532337 14:0.29613096 15:0.43849728 16:0.34257892 
-450 1:0.11477733 2:0.05011937 3:0.45919999 4:0.41928437 5:0.64578348 6:0.46855524 7:0.76772952 8:0.62829071 9:0.42722911 10:0.31692657 11:0.54729563 12:0.41943648 13:0.43460226 14:0.32993388 15:0.49050185 16:0.39333901 
-450 1:0.11638048 2:0.04506455 3:0.48979503 4:0.44537607 5:0.69999748 6:0.52179164 7:0.85498202 8:0.72328866 9:0.46503234 10:0.36851415 11:0.59297431 12:0.48050693 13:0.48278445 14:0.38950309 15:0.53381753 16:0.44184083 
-268.96312132855098 1:0.24457419 2:0.15559004 3:0.45114705 4:0.42905715 5:0.38917345 6:0.25446737 7:0.50379336 8:0.38590971 9:0.28926593 10:0.18420668 11:0.36439776 12:0.24070314 13:0.26864657 14:0.17961724 15:0.37460804 16:0.28391269 
450 1:0.21868192 2:0.13134144 3:0.47343001 4:0.44433531 5:0.44713193 6:0.29645371 7:0.53456807 8:0.41035065 9:0.35668308 10:0.24099822 11:0.42213544 12:0.29209304 13:0.30483255 14:0.20874126 15:0.39070687 16:0.29293728 
450 1:0.17972274 2:0.086648606 3:0.54329592 4:0.50405353 5:0.63884866 6:0.46031076 7:0.72599334 8:0.58648521 9:0.44082385 10:0.32953542 11:0.55353415 12:0.41512656 13:0.43645668 14:0.33205694 15:0.51529902 16:0.41610381 
21.913311741154406 1:0.17084944 2:0.077506125 3:0.5927726 4:0.55541438 5:0.73712879 6:0.5594101 7:0.85922766 8:0.72720718 9:0.43422914 10:0.32511023 11:0.56259251 12:0.43095726 13:0.48910904 14:0.39081639 15:0.54588324 16:0.44809121 
119.67925471612676 1:0.16684127 2:0.076456226 3:0.62505126 4:0.59001696 5:0.76839662 6:0.59285259 7:0.94802856 8:0.82424784 9:0.46833679 10:0.3830848 11:0.60567945 12:0.49536413 13:0.50352019 14:0.4034465 15:0.57176781 16:0.48528972 
450 1:0.48533243 2:0.41210869 3:0.074020565 4:0.12255125 5:0.037659045 6:0.071402542 7:0.040226843 8:0.078277744 9:0.020437445 10:0.038377453 11:0.020777265 12:0.041220888 13:0.018925743 14:0.037453704 15:0.016219001 16:0.028715363 
-450 1:0.38959855 2:0.32208878 3:0.068037942 4:0.11252868 5:0.033138953 6:0.064662091 7:0.035315193 8:0.07075724 9:0.018224519 10:0.034538463 11:0.017855722 12:0.036651835 13:0.016973367 14:0.034129966 15:0.013868962 16:0.025479944 
-450 1:0.15626265 2:0.12458759 3:0.046338223 4:0.077708147 5:0.019370766 6:0.043344915 7:0.021232596 8:0.04695284 9:0.010862134 10:0.020928785 11:0.0092695663 12:0.020455638 13:0.0089598242 14:0.020464743 15:0.0065530203 16:0.012590872 
-450 1:0.024339955 2:0.020176746 3:0.030083537 4:0.048385274 5:0.0068474934 6:0.024272975 7:0.008386963 8:0.025318883 9:0.0028271154 10:0.0080688698 11:0.0016579675 12:0.005350004 13:0.0021953748 14:0.009087733 15:0.0009888761 16:0.0022728252 
450 1:0.48536596 2:0.41210428 3:0.090494752 4:0.13579787 5:0.05237006 6:0.077567078 7:0.051302675 8:0.081963524 9:0.026403086 10:0.035884954 11:0.025843836 12:0.036543038 13:0.0270354 14:0.039637346 15:0.02367916 16:0.028236357 
-450 1:0.38986266 2:0.32202929 3:0.088212028 4:0.12762564 5:0.053664569 6:0.072536208 7:0.053395234 8:0.078609832 9:0.03011919 10:0.033921693 11:0.029801982 12:0.033780534 13:0.029290721 14:0.037293024 15:0.027992254 16:0.028776962 
-450 1:0.15875468 2:0.12569906 3:0.098579295 4:0.11731608 5:0.082528308 6:0.078317083 7:0.084592149 8:0.09040609 9:0.04468023 10:0.033454977 11:0.049831294 12:0.035223875 13:0.051714256 14:0.045730587 15:0.052923929 16:0.039047383 
-450 1:0.081228197 2:0.061267864 3:0.11142226 4:0.12020806 5:0.10297154 6:0.090820976 7:0.10757834 8:0.10718701 9:0.057211142 10:0.042089786 11:0.0709894 12:0.052195515 13:0.066004202 14:0.056615576 15:0.074010178 16:0.056550033 
-450 1:0.049105328 2:0.033813719 3:0.12908922 4:0.12646207 5:0.11904953 6:0.10553754 7:0.1304258 8:0.12722376 9:0.080053121 10:0.059329506 11:0.098392613 12:0.079271168 13:0.07662493 14:0.064648964 15:0.096932329 16:0.078951448 
-450 1:0.020009341 2:0.0088895755 3:0.12190176 4:0.11089349 5:0.1318412 6:0.11590452 7:0.14598452 8:0.14289369 9:0.11462644 10:0.10321816 11:0.13047816 12:0.11880609 13:0.091956556 14:0.084871881 15:0.11853697 16:0.105363 
-450 1:0.48736224 2:0.41295105 3:0.13575593 4:0.173979 5:0.095104136 6:0.10367176 7:0.091577649 8:0.10998014 9:0.052728448 10:0.043257914 11:0.053506676 12:0.046151079 13:0.052661277 14:0.053816341 15:0.053241257 16:0.043421172 
-450 1:0.39181784 2:0.32301122 3:0.13866155 4:0.1689541 5:0.10827444 6:0.10347721 7:0.10588622 8:0.11690264 9:0.069074832 10:0.051341806 11:0.07254605 12:0.053004254 13:0.063863002 14:0.056677569 15:0.070185423 16:0.05201266 
-450 1:0.48829031 2:0.41323924 3:0.15477374 4:0.18935321 5:0.11218569 6:0.11341813 7:0.10901056 8:0.12160888 9:0.065397896 10:0.048384938 11:0.068174347 12:0.053730793 13:0.063721023 14:0.062026437 15:0.067653149 16:0.051637143 
-450 1:0.39291835 2:0.3232739 3:0.15393409 4:0.18384583 5:0.1253898 6:0.11354306 7:0.12293353 8:0.13022609 9:0.08079689 10:0.056281429 11:0.086741351 12:0.061485481 13:0.075494669 14:0.062959641 15:0.083301067 16:0.061485313 
-450 1:0.16667409 2:0.13013875 3:0.18168269 4:0.18872026 5:0.18282187 6:0.14406119 7:0.18586534 8:0.17241493 9:0.11064494 10:0.072743043 11:0.1300111 12:0.084688015 13:0.1193447 14:0.091753379 15:0.13140501 16:0.091769695 
-450 1:0.10239731 2:0.073436566 3:0.22120598 4:0.21371195 5:0.2329845 6:0.18338035 7:0.24481325 8:0.21843031 9:0.13901873 10:0.09238103 11:0.17374165 12:0.12147902 13:0.15407796 14:0.12140625 15:0.17645729 16:0.12936901 
-450 1:0.077875473 2:0.050446 3:0.25978482 4:0.24179828 5:0.2728945 6:0.21636845 7:0.29708812 8:0.26878256 9:0.17771125 10:0.12227811 11:0.22446848 12:0.16640563 13:0.17820553 14:0.1406512 15:0.21745421 16:0.16730082 
-450 1:0.17389287 2:0.13480955 3:0.23297541 4:0.23824525 5:0.24860735 6:0.18942048 7:0.25493851 8:0.22923087 9:0.15079664 10:0.097676903 11:0.18002613 12:0.11684692 13:0.1632816 14:0.12291057 15:0.18018092 16:0.12581718 
-450 1:0.057566993 2:0.03047771 3:0.27512637 4:0.24867313 5:0.32010517 6:0.25695977 7:0.34819877 8:0.3169291 9:0.24364114 10:0.1935786 11:0.28840262 12:0.23296501 13:0.22076502 14:0.18688123 15:0.2647225 16:0.21114706 
-450 1:0.11796476 2:0.082529634 3:0.28759009 4:0.27315935 5:0.3110663 6:0.24161781 7:0.33166972 8:0.29037216 9:0.18207331 10:0.11764855 11:0.23011917 12:0.15961446 13:0.20586486 14:0.16093987 15:0.2328939 16:0.16937111 
-450 1:0.099256262 2:0.062853448 3:0.33706167 4:0.31947818 5:0.35868308 6:0.28498998 7:0.39339507 8:0.35990047 9:0.22710487 10:0.15456271 11:0.28787401 12:0.21378945 13:0.23335509 14:0.1858857 15:0.27837366 16:0.21365118 
450 1:0.078170016 2:0.043186277 3:0.35636505 4:0.33238566 5:0.40455538 6:0.33186156 7:0.44106188 8:0.41447848 9:0.29226914 10:0.23090129 11:0.35119104 12:0.28429464 13:0.27652171 14:0.23919363 15:0.32549992 16:0.26295066 
-450 1:0.50888366 2:0.42566067 3:0.32655966 4:0.37176144 5:0.28449291 6:0.24642681 7:0.27994394 8:0.27542832 9:0.16651672 10:0.10722984 11:0.19112952 12:0.12818652 13:0.1715688 14:0.14269362 15:0.19189678 16:0.14188698 
450 1:0.42079026 2:0.33710933 3:0.32475835 4:0.35894561 5:0.30913273 6:0.25301808 7:0.31212091 8:0.29705897 9:0.19699465 10:0.1285293 11:0.23289199 12:0.15873243 13:0.19212945 14:0.14991707 15:0.2236722 16:0.16240996 
450 1:0.21672155 2:0.15827422 3:0.40893078 4:0.42245808 5:0.43609202 6:0.34578398 7:0.45196822 8:0.42264789 9:0.261682 10:0.18116868 11:0.32190633 12:0.23166989 13:0.28440034 14:0.23022206 15:0.31842035 16:0.24141757 
-450 1:0.16838385 2:0.11202551 3:0.46930659 4:0.46612981 5:0.50522375 6:0.40443864 7:0.53178382 8:0.49592167 9:0.28886446 10:0.19179693 11:0.36522233 12:0.26742721 13:0.33213231 14:0.27249685 15:0.36687806 16:0.28300822 
-450 1:0.1473276 2:0.093211383 3:0.50762451 4:0.49845067 5:0.53323632 6:0.43787256 7:0.57821625 8:0.54991001 9:0.31929597 10:0.22230372 11:0.40736407 12:0.31403527 13:0.34530202 14:0.28955734 15:0.39769399 16:0.31834698 
450 1:0.11739875 2:0.06651859 3:0.49258262 4:0.47553897 5:0.55491245 6:0.4660106 7:0.60222924 8:0.5767532 9:0.37825593 10:0.30575898 11:0.45471773 12:0.37440038 13:0.37404266 14:0.33301342 15:0.4267979 16:0.34955481 
450 1:0.31672218 2:0.30900118 3:0.088361651 4:0.1686964 5:0.061628755 6:0.10600713 7:0.058205456 8:0.10680565 9:0.062664978 10:0.071054317 11:0.075622864 12:0.085254855 13:0.03459879 14:0.057091262 15:0.041997269 16:0.04932468 
-237.98272660529361 1:0.28214893 2:0.2710925 3:0.09859249 4:0.17336966 5:0.062103968 6:0.10315025 7:0.063720956 8:0.10632721 9:0.090466321 10:0.10015894 11:0.048923962 12:0.057094552 13:0.02719585 14:0.048908118 15:0.02140169 16:0.032480452 
-450 1:0.17547867 2:0.17495333 3:0.10759874 4:0.14961919 5:0.055612125 6:0.086872086 7:0.050449859 8:0.079331473 9:0.093242146 10:0.094415739 11:0.091886573 12:0.093050286 13:0.039748095 14:0.051644433 15:0.028032999 16:0.030045647 
-450 1:0.075907566 2:0.077459008 3:0.051675897 4:0.087964587 5:0.046947889 6:0.068007857 7:0.048884168 8:0.071156695 9:0.058715075 10:0.088413201 11:0.019160476 12:0.029951403 13:0.022030059 14:0.034245636 15:0.020573679 16:0.027947854 
-450 1:0.029535189 2:0.032127846 3:0.083717152 4:0.10005341 5:0.042819757 6:0.059124973 7:0.044253979 8:0.059745044 9:0.037906196 10:0.057675362 11:0.031872563 12:0.052282229 13:0.017094124 14:0.027866693 15:0.03165824 16:0.04093726 
450 1:0.31659833 2:0.30876243 3:0.09096241 4:0.17115705 5:0.065804303 6:0.10891664 7:0.062443811 8:0.10818665 9:0.086701795 10:0.084918708 11:0.10362415 12:0.10262453 13:0.042227082 14:0.061068144 15:0.057492107 16:0.057130273 
-450 1:0.28219405 2:0.2708388 3:0.10683076 4:0.1785516 5:0.067728676 6:0.1071826 7:0.06865681 8:0.10768919 9:0.12204658 10:0.12026273 11:0.068360619 12:0.068559028 13:0.03184621 14:0.051308334 15:0.027456006 16:0.033554576 
-450 1:0.17569804 2:0.17469314 3:0.12819546 4:0.16217043 5:0.062550478 6:0.091272406 7:0.06108756 8:0.085992232 9:0.15376103 10:0.13168015 11:0.15108271 12:0.13325685 13:0.058763105 14:0.06165982 15:0.052933712 16:0.043357458 
450 1:0.31621772 2:0.30849338 3:0.095432654 4:0.17440185 5:0.07157445 6:0.11309955 7:0.067696393 8:0.11164081 9:0.10362099 10:0.09449394 11:0.12247884 12:0.11671874 13:0.049372647 14:0.065456279 15:0.069468319 16:0.064245202 
-450 1:0.086882174 2:0.084287509 3:0.059057251 4:0.094832189 5:0.052297544 6:0.066238642 7:0.060843337 8:0.080517143 9:0.092406616 10:0.12187898 11:0.040951665 12:0.050641056 13:0.026567848 14:0.034196448 15:0.031894531 16:0.036960881 
-450 1:0.045310732 2:0.042206969 3:0.11860733 4:0.12225052 5:0.041266415 6:0.055503804 7:0.06568677 8:0.076607578 9:0.051111717 10:0.071885437 11:0.058099758 12:0.079099543 13:0.016877944 14:0.02536436 15:0.057083637 16:0.063529059 
-450 1:0.28192681 2:0.27077973 3:0.1181408 4:0.18670303 5:0.077808894 6:0.11376972 7:0.077555127 8:0.1126678 9:0.15403114 10:0.14161257 11:0.089098081 12:0.082772925 13:0.039198231 14:0.055451743 15:0.036565889 16:0.03776383 
-450 1:0.010946652 2:0.0058928877 3:0.033224035 4:0.031102635 5:0.035074472 6:0.026493652 7:0.03468642 8:0.034728706 9:0.028864484 10:0.017525915 11:0.018738896 12:0.011102145 13:0.023556326 14:0.018044289 15:0.028846046 16:0.023856418 
450 1:0.31581676 2:0.30826032 3:0.10463017 4:0.1837521 5:0.083484046 6:0.12129951 7:0.078861758 8:0.1196319 9:0.13466007 10:0.11318033 11:0.15666419 12:0.14086503 13:0.061024301 14:0.073209949 15:0.089411415 16:0.077163294 
-450 1:0.17668854 2:0.17487867 3:0.1592861 4:0.18342245 5:0.077931046 6:0.10353262 7:0.080848984 8:0.10285977 9:0.23266321 10:0.18523563 11:0.22142304 12:0.18756501 13:0.083492205 14:0.077701509 15:0.086584374 16:0.068767354 
430.36151521052852 1:0.28208157 2:0.27047539 3:0.14377369 4:0.20743616 5:0.099094667 6:0.12854151 7:0.096550338 8:0.12651828 9:0.2109313 10:0.18281564 11:0.12658253 12:0.10964528 13:0.053425316 14:0.065067999 15:0.055194799 16:0.049124975 
-450 1:0.099517092 2:0.092371896 3:0.080353931 4:0.11603692 5:0.06936533 6:0.074750088 7:0.084930494 8:0.10528661 9:0.13788491 10:0.16972061 11:0.071042515 12:0.08200565 13:0.039310031 14:0.042904183 15:0.052233607 16:0.05704844 
-450 1:0.062945768 2:0.053703588 3:0.17055936 4:0.16197608 5:0.050568856 6:0.062166989 7:0.10153588 8:0.11090956 9:0.07323575 10:0.09577886 11:0.095957048 12:0.11890689 13:0.025410524 14:0.031754717 15:0.092830747 16:0.097979166 
450 1:0.040417872 2:0.025539463 3:0.10742637 4:0.10635943 5:0.11920416 6:0.094303012 7:0.11272259 8:0.11530513 9:0.10040817 10:0.0956413 11:0.065098442 12:0.062070422 13:0.075500034 14:0.069807865 15:0.080849096 16:0.079406679 
-450 1:0.18296996 2:0.17782229 3:0.22814451 4:0.23830186 5:0.11595508 6:0.13213071 7:0.12675183 8:0.14581318 9:0.37655377 10:0.28163829 11:0.35161141 12:0.28952989 13:0.13326067 14:0.10882898 15:0.15048434 16:0.12225723 
450 1:0.12738188 2:0.10844721 3:0.13538367 4:0.17331144 5:0.11265679 6:0.10502246 7:0.14040066 8:0.16292848 9:0.21898933 10:0.26950213 11:0.13040073 12:0.14369456 13:0.069672972 14:0.067074783 15:0.096526988 16:0.10191195 
-450 1:0.098857939 2:0.075561017 3:0.27517098 4:0.24719118 5:0.080530502 6:0.08968623 7:0.17728986 8:0.18384771 9:0.11843172 10:0.15714021 11:0.16958535 12:0.19919908 13:0.05032305 14:0.05352965 15:0.16197631 16:0.1657829 
450 1:0.091112576 2:0.055740926 3:0.22036819 4:0.21904533 5:0.25005937 6:0.20333533 7:0.23205549 8:0.23650835 9:0.18855949 10:0.18493995 11:0.13577054 12:0.13789667 13:0.15582295 14:0.15183072 15:0.16024841 16:0.16120282 
197.166518420241 1:0.4016988 2:0.34303412 3:0.42980933 4:0.54422289 5:0.34833118 6:0.34974217 7:0.34822637 8:0.38392642 9:0.57137376 10:0.47575003 11:0.59784156 12:0.50599909 13:0.26745063 14:0.24033628 15:0.37590304 16:0.30558077 
-417.95543226049278 1:0.38016242 2:0.31331423 3:0.54008424 4:0.62146837 5:0.38532525 6:0.38318086 7:0.39808869 8:0.40803844 9:0.71086764 10:0.61910617 11:0.49379498 12:0.41643545 13:0.23185559 14:0.21483184 15:0.29044574 16:0.24770132 
-53.072941445310953 1:0.30366215 2:0.23730053 3:0.68396354 4:0.69785368 5:0.35689041 6:0.35958263 7:0.43277928 8:0.47903177 9:0.96848667 10:0.91655028 11:0.94468665 12:0.87740153 13:0.3802 14:0.31553373 15:0.47318074 16:0.4420501 
178.36985952943706 1:0.27423039 2:0.20385133 3:0.4305065 4:0.54915684 5:0.33334315 6:0.31350073 7:0.40939218 8:0.50626218 9:0.52007735 10:0.76433206 11:0.37532511 12:0.44152021 13:0.21645871 14:0.21715489 15:0.28885368 16:0.33821499 
-215.46149486256795 1:0.25959498 2:0.18758643 3:0.73471057 4:0.74524587 5:0.26779515 6:0.31392425 7:0.51519555 8:0.59130687 9:0.30454129 10:0.4476327 11:0.45740262 12:0.60707939 13:0.18336713 14:0.21864168 15:0.4298659 16:0.51262975 
-54.687000383022621 1:0.24513391 2:0.17278445 3:0.59642768 4:0.67832416 5:0.67307925 6:0.68623495 7:0.59187245 8:0.66008055 9:0.4980711 10:0.64267957 11:0.36056915 12:0.45624644 13:0.41015986 14:0.52044874 15:0.3947362 16:0.48849839 
-450 1:0.86945063 2:0.86811197 3:0.044270672 4:0.085438818 5:0.041392323 6:0.084176667 7:0.034483101 8:0.084892467 9:0.040134296 10:0.054525536 11:0.037858486 12:0.060100116 13:0.029727979 14:0.058515865 15:0.02886555 16:0.050531089 
-450 1:0.76487207 2:0.77036202 3:0.043233324 4:0.081494242 5:0.038306706 6:0.077420644 7:0.032167807 8:0.079006985 9:0.03781049 10:0.050640728 11:0.034862377 12:0.05548498 13:0.02759381 14:0.054279417 15:0.026697077 16:0.04694536 
450 1:0.44713792 2:0.42716363 3:0.037726376 4:0.066463396 5:0.025966022 6:0.050561026 7:0.02315034 8:0.055953708 9:0.025392622 10:0.028809294 11:0.021841852 12:0.031766307 13:0.019484745 14:0.037130792 15:0.016836891 16:0.028262727 
-170.93132538725771 1:0.20635261 2:0.19602722 3:0.024780607 4:0.046115618 5:0.01643905 6:0.034820553 7:0.013765984 8:0.037446931 9:0.021946445 10:0.030858193 11:0.015429575 12:0.026327277 13:0.013571311 14:0.026673403 15:0.011247749 16:0.019479915 
450 1:0.091114454 2:0.089115843 3:0.014055572 4:0.032616787 5:0.0071071871 6:0.024797894 7:0.0056304755 8:0.027058814 9:0.016288895 10:0.022505462 11:0.0086233774 12:0.015586041 13:0.008873458 14:0.02136259 15:0.0070704184 16:0.012869561 
-450 1:0.86954123 2:0.86820805 3:0.045754772 4:0.084099382 5:0.040323801 6:0.081896313 7:0.033553462 8:0.082122549 9:0.039019939 10:0.053103432 11:0.035811141 12:0.058012221 13:0.028903468 14:0.057162859 15:0.026970128 16:0.048488624 
-450 1:0.76496542 2:0.77055544 3:0.045765433 4:0.080080055 5:0.037950207 6:0.074632332 7:0.031607199 8:0.07547199 9:0.036901444 10:0.04878575 11:0.032482762 12:0.052603215 13:0.026945282 14:0.052633662 15:0.024241874 16:0.04389127 
450 1:0.44742799 2:0.42740798 3:0.042105615 4:0.065725088 5:0.028148027 6:0.047781251 7:0.02498515 8:0.052792113 9:0.026660297 10:0.02638831 11:0.021464773 12:0.027582431 13:0.0208875 14:0.035247527 15:0.015713368 16:0.023810901 
-450 1:0.21423084 2:0.20117466 3:0.029333334 4:0.046134781 5:0.020623349 6:0.034032039 7:0.017278781 8:0.035840459 9:0.018012289 10:0.024743197 11:0.01297071 12:0.019781241 13:0.015777742 14:0.024451135 15:0.011736381 16:0.015378866 
450 1:0.10391354 2:0.097517826 3:0.020833051 4:0.035423063 5:0.014510497 6:0.026798364 7:0.01380786 8:0.030813679 9:0.013886328 10:0.016463378 11:0.014258588 12:0.015210439 13:0.010252211 14:0.017446449 15:0.016011251 16:0.016699878 
-450 1:0.0036316998 2:0.0014534384 4:0.00033501617 5:0.0053150249 6:0.0063975216 7:0.0046927901 8:0.0077011832 9:0.031326439 10:0.01895727 11:0.02429371 12:0.013645153 13:0.014192737 14:0.010275112 15:0.025248051 16:0.0190369 
450 1:0.86957771 2:0.86817986 3:0.048725918 4:0.083330728 5:0.039699137 6:0.079834528 7:0.033521384 8:0.079752892 9:0.03795315 10:0.052036092 11:0.034020197 12:0.056219265 13:0.028259106 14:0.055808406 15:0.025533486 16:0.046660081 
-450 1:0.76503587 2:0.77066803 3:0.048067283 4:0.079498552 5:0.037671257 6:0.073080286 7:0.031857185 8:0.073756292 9:0.036141898 10:0.047728144 11:0.031317674 12:0.05132569 13:0.026625646 14:0.051654365 15:0.0232297 16:0.04228932 
-288.13520009531385 1:0.44777587 2:0.42778802 3:0.046451252 4:0.066234156 5:0.029969245 6:0.046594374 7:0.02742338 8:0.052152712 9:0.027011108 10:0.026265942 11:0.021667987 12:0.026496528 13:0.022092888 14:0.034558218 15:0.016172925 16:0.022681821 
450 1:0.22184704 2:0.20619866 3:0.036905438 4:0.048388276 5:0.026105752 6:0.035216078 7:0.023492768 8:0.037840124 9:0.01765772 10:0.02357471 11:0.014647163 12:0.018689187 13:0.019122437 14:0.024414627 15:0.015210405 16:0.015482215 
450 1:0.11292607 2:0.10332555 3:0.02903837 4:0.040156044 5:0.021533931 6:0.0300004 7:0.022106981 8:0.035561856 9:0.015095813 10:0.016165694 11:0.019746613 12:0.01829686 13:0.013969244 14:0.017915023 15:0.022597775 16:0.020890048 
450 1:0.015123678 2:0.008849008 3:0.015144889 4:0.015070581 5:0.020946031 6:0.019440152 7:0.021088747 8:0.023564139 9:0.048391286 10:0.034138933 11:0.039885379 12:0.027514955 13:0.027938303 14:0.022983333 15:0.040175475 16:0.032686472 
450 1:0.87026024 2:0.86872143 3:0.057914577 4:0.084454462 5:0.039594937 6:0.076053746 7:0.035802763 8:0.075688861 9:0.035987794 10:0.05030755 11:0.031186296 12:0.053250466 13:0.027784752 14:0.053440258 15:0.023688465 16:0.043199707 
450 1:0.76600707 2:0.77088702 3:0.05792838 4:0.080627933 5:0.039043326 6:0.069295369 7:0.035128899 8:0.069719352 9:0.034742504 10:0.046006128 11:0.028891338 12:0.048235226 13:0.026765408 14:0.049262419 15:0.021904765 16:0.03877363 
450 1:0.45113871 2:0.42934307 3:0.061198756 4:0.070257373 5:0.039140254 6:0.046019282 7:0.038292117 8:0.053257197 9:0.029799931 10:0.026264383 11:0.025931111 12:0.025810208 13:0.027848974 14:0.033709787 15:0.021048902 16:0.021865092 
450 1:0.23589176 2:0.21436417 3:0.052165203 4:0.055599704 5:0.038122483 6:0.038823493 7:0.037568845 8:0.043442711 9:0.019675281 10:0.022779575 11:0.020871956 12:0.01922759 13:0.02673687 14:0.026271025 15:0.023326563 16:0.017400356 
450 1:0.14006601 2:0.11864935 3:0.057852212 4:0.060149655 5:0.049374573 6:0.043608617 7:0.052940056 8:0.055619907 9:0.023795454 10:0.018393328 11:0.040556483 12:0.029218085 13:0.030205095 14:0.023095142 15:0.045165267 16:0.035239805 
450 1:0.048732456 2:0.028357012 3:0.057288188 4:0.053126212 5:0.065598197 6:0.052610766 7:0.067675725 8:0.064726681 9:0.092661686 10:0.071154505 11:0.081922829 12:0.064962216 13:0.066795237 14:0.055704635 15:0.079605497 16:0.066734217 
450 1:0.87438244 2:0.87065715 3:0.098383911 4:0.10126653 5:0.053952459 6:0.071562432 7:0.057665914 8:0.075426988 9:0.036616363 10:0.048226487 11:0.032388035 12:0.047710296 13:0.034167226 14:0.049741268 15:0.029099496 16:0.037634201 
450 1:0.77256566 2:0.77330238 3:0.097607583 4:0.097690165 5:0.057209678 6:0.067143805 7:0.058738723 8:0.070931442 9:0.038413491 10:0.04531274 11:0.033468559 12:0.044753291 13:0.036110528 14:0.046740774 15:0.028941687 16:0.033985637 
450 1:0.4639779 2:0.4360624 3:0.10480841 4:0.093387879 5:0.073488727 6:0.057700809 7:0.074682377 8:0.069516256 9:0.05000145 10:0.039349779 11:0.050460175 12:0.037684493 13:0.049465764 14:0.042212468 15:0.043927476 16:0.03274136 
450 1:0.27190521 2:0.23422694 3:0.10102377 4:0.087711081 5:0.083490096 6:0.064541183 7:0.085372075 8:0.075426161 9:0.036196142 10:0.026998505 11:0.048451748 12:0.03041023 13:0.055977754 14:0.042871345 15:0.054099213 16:0.035048254 
450 1:0.17962404 2:0.14166521 3:0.10687009 4:0.09802644 5:0.096566185 6:0.074336812 7:0.10369122 8:0.096746124 9:0.044402804 10:0.030956369 11:0.07575348 12:0.055689499 13:0.058704823 14:0.039475385 15:0.081212871 16:0.063534945 
450 1:0.095306292 2:0.055094454 3:0.11541675 4:0.10664506 5:0.12802647 6:0.10367116 7:0.13256447 8:0.12780537 9:0.15001293 10:0.1277048 11:0.13659275 12:0.1183198 13:0.11889315 14:0.10485297 15:0.132164 16:0.11833331 
450 1:0.29919878 2:0.50173712 3:0.10777728 4:0.1568765 5:0.076161198 6:0.11130657 7:0.074958622 8:0.12017221 9:0.045682348 10:0.062470194 11:0.047169287 12:0.066798903 13:0.044798899 14:0.068262786 15:0.040568486 16:0.05867346 
-450 1:0.25092018 2:0.41278404 3:0.10519928 4:0.15118557 5:0.073970415 6:0.10667342 7:0.072925828 8:0.11705997 9:0.043548368 10:0.05914982 11:0.044264119 12:0.061789002 13:0.043721389 14:0.065859221 15:0.038657423 16:0.055572134 
-450 1:0.10978327 2:0.17233753 3:0.10795267 4:0.14809759 5:0.069205925 6:0.092217453 7:0.064228654 8:0.097550578 9:0.035448436 10:0.046423905 11:0.033127815 12:0.0447708 13:0.038729783 14:0.054852188 15:0.027879143 16:0.039007615 
450 1:0.045774315 2:0.076871477 3:0.095104866 4:0.12561782 5:0.055657733 6:0.073710926 7:0.051426273 8:0.076665625 9:0.028531862 10:0.039447498 11:0.028533185 12:0.040631197 13:0.029811485 14:0.041954745 15:0.021259913 16:0.030066691 
450 1:0.014746253 2:0.03182707 3:0.088071518 4:0.10958941 5:0.043271199 6:0.058106534 7:0.042465273 8:0.06161594 9:0.022033343 10:0.029478429 11:0.025102695 12:0.034232136 13:0.021422371 14:0.031513896 15:0.016367827 16:0.021672219 
450 1:0.29849222 2:0.50139767 3:0.12041357 4:0.16148719 5:0.078714855 6:0.11020292 7:0.07794302 8:0.11844982 9:0.04562534 10:0.061026573 11:0.046785347 12:0.064495482 13:0.04509604 14:0.067355752 15:0.039018821 16:0.055955213 
-450 1:0.24988109 2:0.41203314 3:0.12319991 4:0.15849298 5:0.080806226 6:0.10588841 7:0.081772327 8:0.1174544 9:0.045975763 10:0.058229763 11:0.047747936 12:0.060598541 13:0.046935242 14:0.06540107 15:0.040480908 16:0.052770957 
-450 1:0.11046755 2:0.17311421 3:0.16060154 4:0.17852083 5:0.11043788 6:0.11107633 7:0.10597917 8:0.11656462 9:0.064836197 10:0.067003481 11:0.069395751 12:0.071636252 13:0.066687308 14:0.068758458 15:0.055840697 16:0.049753606 
450 1:0.055833917 2:0.087559372 3:0.16182134 4:0.16669746 5:0.10800312 6:0.10085777 7:0.10946766 8:0.10875978 9:0.05894684 10:0.060441311 11:0.078141823 12:0.081267148 13:0.064197928 14:0.060879573 15:0.056959838 16:0.042934071 
450 1:0.29775062 2:0.50112951 3:0.14818674 4:0.17494839 5:0.090669617 6:0.11289623 7:0.091144398 8:0.12163328 9:0.051472463 10:0.0630133 11:0.053474717 12:0.065697297 13:0.051359184 14:0.06874413 15:0.044422049 16:0.054641914 
450 1:0.032815743 2:0.051157881 3:0.19511427 4:0.1798643 5:0.12078097 6:0.101532 7:0.13972315 8:0.12508303 9:0.067489773 10:0.060356569 11:0.111487 12:0.10991491 13:0.066137761 14:0.054300502 15:0.087299787 16:0.063966826 
-450 1:0.010103527 2:0.015083953 3:0.10517986 4:0.089211002 5:0.094774768 6:0.06949085 7:0.11924713 8:0.10074919 9:0.08615426 10:0.065772697 11:0.10568666 12:0.081957668 13:0.072712846 14:0.056263328 15:0.10850774 16:0.091846503 
369.71275179512907 1:0.29778436 2:0.50100392 3:0.15810356 4:0.17978056 5:0.096094653 6:0.11532415 7:0.096154623 8:0.12192973 9:0.053514384 10:0.062787764 11:0.056354985 12:0.06628643 13:0.053575736 14:0.068957306 15:0.047326356 16:0.054694891 
-450 1:0.24974187 2:0.41194981 3:0.15676469 4:0.17625773 5:0.097851947 6:0.11090463 7:0.10137863 8:0.12460943 9:0.053942762 10:0.062996857 11:0.059324782 12:0.065307826 13:0.05602356 14:0.067839645 15:0.050788447 16:0.0544554 
450 1:0.25015116 2:0.41254658 3:0.16781563 4:0.18350901 5:0.10615405 6:0.11316169 7:0.11040259 8:0.12882707 9:0.055366937 10:0.062211968 11:0.06239767 12:0.065353371 13:0.060045689 14:0.068811603 15:0.055098753 16:0.05501974 
450 1:0.11594708 2:0.17760427 3:0.24796043 4:0.23848388 5:0.17433813 6:0.14885426 7:0.17546469 8:0.16068275 9:0.10167794 10:0.10261474 11:0.11650266 12:0.1155509 13:0.10623989 14:0.096441522 15:0.097887583 16:0.0765315 
450 1:0.071261652 2:0.10274087 3:0.26930869 4:0.24575306 5:0.1853791 6:0.1526553 7:0.19806893 8:0.1723564 9:0.097384587 10:0.098546237 11:0.13553891 12:0.14044745 13:0.1121927 14:0.097127669 15:0.10929467 16:0.077051587 
450 1:0.11946052 2:0.17983441 3:0.28414083 4:0.27096266 5:0.19545011 6:0.16302088 7:0.20136932 8:0.18216534 9:0.11750701 10:0.11838751 11:0.13491993 12:0.13215904 13:0.11953608 14:0.10606337 15:0.11356415 16:0.088435262 
450 1:0.057507522 2:0.07517124 3:0.34024578 4:0.30083281 5:0.21672365 6:0.17006895 7:0.25760359 8:0.22241166 9:0.12330221 10:0.10661624 11:0.19902344 12:0.20024079 13:0.121999 14:0.093797632 15:0.16174382 16:0.1256538 
-450 1:0.039479654 2:0.044191618 3:0.24598038 4:0.22403827 5:0.20376383 6:0.16402976 7:0.25055894 8:0.22597525 9:0.18652835 10:0.16871908 11:0.20811197 12:0.1846192 13:0.14927287 14:0.13177045 15:0.20398444 16:0.19134781 
450 1:0.086005926 2:0.11632131 3:0.35280135 4:0.32266942 5:0.24187626 6:0.19401066 7:0.26417285 8:0.22919656 9:0.12259063 10:0.11671884 11:0.17331399 12:0.1739776 13:0.14643666 14:0.12506068 15:0.14460592 16:0.10346472 
450 1:0.067143448 2:0.083655998 3:0.38527879 4:0.33919287 5:0.24951626 6:0.19855978 7:0.2961494 8:0.25758761 9:0.13576837 10:0.1124647 11:0.21951596 12:0.21280998 13:0.139989 14:0.10870673 15:0.18318263 16:0.14414488 
-450 1:0.064150743 2:0.066523626 3:0.33684868 4:0.30743137 5:0.28516239 6:0.23781042 7:0.34529316 8:0.31889313 9:0.26170793 10:0.24152292 11:0.27747223 12:0.24863474 13:0.21176575 14:0.20208994 15:0.2808786 16:0.28186435 
450 1:0.33175245 2:0.53354865 3:0.52333605 4:0.49000314 5:0.27153921 6:0.21537338 7:0.3140744 8:0.27045077 9:0.11366992 10:0.10058878 11:0.15119976 12:0.12337733 13:0.14212096 14:0.12251461 15:0.1504513 16:0.10537528 
450 1:0.29343054 2:0.45034805 3:0.53240895 4:0.50397319 5:0.3052853 6:0.23416181 7:0.35376039 8:0.31555143 9:0.13305032 10:0.12341021 11:0.18305808 12:0.15294166 13:0.16358298 14:0.13344027 15:0.17587695 16:0.12479597 
450 1:0.18091306 2:0.24220778 3:0.68822414 4:0.64985287 5:0.47790617 6:0.39039972 7:0.50972843 8:0.4629029 9:0.29478419 10:0.33255872 11:0.33278456 12:0.36503235 13:0.29336488 14:0.26288635 15:0.29040033 16:0.24761155 
-426.56693097547446 1:0.16394225 2:0.20346029 3:0.80242628 4:0.75982922 5:0.54990047 6:0.47072065 7:0.60804063 8:0.56406826 9:0.31427324 10:0.34588179 11:0.40767628 12:0.46808514 13:0.33830673 14:0.31772572 15:0.33386505 16:0.28563818 
450 1:0.1541694 2:0.18169715 3:0.87782174 4:0.83968002 5:0.58682591 6:0.51722825 7:0.6903134 8:0.66271538 9:0.37836421 10:0.40721682 11:0.54154015 12:0.64886874 13:0.33535817 14:0.30384237 15:0.43405977 16:0.42723465 
181.82141134792894 1:0.14510906 2:0.16352172 3:0.72622102 4:0.75473142 5:0.59278351 6:0.57864386 7:0.69539034 8:0.73102957 9:0.6113466 10:0.75171119 11:0.57551497 12:0.66595453 13:0.43992954 14:0.50832582 15:0.55122036 16:0.65568572 
450 1:0.81632394 2:0.94167894 3:0.046518583 4:0.090136923 5:0.025535662 6:0.061743006 7:0.02468249 8:0.064378999 9:0.022060096 10:0.04717198 11:0.021162095 12:0.047017928 13:0.015177714 14:0.035800327 15:0.015228431 16:0.032250263 
450 1:0.71042925 2:0.78031731 3:0.046696309 4:0.090168208 5:0.024464384 6:0.059006572 7:0.023973556 8:0.062081765 9:0.020714073 10:0.044331364 11:0.019810535 12:0.04397241 13:0.014549709 14:0.034064695 15:0.014517229 16:0.030407546 
-450 1:0.37678951 2:0.37647578 3:0.043657098 4:0.079109803 5:0.020318517 6:0.045981046 7:0.018789528 8:0.048420295 9:0.015760798 10:0.033321623 11:0.012264325 12:0.028566416 13:0.011850094 14:0.027033098 15:0.0090053249 16:0.018527798 
450 1:0.17189366 2:0.17405246 3:0.032999519 4:0.05832608 5:0.011835335 6:0.029027926 7:0.011808002 8:0.032153614 9:0.0082926154 10:0.022406565 11:0.0054078517 12:0.016078819 13:0.0072730607 14:0.016988082 15:0.0041356394 16:0.0093672629 
450 1:0.075340532 2:0.077900901 3:0.023753965 4:0.035971101 5:0.0022422243 6:0.014504926 7:0.0029751945 8:0.015572215 9:0.0035630174 10:0.014206585 11:0.00053440023 12:0.005951012 13:0.0015275171 14:0.0075395596 15:0.00071202731 16:0.0028548501 
450 1:0.81648767 2:0.94161856 3:0.048300076 4:0.09089119 5:0.025110878 6:0.060872082 7:0.024726 8:0.063746475 9:0.020978065 10:0.046225458 11:0.019745985 12:0.045602515 13:0.014748569 14:0.035144843 15:0.014253436 16:0.031076247 
450 1:0.71049935 2:0.78027767 3:0.04876012 4:0.091220059 5:0.024246139 6:0.058360532 7:0.024236526 8:0.061534222 9:0.019705696 10:0.043086812 11:0.018465286 12:0.042367645 13:0.014256136 14:0.033488456 15:0.013652284 16:0.029202715 
450 1:0.8165077 2:0.94157952 3:0.050214157 4:0.091870829 5:0.025184901 6:0.060307574 7:0.025284503 8:0.063362606 9:0.020115316 10:0.045351591 11:0.01893229 12:0.044357743 13:0.014659654 14:0.034676094 15:0.013877356 16:0.030129341 
-450 1:0.71062517 2:0.78042603 3:0.050959039 4:0.092737444 5:0.024506429 6:0.057907138 7:0.025008226 8:0.061425205 9:0.018938402 10:0.041896299 11:0.017851546 12:0.041037347 13:0.014324801 14:0.033089928 15:0.013412254 16:0.028351756 
-450 1:0.37695348 2:0.37664577 3:0.049513984 4:0.082346231 5:0.023675252 6:0.046920065 7:0.022359036 8:0.049649127 9:0.017269166 10:0.032849569 11:0.012048366 12:0.026659608 13:0.013917763 14:0.028197458 15:0.0096591748 16:0.016983977 
450 1:0.18304764 2:0.18068805 3:0.040097982 4:0.061885953 5:0.017263846 6:0.030090636 7:0.017584559 8:0.034213167 9:0.009976225 10:0.01747329 11:0.0069168424 12:0.012358813 13:0.011045607 14:0.018415261 15:0.0068825772 16:0.0079115676 
450 1:0.091644242 2:0.087884858 3:0.031150607 4:0.039343283 5:0.008959353 6:0.016409937 7:0.010075876 8:0.018202789 9:0.0063416366 10:0.0091869757 11:0.0058794338 12:0.0051191677 13:0.0055255005 14:0.0077590146 15:0.0068613593 16:0.0043754312 
-262.28054469099328 1:0.011260898 2:0.0052773114 3:0.0004546406 9:0.017926922 10:0.014986769 11:0.013570872 12:0.0033570623 13:0.0042151827 15:0.011533183 16:0.005076739 
450 1:0.81659371 2:0.94157088 3:0.058318686 4:0.097028412 5:0.027433844 6:0.059476256 7:0.029196819 8:0.063819237 9:0.01875891 10:0.042861488 11:0.018025871 12:0.041578952 13:0.015629482 14:0.033826593 15:0.014351487 16:0.028538274 
-450 1:0.71074235 2:0.78057986 3:0.059201948 4:0.098467238 5:0.027225722 6:0.057736583 7:0.02962877 8:0.062551536 9:0.01816711 10:0.039173141 11:0.017560503 12:0.03844849 13:0.015723662 14:0.032743499 15:0.014352565 16:0.026918992 
-450 1:0.37836286 2:0.37685972 3:0.058873031 4:0.088054262 5:0.029903354 6:0.049526166 7:0.029656382 8:0.0531734 9:0.020800624 10:0.03366679 11:0.014665198 12:0.026172638 13:0.017900085 14:0.030142872 15:0.013365627 16:0.017149907 
-450 1:0.19710732 2:0.1881914 3:0.053184219 4:0.069813326 5:0.028851641 6:0.034967672 7:0.030269597 8:0.041124176 9:0.017275004 10:0.017308472 11:0.015715677 12:0.012798829 13:0.018749079 14:0.021784188 15:0.016222542 16:0.010552739 
450 1:0.11106388 2:0.098391056 3:0.045252062 4:0.048639309 5:0.024051458 6:0.024369812 7:0.025841624 8:0.028220154 9:0.018157046 10:0.010972058 11:0.021749498 12:0.011239043 13:0.015382605 14:0.012443418 15:0.02105502 16:0.012021141 
-450 1:0.032483548 2:0.017005034 3:0.019936711 4:0.019111065 5:0.021732045 6:0.01888827 7:0.021073351 8:0.020031422 9:0.046177763 10:0.039571773 11:0.040047064 12:0.023721308 13:0.020093225 14:0.01502773 15:0.031473219 16:0.022226632 
33.940121964647076 1:0.38674957 2:0.37849623 3:0.086489327 4:0.10395804 5:0.051336274 6:0.057969656 7:0.053593758 8:0.065119438 9:0.03290182 10:0.034739725 11:0.028224804 12:0.027515072 13:0.031614617 14:0.036858913 15:0.027945848 16:0.020998644 
450 1:0.23583411 2:0.20535578 3:0.09066397 4:0.091002919 5:0.062704876 6:0.050629724 7:0.067444786 8:0.06138809 9:0.040925484 10:0.021276144 11:0.045413099 12:0.022048285 13:0.041262232 14:0.033249192 15:0.043916158 16:0.022937935 
450 1:0.16167864 2:0.12223422 3:0.086628407 4:0.075513154 5:0.066771962 6:0.047358375 7:0.06991142 8:0.055825628 9:0.05216749 10:0.020703992 11:0.065439858 12:0.032728851 13:0.04334778 14:0.027760778 15:0.058725636 16:0.033748459 
450 1:0.093807697 2:0.047010332 3:0.071022384 4:0.061132893 5:0.077663228 6:0.060314294 7:0.076749802 8:0.065153994 9:0.11172535 10:0.087368347 11:0.10549054 12:0.071375415 13:0.060391717 14:0.049633548 15:0.08255861 16:0.060957164 
450 1:0.85566896 2:0.94701964 3:0.17027608 4:0.1764937 5:0.089261457 6:0.077038087 7:0.10887661 8:0.10050651 9:0.040239464 10:0.03918469 11:0.047506832 12:0.037440982 13:0.051743105 14:0.042640232 15:0.053099427 16:0.034490023 
450 1:0.7530033 2:0.78871769 3:0.17564033 4:0.18249571 5:0.096063003 6:0.079839468 7:0.11522295 8:0.10375387 9:0.044652272 10:0.03634261 11:0.052786432 12:0.037898973 13:0.055766392 14:0.044528157 15:0.057868056 16:0.03635221 
450 1:0.43763545 2:0.39313549 3:0.17999771 4:0.1657667 5:0.12735219 6:0.094027668 7:0.13635492 8:0.11400827 9:0.07945478 10:0.053071603 11:0.081552394 12:0.051904008 13:0.079692215 14:0.063656382 15:0.080876663 16:0.047653913 
450 1:0.31598306 2:0.24097449 3:0.17677344 4:0.15169619 5:0.14084706 6:0.096035548 7:0.14878547 8:0.11390848 9:0.089869246 10:0.043013934 11:0.10499118 12:0.056455001 13:0.090846375 14:0.064711921 15:0.099776998 16:0.057694606 
450 1:0.25339085 2:0.16810034 3:0.17631292 4:0.14476502 5:0.15219992 6:0.1045018 7:0.15879621 8:0.12201176 9:0.11057734 10:0.053690616 11:0.13865906 12:0.082505204 13:0.097204134 14:0.065494068 15:0.12414102 16:0.082044691 
450 1:0.19811197 2:0.10122377 3:0.16906813 4:0.14297701 5:0.17552418 6:0.1377805 7:0.17737925 8:0.14887716 9:0.20444956 10:0.17483157 11:0.20176995 12:0.15614173 13:0.12886092 14:0.11211923 15:0.16199474 16:0.13113232 
450 1:0.55414587 2:0.54050273 3:0.082224235 4:0.14223573 5:0.077287428 6:0.12039365 7:0.055677932 8:0.11474426 9:0.044576891 10:0.063464895 11:0.042916931 12:0.071072116 13:0.039575607 14:0.068256989 15:0.032491565 16:0.056248002 
-450 1:0.44790614 2:0.4336727 3:0.074667566 4:0.13120081 5:0.06189895 6:0.10388412 7:0.050292093 8:0.10545269 9:0.042870812 10:0.059425414 11:0.040229078 12:0.065642111 13:0.034122214 14:0.062363371 15:0.030389816 16:0.05208081 
-450 1:0.19091056 2:0.19540538 3:0.054417908 4:0.094819747 5:0.036316179 6:0.064301021 7:0.035866462 8:0.076156221 9:0.027722979 10:0.035087358 11:0.026725059 12:0.039561097 13:0.023495583 14:0.040699799 15:0.019316401 16:0.031185148 
-450 1:0.080425955 2:0.084021926 3:0.036046188 4:0.066097997 5:0.022015221 6:0.042187922 7:0.021537798 8:0.049319532 9:0.025413722 10:0.038188115 11:0.020339953 12:0.035047907 13:0.01590196 14:0.028987752 15:0.013093142 16:0.022183662 
-450 1:0.031874247 2:0.035285883 3:0.022696692 4:0.044086825 5:0.011773604 6:0.031450506 7:0.013700269 8:0.03838069 9:0.017978072 10:0.025952656 11:0.011933155 12:0.021039542 13:0.011260556 14:0.025059132 15:0.007925123 16:0.014596921 
-450 1:0.55444926 2:0.54061013 3:0.095231883 4:0.14780007 5:0.087019682 6:0.12319829 7:0.060383361 8:0.11443319 9:0.046132162 10:0.063918382 11:0.041119549 12:0.068008088 13:0.04275981 14:0.067851722 15:0.030516947 16:0.052905578 
-450 1:0.4482767 2:0.43380502 3:0.090883464 4:0.13967499 5:0.070320547 6:0.1056534 7:0.055610359 8:0.10346808 9:0.046108495 10:0.059259571 11:0.040456027 12:0.062434629 13:0.035664711 14:0.060459744 15:0.029937942 16:0.048160862 
-450 1:0.19302976 2:0.19674388 3:0.078113265 4:0.10505977 5:0.046036646 6:0.061459593 7:0.047854725 8:0.073192485 9:0.034725521 10:0.037495032 11:0.033407778 12:0.035963684 13:0.030808378 14:0.038019538 15:0.032234214 16:0.033836771 
-450 1:0.094529018 2:0.093735263 3:0.066742249 4:0.082755364 5:0.040008731 6:0.044340573 7:0.044169165 8:0.053493079 9:0.028742986 10:0.032615229 11:0.029239658 12:0.028872136 13:0.029755846 14:0.028124377 15:0.039150734 16:0.032426089 
-450 1:0.050934207 2:0.04858635 3:0.057855021 4:0.068526313 5:0.033841342 6:0.037483599 7:0.046895582 8:0.055646356 9:0.027766157 10:0.023513502 11:0.03440512 12:0.024257964 13:0.025787979 14:0.024228834 15:0.048333038 16:0.040621098 
-450 1:0.010978004 2:0.0073853848 3:0.040068727 4:0.040648598 5:0.033191048 6:0.02625023 7:0.044781029 8:0.042531781 9:0.056109879 10:0.044308547 11:0.054031532 12:0.03108979 13:0.036172349 14:0.025674652 15:0.063763179 16:0.052905157 
-450 1:0.55529892 2:0.54095846 3:0.1073704 4:0.15279725 5:0.094608933 6:0.12512098 7:0.066157296 8:0.11379362 9:0.046847496 10:0.062898368 11:0.040934343 12:0.065847807 13:0.045712702 14:0.067767151 15:0.03120362 16:0.050902493 
-450 1:0.44994241 2:0.43479049 3:0.10626028 4:0.14355226 5:0.07648851 6:0.10408802 7:0.062449154 8:0.10270743 9:0.047822222 10:0.058706101 11:0.040959939 12:0.060024276 13:0.038276572 14:0.058656957 15:0.031818274 16:0.045573153 
450 1:0.55675614 2:0.54124933 3:0.12058747 4:0.15655698 5:0.099478625 6:0.12498651 7:0.071836986 8:0.11318095 9:0.047760651 10:0.062489003 11:0.040940572 12:0.064432763 13:0.048010156 14:0.067233615 15:0.032351155 16:0.049069941 
450 1:0.19903481 2:0.2000533 3:0.10231547 4:0.11422861 5:0.061444432 6:0.063806966 7:0.065292709 8:0.075249381 9:0.041467529 10:0.040431637 11:0.042119171 12:0.037120916 13:0.04080658 14:0.039264381 15:0.04524089 16:0.036572553 
-450 1:0.1065581 2:0.10078259 3:0.090780489 4:0.096012399 5:0.05792537 6:0.05024058 7:0.065330788 8:0.06417948 9:0.032860272 10:0.031944666 11:0.03865556 12:0.029969666 13:0.041856918 14:0.031182159 15:0.054871876 16:0.039576214 
438.86740678434865 1:0.45230559 2:0.43543324 3:0.11952877 4:0.14838761 5:0.083635777 6:0.10570589 7:0.069724254 8:0.10287049 9:0.049825698 10:0.058864821 11:0.042861708 12:0.058936931 13:0.041375391 14:0.058747336 15:0.034799621 16:0.044942338 
450 1:0.072464891 2:0.060981166 3:0.09635023 4:0.093772836 5:0.06604638 6:0.05186243 7:0.086083181 8:0.081227459 9:0.039482661 10:0.026776614 11:0.056573123 12:0.033101611 13:0.045884278 14:0.031294134 15:0.077741742 16:0.05683298 
-450 1:0.036457196 2:0.021907203 3:0.091729142 4:0.083619051 5:0.082109913 6:0.058644369 7:0.10079133 8:0.087581486 9:0.091331005 10:0.070969507 11:0.094593242 12:0.061027214 13:0.075749576 14:0.054822881 15:0.10767565 16:0.085058801 
450 1:0.20714147 2:0.2028746 3:0.12561187 4:0.12287251 5:0.077574089 6:0.06840872 7:0.08403597 8:0.080493331 9:0.047657344 10:0.046111174 11:0.05113443 12:0.038393609 13:0.050076615 14:0.041796852 15:0.05720523 16:0.04007018 
450 1:0.1213745 2:0.10835773 3:0.11928977 4:0.11355104 5:0.079317443 6:0.059054289 7:0.091067806 8:0.077031098 9:0.038702864 10:0.033448756 11:0.048923232 12:0.031341314 13:0.055715341 14:0.037069522 15:0.069846265 16:0.047037575 
450 1:0.095324814 2:0.073107019 3:0.14216474 4:0.1270709 5:0.10240554 6:0.069694519 7:0.13285574 8:0.11247396 9:0.051233377 10:0.032355517 11:0.079016678 12:0.045540724 13:0.068424754 14:0.041554451 15:0.10535247 16:0.076824278 
450 1:0.062448159 2:0.035790764 3:0.14544113 4:0.12627314 5:0.13158774 6:0.088971794 7:0.15913457 8:0.13330728 9:0.12139639 10:0.096626982 11:0.13168032 12:0.091175623 13:0.11292386 14:0.082521573 15:0.14656977 16:0.11772311 
450 1:0.59814131 2:0.55456257 3:0.27368224 4:0.22882518 5:0.18442579 6:0.1489495 7:0.1647087 8:0.14375186 9:0.066068172 10:0.064847775 11:0.063985787 12:0.062110581 13:0.087003171 14:0.074158154 15:0.066821069 16:0.050893046 
450 1:0.49398929 2:0.44927031 3:0.26218972 4:0.22768275 5:0.16431242 6:0.12798542 7:0.16007279 8:0.13728768 9:0.071912929 10:0.068548232 11:0.068020172 12:0.059198856 13:0.078991212 14:0.064700969 15:0.071473151 16:0.050535019 
450 1:0.26793617 2:0.22893853 3:0.28225484 4:0.21616258 5:0.17207421 6:0.10694749 7:0.20312709 8:0.14176977 9:0.087785721 10:0.076614425 11:0.10850435 12:0.067054488 13:0.10836876 14:0.067862958 15:0.12359247 16:0.077051163 
450 1:0.20302154 2:0.14897068 3:0.29427361 4:0.23344614 5:0.20289883 6:0.12727013 7:0.24418576 8:0.17843293 9:0.073571779 10:0.044662092 11:0.11067951 12:0.058134891 13:0.13628173 14:0.085007861 15:0.15333191 16:0.098675087 
450 1:0.17146935 2:0.11579236 3:0.29919744 4:0.24881853 5:0.2115647 6:0.13800336 7:0.2760224 8:0.21992506 9:0.09009897 10:0.056006402 11:0.14199887 12:0.090579301 13:0.13468508 14:0.082102746 15:0.18252355 16:0.13416383 
450 1:0.14472105 2:0.083202064 3:0.31868806 4:0.26293299 5:0.25985965 6:0.18211406 7:0.31996098 8:0.26997727 9:0.20194583 10:0.18112174 11:0.21792413 12:0.17708226 13:0.20637412 14:0.16691618 15:0.24174111 16:0.20074674 
216.40583712250231 1:0.45804712 2:0.4934614 3:0.31971088 4:0.39955288 5:0.33894435 6:0.32613131 7:0.15851299 8:0.19754799 9:0.1507467 10:0.13224082 11:0.0952667 12:0.10095756 13:0.16533476 14:0.1628181 15:0.056551598 16:0.066484265 
-450 1:0.38265318 2:0.40996003 3:0.27501932 4:0.3618696 5:0.32080725 6:0.30732602 7:0.1376837 8:0.17865942 9:0.1404326 10:0.12644568 11:0.079271793 12:0.087756343 13:0.15073001 14:0.14685066 15:0.049766507 16:0.061844587 
450 1:0.16999736 2:0.17620933 3:0.16375442 4:0.23709393 5:0.16986509 6:0.17748542 7:0.079536617 8:0.11634953 9:0.092769578 10:0.093723826 11:0.040961698 12:0.052179623 13:0.073380016 14:0.082686402 15:0.031581018 16:0.040075116 
-450 1:0.072512582 2:0.076375745 3:0.10218862 4:0.15099508 5:0.083951734 6:0.10121584 7:0.059110492 8:0.097826473 9:0.053255059 10:0.065092385 11:0.02482909 12:0.033589177 13:0.038426876 14:0.049497936 15:0.020266233 16:0.027576659 
450 1:0.027776921 2:0.032515191 3:0.069290951 4:0.10875737 5:0.042507697 6:0.060762864 7:0.03260446 8:0.060019292 9:0.031506438 10:0.047309134 11:0.01623839 12:0.02313089 13:0.019693675 14:0.029783264 15:0.013370611 16:0.019462721 
-450 1:0.45814753 2:0.4934704 3:0.35000631 4:0.42136735 5:0.35957175 6:0.33727619 7:0.1795094 8:0.20892465 9:0.15746184 10:0.13737091 11:0.098958336 12:0.10263117 13:0.17576121 14:0.16924168 15:0.061975367 16:0.068093784 
450 1:0.3828592 2:0.40995976 3:0.3054927 4:0.38429865 5:0.3444497 6:0.31947109 7:0.15890864 8:0.19319765 9:0.14995682 10:0.13259441 11:0.082671516 12:0.08904539 13:0.16219454 14:0.15368682 15:0.05384713 16:0.062925145 
450 1:0.17093726 2:0.1768187 3:0.21428986 4:0.27876195 5:0.20185335 6:0.19775872 7:0.11829927 8:0.14795576 9:0.11856185 10:0.11401265 11:0.048120834 12:0.054176163 13:0.088512927 14:0.092344642 15:0.042859152 16:0.044962179 
450 1:0.45831552 2:0.49369699 3:0.37859812 4:0.44346043 5:0.37842157 6:0.34707269 7:0.19671242 8:0.2198028 9:0.16297948 10:0.14105311 11:0.10270953 12:0.1036977 13:0.18566757 14:0.17480709 15:0.066904597 16:0.070118472 
-450 1:0.38304573 2:0.41006353 3:0.3326636 4:0.40428114 5:0.36584875 6:0.3335036 7:0.17750145 8:0.20654994 9:0.15762722 10:0.13775045 11:0.086186118 12:0.090812244 13:0.17194268 14:0.16040571 15:0.05926609 16:0.065558739 
-450 1:0.038013376 2:0.039935336 3:0.12646554 4:0.15728153 5:0.074735023 6:0.079777971 7:0.095212102 8:0.11727183 9:0.068409286 10:0.078898653 11:0.036996778 12:0.03167256 13:0.040408656 14:0.041122712 15:0.045589428 16:0.042849299 
-450 3:0.053397577 4:0.054137353 5:0.027695583 6:0.019192189 7:0.056554675 8:0.062520429 9:0.045927763 10:0.045723967 11:0.033963829 12:0.0198675 13:0.02377959 14:0.014876901 15:0.043856658 16:0.03454883 
7.1531741434541862 1:0.1724323 2:0.17758065 3:0.25896013 4:0.31603289 5:0.22867049 6:0.21823624 7:0.15043341 8:0.17452838 9:0.13322105 10:0.12718853 11:0.05633793 12:0.058065247 13:0.10203808 14:0.10240309 15:0.056924958 16:0.054038748 
-450 1:0.082083546 2:0.083105691 3:0.17412587 4:0.20548758 5:0.12937182 6:0.13237642 7:0.14080966 8:0.16681783 9:0.10047139 10:0.10817465 11:0.048924487 12:0.045495238 13:0.064606659 14:0.067188032 15:0.056328066 16:0.053606085 
-450 1:0.45892739 2:0.4938581 3:0.43240699 4:0.48125961 5:0.40777311 6:0.3649531 7:0.22972614 8:0.2396251 9:0.17338844 10:0.14877322 11:0.1086729 12:0.106492 13:0.19927253 14:0.18746419 15:0.076491162 16:0.073856369 
-450 1:0.38392654 2:0.41024068 3:0.38487628 4:0.44852138 5:0.39758483 6:0.35177922 7:0.21203314 8:0.23024969 9:0.16807392 10:0.14545813 11:0.092898935 12:0.093213916 13:0.18786812 14:0.17028874 15:0.072010599 16:0.072893932 
-450 1:0.0441317 2:0.044066917 3:0.15869701 4:0.1867034 5:0.096327037 6:0.094841115 7:0.12573048 8:0.14715855 9:0.083214313 10:0.095131733 11:0.052003689 12:0.04237685 13:0.053924628 14:0.051158763 15:0.063821338 16:0.057477754 
-450 1:0.0072449381 2:0.0050823544 3:0.090509996 4:0.093383469 5:0.053494681 6:0.042780396 7:0.094700992 8:0.10332313 9:0.077678084 10:0.080774881 11:0.0592485 12:0.046169173 13:0.041651644 14:0.033554975 15:0.068714686 16:0.059731331 
-450 1:0.17684335 2:0.17989129 3:0.31914628 4:0.37390557 5:0.26714024 6:0.24374413 7:0.19946931 8:0.21534809 9:0.15236799 10:0.14485642 11:0.070353232 12:0.065780006 13:0.12375099 14:0.11742867 15:0.080188647 16:0.069798984 
-450 1:0.096343189 2:0.092063151 3:0.24283223 4:0.26378584 5:0.18174528 6:0.16965128 7:0.19686691 8:0.21393031 9:0.12474941 10:0.12209301 11:0.073414579 12:0.058637332 13:0.09634757 14:0.090811998 15:0.086977206 16:0.07457535 
450 1:0.06531585 2:0.057429686 3:0.24149199 4:0.26270238 5:0.1563414 6:0.14021733 7:0.20674005 8:0.2191707 9:0.11964439 10:0.12528262 11:0.094163202 12:0.075054303 13:0.092212602 14:0.080810063 15:0.1124672 16:0.098855346 
450 1:0.031742547 2:0.02057047 3:0.18365172 4:0.18846604 5:0.12126848 6:0.10069221 7:0.19272728 8:0.20442419 9:0.14606747 10:0.15127252 11:0.12317707 12:0.11120856 13:0.089540921 14:0.079301663 15:0.13127387 16:0.12007464 
101.93301102498157 1:0.47739577 2:0.50263011 3:0.71141517 4:0.71877378 5:0.58358437 6:0.48787007 7:0.40205517 8:0.36241189 9:0.2476618 10:0.19546914 11:0.16283301 12:0.13223206 13:0.29637402 14:0.25332907 15:0.1385452 16:0.10766416 
450 1:0.40624943 2:0.4229584 3:0.6841675 4:0.69739455 5:0.59766191 6:0.48718184 7:0.38951823 8:0.35243365 9:0.24345033 10:0.19534245 11:0.14892122 12:0.12462863 13:0.2949819 14:0.24118815 15:0.14385051 16:0.11774116 
397.7942290998771 1:0.2094689 2:0.20059116 3:0.55455416 4:0.58386105 5:0.43246034 6:0.37383619 7:0.36638272 8:0.35287845 9:0.23151654 10:0.2221065 11:0.1339149 12:0.11585971 13:0.21427554 14:0.19522282 15:0.16039899 16:0.13373172 
450 1:0.14155695 2:0.12466616 3:0.44744721 4:0.45517838 5:0.32400835 6:0.28953445 7:0.36479717 8:0.37695158 9:0.20404392 10:0.18728793 11:0.14991499 12:0.12269269 13:0.18236597 14:0.17137051 15:0.17539486 16:0.1526843 
-450 1:0.10919655 2:0.091239899 3:0.42040721 4:0.44303575 5:0.28016937 6:0.25440025 7:0.35603797 8:0.37435886 9:0.18705896 10:0.19900998 11:0.17597876 12:0.1584495 13:0.16933623 14:0.15623821 15:0.20256673 16:0.18849739 
450 1:0.081083164 2:0.058447778 3:0.36054724 4:0.38025504 5:0.25407156 6:0.2370417 7:0.35155323 8:0.38243926 9:0.26497373 10:0.31470454 11:0.23769952 12:0.25741324 13:0.1820644 14:0.18747002 15:0.24046797 16:0.24714349 
450 1:0.19082911 2:0.16020925 3:0.10042662 4:0.19224574 5:0.090566553 6:0.14280054 7:0.096631974 8:0.16765353 9:0.047898982 10:0.069116019 11:0.058720049 12:0.087523848 13:0.060889877 14:0.090463042 15:0.053618453 16:0.075153619 
450 1:0.14714527 2:0.12119738 3:0.094293512 4:0.17910773 5:0.083852001 6:0.13463165 7:0.090321198 8:0.15691938 9:0.042087693 10:0.062649138 11:0.053332195 12:0.081153691 13:0.057524957 14:0.086146571 15:0.049463864 16:0.069753736 
-450 1:0.046792317 2:0.037574533 3:0.061645743 4:0.1153249 5:0.049554992 6:0.089648254 7:0.058105074 8:0.10500961 9:0.019563206 10:0.028929604 11:0.027895026 12:0.043665182 13:0.036626734 14:0.058633838 15:0.027912904 16:0.040249217 
450 1:0.014931195 2:0.012594612 3:0.038751189 4:0.077871166 5:0.030197298 6:0.060379855 7:0.034914263 8:0.069432519 9:0.030127469 10:0.046277486 11:0.029643755 12:0.047113072 13:0.02504435 14:0.04094198 15:0.020641074 16:0.029585673 
450 1:0.00049315218 2:0.0011441318 3:0.026914971 4:0.059595484 5:0.024544608 6:0.051920585 7:0.023011072 8:0.052120958 9:0.018589502 10:0.027085293 11:0.017954165 12:0.029072627 13:0.024515675 14:0.040255763 15:0.015368531 16:0.022621449 
450 1:0.18967681 2:0.15829147 3:0.083904497 4:0.1705468 5:0.073494874 6:0.12608482 7:0.078930385 8:0.14733347 9:0.038591787 10:0.057462242 11:0.044589888 12:0.072490096 13:0.051913369 14:0.081180885 15:0.04056944 16:0.060014483 
450 1:0.14714065 2:0.11955396 3:0.075380802 4:0.1493457 5:0.061908096 6:0.1095181 7:0.068090096 8:0.12677819 9:0.038600869 10:0.048506826 11:0.039261308 12:0.0597932 13:0.045024745 14:0.071774594 15:0.03580014 16:0.048662823 
450 1:0.056271207 2:0.041763093 3:0.071279638 4:0.10013259 5:0.066928774 6:0.068629682 7:0.06716451 8:0.085299872 9:0.15375699 10:0.092887439 11:0.10777645 12:0.073294491 13:0.052737135 14:0.04774737 15:0.083809257 16:0.063162982 
450 1:0.19219677 2:0.15886834 3:0.077993408 4:0.15346277 5:0.064977795 6:0.11200946 7:0.069896288 8:0.1306767 9:0.040870748 10:0.051772363 11:0.041329399 12:0.063210264 13:0.046732482 14:0.073620461 15:0.037275042 16:0.050962146 
450 1:0.051141873 2:0.036746185 3:0.12465633 4:0.14588742 5:0.1454445 6:0.11550418 7:0.13904801 8:0.14488326 9:0.098380417 10:0.064337321 11:0.12640454 12:0.08899194 13:0.11669835 14:0.086766161 15:0.16071308 16:0.1316082 
450 1:0.045727611 2:0.032449901 3:0.16882537 4:0.19344112 5:0.18739125 6:0.14860985 7:0.19950821 8:0.20590083 9:0.2120534 10:0.149106 11:0.23540291 12:0.17716824 13:0.11187906 14:0.085516952 15:0.24694203 16:0.21153788 
68.876098705526587 1:0.041011333 2:0.028663587 3:0.22202583 4:0.25207928 5:0.2815412 6:0.2340862 7:0.29609361 8:0.30597243 9:0.4399747 10:0.36045259 11:0.41815415 12:0.34283713 13:0.3027024 14:0.24153019 15:0.39083284 16:0.33633497 
450 1:0.19444132 2:0.15936063 3:0.077760264 4:0.14980824 5:0.063063942 6:0.10842027 7:0.067621924 8:0.12658674 9:0.041711882 10:0.050085366 11:0.041367661 12:0.061201725 13:0.045426611 14:0.071554221 15:0.037271433 16:0.048900664 
450 1:0.15309948 2:0.12086655 3:0.076499648 4:0.135286 5:0.059710491 6:0.096515566 7:0.064673707 8:0.11187886 9:0.052338816 10:0.047301114 11:0.046297904 12:0.053040076 13:0.042164169 14:0.063684881 15:0.040793829 16:0.043421924 
450 1:0.068211012 2:0.048366562 3:0.098628804 4:0.11704472 5:0.10105961 6:0.082848012 7:0.095024735 8:0.10362956 9:0.22593905 10:0.13627599 11:0.1665051 12:0.1131173 13:0.081426807 14:0.061544672 15:0.13339388 16:0.10153209 
450 1:0.15719123 2:0.12355938 3:0.080965661 4:0.13269438 5:0.061679441 6:0.09331008 7:0.066713803 8:0.10902772 9:0.062823087 10:0.051160265 11:0.052657336 12:0.053590979 13:0.042521164 14:0.061714947 15:0.045100905 16:0.044131067 
450 1:0.068814926 2:0.047018763 3:0.17749059 4:0.19148293 5:0.21444894 6:0.16557857 7:0.20074245 8:0.20144808 9:0.12913723 10:0.081322499 11:0.17398603 12:0.1251308 13:0.17751145 14:0.13556571 15:0.23102304 16:0.19747753 
-290.42117454441899 1:0.064821728 2:0.04382002 3:0.23440288 4:0.25834984 5:0.2723754 6:0.2154229 7:0.28298157 8:0.29024473 9:0.27133194 10:0.19464061 11:0.32007265 12:0.25307527 13:0.16806225 14:0.13182567 15:0.35011676 16:0.31115553 
-450 1:0.061646752 2:0.041066617 3:0.30406663 4:0.33373651 5:0.40605825 6:0.34776378 7:0.41617098 8:0.4364334 9:0.55149758 10:0.45873079 11:0.55985153 12:0.48029068 13:0.44982657 14:0.37936994 15:0.55424672 16:0.495709 
450 1:0.091778435 2:0.062357109 3:0.15141641 4:0.15752622 5:0.15352529 6:0.11712434 7:0.14342785 8:0.14431903 9:0.38142535 10:0.26338705 11:0.28126377 12:0.21350922 13:0.1256355 14:0.09443941 15:0.21072713 16:0.17736755 
450 1:0.086570293 2:0.058349356 3:0.22971481 4:0.24455513 5:0.2749849 6:0.21663049 7:0.25308347 8:0.25783071 9:0.16254956 10:0.10549062 11:0.22063707 12:0.16441071 13:0.22946019 14:0.18214412 15:0.29042041 16:0.25876272 
380.20970938099885 1:0.10826895 2:0.074291162 3:0.38708064 4:0.43679911 5:0.47241732 6:0.40288049 7:0.45487195 8:0.49233288 9:0.41905931 10:0.33913264 11:0.49368227 12:0.4310874 13:0.29724801 14:0.25605136 15:0.53821921 16:0.5175814 
80.935736096000852 1:0.1078778 2:0.073006697 3:0.4850823 4:0.54319185 5:0.69737816 6:0.64975852 7:0.65078121 8:0.71350276 9:0.81128561 10:0.75034869 11:0.82683152 12:0.78248769 13:0.74155128 14:0.69107962 15:0.82020873 16:0.79044449 
450 1:0.24587384 2:0.18593602 3:0.14563973 4:0.15841815 5:0.087556824 6:0.096050426 7:0.0993452 8:0.12214842 9:0.093893766 10:0.068088017 11:0.084120862 12:0.067266464 13:0.04883948 14:0.060076479 15:0.069576792 16:0.062821992 
450 1:0.21380045 2:0.15512541 3:0.17307326 4:0.1744135 5:0.108941 6:0.10254629 7:0.12080366 8:0.13160202 9:0.16416986 10:0.11148037 11:0.13405091 12:0.098596625 13:0.059047204 14:0.062574871 15:0.1036626 16:0.089240797 
450 1:0.16279978 2:0.11247279 3:0.32032228 4:0.33666921 5:0.32501301 6:0.2676267 7:0.28057328 8:0.2966021 9:0.66995788 10:0.55304444 11:0.5273881 12:0.47192439 13:0.25979918 14:0.22640471 15:0.3958261 16:0.37867489 
312.53833738924931 1:0.15872683 2:0.11145327 3:0.45180917 4:0.50695777 5:0.57292455 6:0.51354384 7:0.47329164 8:0.51419133 9:0.27433059 10:0.20911217 11:0.37450299 12:0.31984961 13:0.46247488 14:0.42280632 15:0.49517936 16:0.48872861 
-348.70432390875015 1:0.15750815 2:0.11086765 3:0.55173838 4:0.64464211 5:0.69283301 6:0.63960916 7:0.63139945 8:0.70853299 9:0.53406864 10:0.47122526 11:0.62722278 12:0.58388734 13:0.42519468 14:0.39920741 15:0.68032104 16:0.68245953 
0.11837239330907211 1:0.15562521 2:0.11097708 3:0.6673944 4:0.77803981 5:1 6:1 7:0.88516116 8:1 9:1 10:1 11:1 12:1 13:1 14:1 15:1 16:1 
450 1:0.30210352 2:0.37201583 3:0.15158385 4:0.20286222 5:0.11159715 6:0.13126849 7:0.091261633 8:0.12712519 9:0.036379207 10:0.055124424 11:0.037028577 12:0.057534706 13:0.043219585 14:0.056819558 15:0.028119415 16:0.039033737 
-450 1:0.26315284 2:0.32496065 3:0.14648244 4:0.19641078 5:0.10985278 6:0.12909216 7:0.087319911 8:0.12370106 9:0.035535362 10:0.052933272 11:0.035808779 12:0.055405889 13:0.043716237 14:0.056923017 15:0.027023619 16:0.037452321 
450 1:0.13744269 2:0.15714212 3:0.10811327 4:0.14899172 5:0.096443124 6:0.1222222 7:0.060555726 8:0.095623948 9:0.032500755 10:0.042762794 11:0.024529731 12:0.03845609 13:0.037826929 14:0.05191784 15:0.019286834 16:0.025810603 
94.568884669072375 1:0.056102481 2:0.068001322 3:0.072626837 4:0.097688027 5:0.06113866 6:0.078313418 7:0.041463006 8:0.069123551 9:0.021076955 10:0.027471963 11:0.016340859 12:0.02450902 13:0.025209669 14:0.034805346 15:0.012472955 16:0.016044062 
-450 1:0.020284837 2:0.027604863 3:0.048860356 4:0.063311473 5:0.033825248 6:0.047488373 7:0.027096143 8:0.046846658 9:0.012615805 10:0.018705111 11:0.010873393 12:0.01566668 13:0.014212805 14:0.020677462 15:0.0076228469 16:0.0095255608 
450 1:0.30204293 2:0.37186497 3:0.19457281 4:0.23250844 5:0.1511766 6:0.14570187 7:0.12541279 8:0.14599326 9:0.046881214 10:0.058253843 11:0.045890734 12:0.059162952 13:0.059438951 14:0.0631162 15:0.039363753 16:0.042392746 
-450 1:0.26338831 2:0.32487419 3:0.20889819 4:0.24006742 5:0.16774315 6:0.15437488 7:0.13457955 8:0.15035056 9:0.05466659 10:0.058932301 11:0.051852986 12:0.059115529 13:0.070394188 14:0.068730026 15:0.046595566 16:0.044325747 
450 1:0.30243939 2:0.37189576 3:0.2315502 4:0.26082233 5:0.18022656 6:0.15835258 7:0.15130147 8:0.16157328 9:0.057029188 10:0.061164178 11:0.055611338 12:0.062062796 13:0.072518282 14:0.069183528 15:0.050264087 16:0.046126392 
-450 1:0.26415285 2:0.32527566 3:0.24520558 4:0.26705492 5:0.19691035 6:0.1662982 7:0.15955715 8:0.16458125 9:0.065551609 10:0.061260235 11:0.061987467 12:0.062446661 13:0.085165545 14:0.07434617 15:0.058321159 16:0.049674835 
450 1:0.13986248 2:0.15801392 3:0.19733308 4:0.21121067 5:0.18555532 6:0.16252166 7:0.13117178 8:0.13578065 9:0.079036847 10:0.060296841 11:0.063274302 12:0.055361912 13:0.086903095 14:0.076079704 15:0.066250063 16:0.048205767 
-450 1:0.068812773 2:0.076767124 3:0.17115861 4:0.16619219 5:0.15164354 6:0.11722182 7:0.13482775 8:0.12061899 9:0.083675906 10:0.051370472 11:0.08382161 12:0.056850113 13:0.085501038 14:0.064181432 15:0.087579422 16:0.05545735 
-450 1:0.037243452 2:0.039431527 3:0.14019224 4:0.12520976 5:0.11456461 6:0.08093483 7:0.12300156 8:0.097796373 9:0.07516069 10:0.044212315 11:0.087214582 12:0.056547947 13:0.073905952 14:0.049324013 15:0.092989624 16:0.059800457 
-450 1:0.3041583 2:0.37251371 3:0.29361817 4:0.3134042 5:0.24795893 6:0.18615785 7:0.20660861 8:0.1950729 9:0.080561832 10:0.067650825 11:0.076682962 12:0.068120144 13:0.10485554 14:0.081999674 15:0.07290592 16:0.054514483 
-450 1:0.26548287 2:0.32596663 3:0.29095259 4:0.30598554 5:0.2489903 6:0.18709464 7:0.20311373 8:0.19219433 9:0.086136661 10:0.067163318 11:0.081645727 12:0.068190955 13:0.11265276 14:0.086831547 15:0.078842781 16:0.057416353 
-450 1:0.14239508 2:0.1594606 3:0.24213746 4:0.24704942 5:0.23950118 6:0.18518785 7:0.17726061 8:0.1614975 9:0.10975052 10:0.072158813 11:0.092039995 12:0.068099201 13:0.11990687 14:0.09099295 15:0.098317057 16:0.0628004 
-450 1:0.012558066 2:0.0093711149 3:0.11966892 4:0.091096886 5:0.10860802 6:0.056390181 7:0.14755012 8:0.090717234 9:0.10627029 10:0.071840674 11:0.13159543 12:0.086546697 13:0.088984489 14:0.049938034 15:0.13587451 16:0.087163426 
-450 1:0.075725064 2:0.082061931 3:0.20657191 4:0.19883522 5:0.19962119 6:0.13641684 7:0.19085783 8:0.15104312 9:0.11548844 10:0.065040872 11:0.12124548 12:0.076233611 13:0.12030707 14:0.080360964 15:0.12990646 16:0.076423623 
10.01731439567998 1:0.14728005 2:0.16185787 3:0.27364388 4:0.27806127 5:0.29241699 6:0.20851532 7:0.22961348 8:0.19117065 9:0.13523057 10:0.080927148 11:0.11746059 12:0.079477794 13:0.15331075 14:0.10674493 15:0.13093337 16:0.077312797 
-450 1:0.050820671 2:0.049397949 3:0.18667775 4:0.16873881 5:0.18357557 6:0.1120438 7:0.21793941 8:0.15077907 9:0.12459306 10:0.066136822 11:0.15157776 12:0.092769533 13:0.12910563 14:0.077057607 15:0.1684034 16:0.10056095 
-450 1:0.031220844 2:0.023377856 3:0.17230642 4:0.14442873 5:0.1809375 6:0.098338172 7:0.25397131 8:0.15957032 9:0.15770294 10:0.11017901 11:0.19953898 12:0.13698131 13:0.14664283 14:0.086237825 15:0.21705152 16:0.13967386 
450 1:0.091742076 2:0.091804586 3:0.24729139 4:0.24186635 5:0.25396314 6:0.16416705 7:0.26188394 8:0.19628227 9:0.14484797 10:0.078017391 11:0.15885112 12:0.097055763 13:0.15871918 14:0.10178874 15:0.17866607 16:0.10321584 
-450 1:0.064380527 2:0.057897296 3:0.21383011 4:0.1972419 5:0.2137872 6:0.12893108 7:0.26100692 8:0.18124193 9:0.14104481 10:0.074776419 11:0.17524643 12:0.10876795 13:0.15108944 14:0.090529434 15:0.19902605 16:0.12152772 
450 1:0.05063438 2:0.034214433 3:0.20217334 4:0.17786688 5:0.20907921 6:0.1223766 7:0.29019675 8:0.19492002 9:0.17743745 10:0.12807807 11:0.22259386 12:0.16091783 13:0.1660364 14:0.10439198 15:0.2422757 16:0.1644946 
-450 1:0.34531176 2:0.38517222 3:0.53180915 4:0.56856132 5:0.41234055 6:0.28867114 7:0.3902216 8:0.35117841 9:0.11795487 10:0.070117205 11:0.12600498 12:0.080597967 13:0.18192309 14:0.13177152 15:0.1391281 16:0.087666206 
23.191054185511749 1:0.30946246 2:0.34113207 3:0.53271347 4:0.55239803 5:0.40791485 6:0.28650337 7:0.38732323 8:0.35074365 9:0.12375188 10:0.071389757 11:0.13273948 12:0.084045716 13:0.19152594 14:0.13684715 15:0.15064651 16:0.095022559 
-450 1:0.20150527 2:0.18737201 3:0.45827869 4:0.47404107 5:0.40219843 6:0.28632125 7:0.36755425 8:0.3213706 9:0.16837168 10:0.094377831 11:0.16728094 12:0.10970579 13:0.21019411 14:0.15019101 15:0.19459584 16:0.12520233 
-450 1:0.15692961 2:0.12872951 3:0.39526799 4:0.3945502 5:0.33115682 6:0.23231484 7:0.35982993 8:0.30354056 9:0.18028691 10:0.10755557 11:0.20847695 12:0.14510053 13:0.20055322 14:0.14211445 15:0.22844808 16:0.15513569 
-450 1:0.13609396 2:0.10106435 3:0.35964814 4:0.3553814 5:0.30037811 6:0.21231459 7:0.36830375 8:0.30129084 9:0.18887562 10:0.12036013 11:0.24116707 12:0.18356152 13:0.20012087 14:0.14382526 15:0.26064447 16:0.19244553 
-450 1:0.11879974 2:0.078542002 3:0.33616379 4:0.32831007 5:0.29390696 6:0.21756616 7:0.38670558 8:0.31526464 9:0.25964773 10:0.25043669 11:0.30056739 12:0.26627472 13:0.21576273 14:0.1714482 15:0.30033037 16:0.24284281 
450 1:0.22927348 2:0.25176042 3:0.13317965 4:0.17081524 5:0.071589872 6:0.096004076 7:0.087845005 8:0.1609371 9:0.035067275 10:0.042732552 11:0.045343738 12:0.063339643 13:0.041656233 14:0.056939766 15:0.038211644 16:0.054983336 
450 1:0.19434138 2:0.20612422 3:0.12677118 4:0.1598807 5:0.075537823 6:0.10948282 7:0.069665283 8:0.13228048 9:0.032786369 10:0.035805177 11:0.037473459 12:0.045447424 13:0.048199814 14:0.068130165 15:0.034973107 16:0.049201984 
450 1:0.098836303 2:0.075867124 3:0.069539092 4:0.090637885 5:0.048504803 6:0.055801503 7:0.057753745 8:0.10629689 9:0.015785325 10:0.010016665 11:0.020855203 12:0.021737037 13:0.028199686 14:0.026407685 15:0.022870161 16:0.024757385 
450 1:0.038308151 2:0.029446326 3:0.049821686 4:0.066997431 5:0.033603959 6:0.034036998 7:0.039732046 8:0.069529854 9:0.015782418 10:0.016692506 11:0.018176239 12:0.023633193 13:0.019395566 14:0.016184732 15:0.01703785 16:0.019182421 
450 1:0.011734006 2:0.009407362 3:0.037869867 4:0.060687162 5:0.024527622 6:0.029853836 7:0.045236569 8:0.081099279 9:0.010815457 10:0.007717113 11:0.013524937 12:0.013151374 13:0.014475145 14:0.016997356 15:0.014066618 16:0.013990019 
-450 1:0.2316854 2:0.25433362 3:0.23261459 4:0.24835688 5:0.092255063 6:0.10257392 7:0.12609442 8:0.17459261 9:0.044898432 10:0.044985175 11:0.050513059 12:0.059568409 13:0.045612402 14:0.055804111 15:0.05115084 16:0.062337603 
-450 1:0.19780959 2:0.20897497 3:0.22579354 4:0.23335773 5:0.085091487 6:0.1085428 7:0.09698344 8:0.14291431 9:0.046531528 10:0.04174583 11:0.051958065 12:0.045383196 13:0.048398297 14:0.062872447 15:0.051543549 16:0.058774646 
-450 1:0.10768889 2:0.082558908 3:0.16182324 4:0.15329216 5:0.074365072 6:0.060910344 7:0.088073142 8:0.10669753 9:0.054399077 10:0.018717207 11:0.066773325 12:0.03111154 13:0.044719037 14:0.029867124 15:0.083385818 16:0.058908004 
334.42914655644995 1:0.056027178 2:0.042199954 3:0.13412027 4:0.12565808 5:0.068751656 6:0.048254937 7:0.081810601 8:0.07771977 9:0.042521875 10:0.017178737 11:0.061711755 12:0.029122286 13:0.041083999 14:0.024656879 15:0.091167018 16:0.060459509 
-450 1:0.033489052 2:0.024190938 3:0.12398682 4:0.12706916 5:0.063796535 6:0.043521181 7:0.11284567 8:0.11643428 9:0.040897064 10:0.010835496 11:0.068849713 12:0.027613366 13:0.037320632 14:0.021443808 15:0.10547179 16:0.071965717 
-450 1:0.012509453 2:0.0074981516 3:0.09434519 4:0.085757092 5:0.053643141 6:0.019929945 7:0.092965446 8:0.067862093 9:0.056792814 10:0.011881814 11:0.078746371 12:0.026949676 13:0.048467156 14:0.01648896 15:0.11929325 16:0.081810556 
-450 1:0.23642603 2:0.25742623 3:0.29113403 4:0.29211643 5:0.11847322 6:0.11995804 7:0.1634742 8:0.19719373 9:0.060191583 10:0.053050604 11:0.063053876 12:0.062253904 13:0.058577247 14:0.061299358 15:0.071048811 16:0.071601443 
-450 1:0.20478927 2:0.21419525 3:0.2867983 4:0.28377539 5:0.10608085 6:0.11663347 7:0.13373886 8:0.159032 9:0.068193525 10:0.058902703 11:0.070332468 12:0.054904543 13:0.059106302 14:0.067220174 15:0.075955093 16:0.073411316 
450 1:0.1176964 2:0.089354597 3:0.20838821 4:0.18731573 5:0.096399091 6:0.073144712 7:0.11828654 8:0.12257243 9:0.075485356 10:0.03036291 11:0.08852616 12:0.044449642 13:0.058990192 14:0.040781777 15:0.11056586 16:0.077978447 
-450 1:0.069360279 2:0.050921045 3:0.17755418 4:0.15721843 5:0.093830124 6:0.06362164 7:0.1199749 8:0.10201865 9:0.05696024 10:0.024834052 11:0.080221005 12:0.039821126 13:0.057150714 14:0.037911084 15:0.12108561 16:0.083002687 
450 1:0.24409117 2:0.26251191 3:0.33471835 4:0.32846934 5:0.13987716 6:0.13054499 7:0.19912131 8:0.21528023 9:0.075298198 10:0.06788864 11:0.070078865 12:0.069432199 13:0.067366555 14:0.068754882 15:0.080710582 16:0.078848809 
450 1:0.12327773 2:0.092822053 3:0.23290141 4:0.20194449 5:0.10968905 6:0.084638439 7:0.13520041 8:0.13511123 9:0.086801268 10:0.039504845 11:0.097586311 12:0.050857201 13:0.065974534 14:0.048459191 15:0.12132092 16:0.086045071 
-450 1:0.055575613 2:0.037982997 3:0.19375539 4:0.18135558 5:0.10550378 6:0.067424074 7:0.19326301 8:0.17295986 9:0.0674031 10:0.027545877 11:0.10444884 12:0.0503553 13:0.062900029 14:0.038311113 15:0.15295289 16:0.10769428 
-450 1:0.036434717 2:0.022216618 3:0.17129283 4:0.15273808 5:0.098047376 6:0.050097387 7:0.17586373 8:0.13693158 9:0.094881795 10:0.035522357 11:0.1200645 12:0.058744173 13:0.086629979 14:0.046110135 15:0.17345144 16:0.12466817 
-232.59038197866778 1:0.21998887 2:0.22537535 3:0.35804138 4:0.32988521 5:0.13575448 6:0.13778317 7:0.17671569 8:0.18526204 9:0.087017998 10:0.067198113 11:0.086804725 12:0.069662318 13:0.07002537 14:0.076928489 15:0.092073321 16:0.086325474 
450 1:0.08564043 2:0.060360618 3:0.22287764 4:0.19004059 5:0.11916751 6:0.078954987 7:0.1580085 8:0.12795535 9:0.063535146 10:0.028338449 11:0.092097037 12:0.047837369 13:0.071854711 14:0.049749963 15:0.13758886 16:0.093052894 
450 1:0.07688877 2:0.050321095 3:0.24788897 4:0.21698885 5:0.14001475 6:0.086479843 7:0.24957836 8:0.20984378 9:0.078219771 10:0.037686575 11:0.12162978 12:0.062868178 13:0.078178026 14:0.04886838 15:0.17310047 16:0.1225931 
450 1:0.058187902 2:0.035629548 3:0.22611664 4:0.1938066 5:0.13474047 6:0.077929385 7:0.23884118 8:0.18654709 9:0.12301136 10:0.058351114 11:0.14992586 12:0.086469837 13:0.11793175 14:0.072049871 15:0.20358421 16:0.15084301 
450 1:0.29658642 2:0.29365656 3:0.57744586 4:0.49902242 5:0.2419152 6:0.21085976 7:0.33883578 8:0.32288843 9:0.11261605 10:0.13711886 11:0.088930584 12:0.079769664 13:0.090815075 14:0.096033283 15:0.11595811 16:0.11246737 
-436.9797887400839 1:0.27542296 2:0.26000333 3:0.66637349 4:0.56391037 5:0.23532043 6:0.2363659 7:0.34644178 8:0.34555379 9:0.19228537 10:0.22771449 11:0.16965018 12:0.14180946 13:0.10515602 14:0.12182855 15:0.15156844 16:0.14893864 
450 1:0.19085276 2:0.13609785 3:0.46279055 4:0.36553743 5:0.26624709 6:0.20988828 7:0.29550526 8:0.26656842 9:0.23971097 10:0.18866822 11:0.19751999 12:0.13748482 13:0.1538184 14:0.14010061 15:0.22564472 16:0.17393315 
450 1:0.15499838 2:0.10455214 3:0.41739082 4:0.34215793 5:0.28674802 6:0.21758407 7:0.31877187 8:0.27876517 9:0.15189464 10:0.1153864 11:0.17284222 12:0.11160997 13:0.15985018 14:0.14954223 15:0.22600253 16:0.18387501 
450 1:0.13584009 2:0.087739132 3:0.41126621 4:0.34806591 5:0.27307209 6:0.18792665 7:0.42930239 8:0.38521516 9:0.14921129 10:0.11593441 11:0.20713198 12:0.13598338 13:0.14345364 14:0.1098042 15:0.26914823 16:0.21441936 
450 1:0.12098747 2:0.075769827 3:0.39602292 4:0.34143719 5:0.25456271 6:0.18657027 7:0.4134503 8:0.36594176 9:0.23533873 10:0.19019343 11:0.2481807 12:0.20381652 13:0.22181626 14:0.18324918 15:0.29997921 16:0.25684252 
-450 1:0.23314093 2:0.24753542 3:0.088094778 4:0.13736519 5:0.053123277 6:0.082896695 7:0.053237326 8:0.10102906 9:0.032966889 10:0.044479407 11:0.029254561 12:0.04008428 13:0.030388582 14:0.047739916 15:0.027513551 16:0.040552706 
-450 1:0.1196427 2:0.12438872 3:0.083020426 4:0.11985696 5:0.043575894 6:0.063617386 7:0.041159764 8:0.074257404 9:0.02446305 10:0.03254389 11:0.02255528 12:0.02889288 13:0.022157498 14:0.031578388 15:0.018653832 16:0.026074866 
-450 1:0.048548948 2:0.053435102 3:0.077730566 4:0.11011397 5:0.039207872 6:0.06108002 7:0.033814497 8:0.060685061 9:0.018830936 10:0.026365152 11:0.027559677 12:0.049330831 13:0.019095646 14:0.02914569 15:0.016173739 16:0.024275221 
450 1:0.016511086 2:0.020228291 3:0.062576614 4:0.087115631 5:0.0294718 6:0.050314207 7:0.026208682 8:0.050375525 9:0.016359726 10:0.02356999 11:0.040197704 12:0.090441912 13:0.015579495 14:0.025565466 15:0.0133604 16:0.023237865 
450 1:0.27020112 2:0.2930617 3:0.11164444 4:0.14969586 5:0.057982825 6:0.082372546 7:0.06085052 8:0.10130487 9:0.030898085 10:0.042730317 11:0.034300901 12:0.042628504 13:0.031282768 14:0.045167703 15:0.027253458 16:0.037078518 
-450 1:0.23306037 2:0.2475071 3:0.12517068 4:0.15526299 5:0.058760215 6:0.077032201 7:0.065224528 8:0.095954821 9:0.030181959 10:0.039753836 11:0.041966248 12:0.052574575 13:0.031084504 14:0.041517716 15:0.029648168 16:0.033609428 
450 1:0.27074265 2:0.29336947 3:0.1423454 4:0.16573918 5:0.0690865 6:0.083679982 7:0.075887851 8:0.10244886 9:0.03139678 10:0.040320586 11:0.045097515 12:0.052499481 13:0.036882356 14:0.045135822 15:0.034819879 16:0.036781017 
-450 1:0.12266778 2:0.12708999 3:0.16455634 4:0.16779408 5:0.09729702 6:0.097879075 7:0.089934841 8:0.088103212 9:0.037729371 10:0.037625533 11:0.062628843 12:0.065742165 13:0.052900035 14:0.052018818 15:0.052845933 16:0.044436615 
-450 1:0.23407303 2:0.24813156 3:0.1667268 4:0.18061233 5:0.074687853 6:0.081378676 7:0.088761665 8:0.1018433 9:0.033801198 10:0.041608181 11:0.059661169 12:0.071041174 13:0.039108526 14:0.042150076 15:0.043152545 16:0.038230032 
8.0442150784288646 1:0.066535987 2:0.070085242 3:0.21057232 4:0.20686936 5:0.12709521 6:0.12739816 7:0.12861589 8:0.11933179 9:0.061787598 10:0.06331116 11:0.13696745 12:0.17743956 13:0.069388501 14:0.067566678 15:0.085360564 16:0.077813558 
-450 1:0.040519267 2:0.042491302 3:0.19641562 4:0.18198141 5:0.12427226 6:0.12140226 7:0.15277414 8:0.15200017 9:0.046203669 10:0.029974531 11:0.18598527 12:0.28424659 13:0.072438009 14:0.067682222 15:0.11602125 16:0.12514807 
450 1:0.27201283 2:0.29486027 3:0.18309197 4:0.19432083 5:0.085997187 6:0.089494668 7:0.098464027 8:0.10984336 9:0.034271196 10:0.03995296 11:0.060904153 12:0.065983206 13:0.046048086 14:0.047249626 15:0.047439478 16:0.040559791 
-450 1:0.023571607 2:0.024987934 3:0.18625712 4:0.17725754 5:0.14622326 6:0.13017723 7:0.18212816 8:0.1791826 9:0.088775121 10:0.073446788 11:0.15924014 12:0.17782383 13:0.09913408 14:0.089238822 15:0.14105697 16:0.13323462 
-450 1:0.23656079 2:0.2491468 3:0.2163035 4:0.21840203 5:0.094631515 6:0.086834989 7:0.11945861 8:0.11334776 9:0.039026648 10:0.044563979 11:0.078587256 12:0.091628559 13:0.050426785 14:0.045110907 15:0.059815694 16:0.046491541 
-450 1:0.12946808 2:0.13303739 3:0.25823852 4:0.23650736 5:0.15126826 6:0.14156149 7:0.15340735 8:0.12882875 9:0.057850815 10:0.054262239 11:0.10807972 12:0.11489648 13:0.084773444 14:0.080705978 15:0.093464747 16:0.07928092 
450 1:0.084831536 2:0.086399011 3:0.32952407 4:0.30590323 5:0.1996804 6:0.19119625 7:0.21655151 8:0.19433077 9:0.093188524 10:0.097786076 11:0.19649965 12:0.2554144 13:0.1122542 14:0.1068268 15:0.13702518 16:0.12631527 
450 1:0.062472634 2:0.062727407 3:0.31993631 4:0.28987423 5:0.20177284 6:0.18630761 7:0.25129595 8:0.24590245 9:0.077208266 10:0.051635981 11:0.25978127 12:0.39838064 13:0.11905719 14:0.10884811 15:0.17646575 16:0.1965453 
-450 1:0.14027874 2:0.14170071 3:0.35410646 4:0.32123417 5:0.2033007 6:0.18337704 7:0.21850574 8:0.17710955 9:0.078249142 10:0.0723956 11:0.14826055 12:0.16055633 13:0.11542282 14:0.10857911 15:0.12993512 16:0.1100565 
-450 1:0.054886725 2:0.053201493 3:0.33780161 4:0.32785153 5:0.24359867 6:0.2235851 7:0.30570087 8:0.30227032 9:0.14666238 10:0.13755003 11:0.23829883 12:0.2702252 13:0.15990046 14:0.1515328 15:0.21270229 16:0.20865327 
-450 1:0.10476024 2:0.10322209 3:0.44643801 4:0.42169577 5:0.25976303 6:0.24215828 7:0.29704204 8:0.26670876 9:0.11150468 10:0.11329788 11:0.2316929 12:0.29471469 13:0.14831497 14:0.13985594 15:0.17707832 16:0.16498283 
450 1:0.085506231 2:0.083060779 3:0.43647459 4:0.39953208 5:0.26672262 6:0.24607649 7:0.33755752 8:0.32895175 9:0.097330377 10:0.067551039 11:0.30049449 12:0.45272964 13:0.15781207 14:0.14581002 15:0.21796858 16:0.24009123 
-450 1:0.083348192 2:0.079188742 3:0.4692291 4:0.45506966 5:0.31468603 6:0.28999612 7:0.40778795 8:0.41366857 9:0.19043441 10:0.203723 11:0.28306264 12:0.31255895 13:0.2062178 14:0.20218354 15:0.26669434 16:0.28215262 
-383.3544738110694 1:0.34832823 2:0.35688907 3:0.75844359 4:0.73562574 5:0.36356115 6:0.26095778 7:0.45016316 8:0.35511857 9:0.11182077 10:0.092592113 11:0.23515266 12:0.23953067 13:0.19872698 14:0.14092821 15:0.22346961 16:0.15877067 
166.4179122502365 1:0.3218478 2:0.32342201 3:0.80218965 4:0.79593366 5:0.38220403 6:0.27717769 7:0.49164093 8:0.3906852 9:0.1272486 10:0.11890877 11:0.26570371 12:0.30934876 13:0.20844223 14:0.14801434 15:0.2427295 16:0.18038006 
-56.615132794122573 1:0.24191858 2:0.23531348 3:0.93713468 4:0.91827291 5:0.48965004 6:0.47712216 7:0.59103334 8:0.50845212 9:0.19070949 10:0.22330622 11:0.3084226 12:0.36358887 13:0.27886978 14:0.30130693 15:0.30054292 16:0.29537621 
-96.120765555445772 1:0.21463558 2:0.20931718 3:1 4:1 5:0.52443373 6:0.52923894 7:0.6398114 8:0.60032535 9:0.23981537 10:0.30448258 11:0.42279994 12:0.60366327 13:0.29800591 14:0.31941807 15:0.34068862 16:0.35789692 
89.773440573408379 1:0.20316376 2:0.19580212 3:0.98710138 4:0.98627329 5:0.51950127 6:0.50768197 7:0.70259428 8:0.73240268 9:0.20623972 10:0.19283563 11:0.55265629 12:0.9517588 13:0.30307549 14:0.31023887 15:0.41034454 16:0.51816732 
-265.91872019572702 1:0.18969528 2:0.18281007 3:0.90960199 4:0.93955034 5:0.53170222 6:0.52908456 7:0.71124715 8:0.75972611 9:0.34619072 10:0.4570992 11:0.41920087 12:0.48013717 13:0.34628549 14:0.38679147 15:0.4240433 16:0.50376618 
-450 1:0.86633313 2:0.97129416 3:0.048519533 4:0.086041369 5:0.027293745 6:0.059531931 7:0.026452215 8:0.063749455 9:0.01585523 10:0.025743483 11:0.016945139 12:0.029508591 13:0.014580645 14:0.030560745 15:0.014063195 16:0.024828156 
-450 1:0.76985848 2:0.84359974 3:0.045298945 4:0.081037648 5:0.02554521 6:0.055852063 7:0.024839357 8:0.060327526 9:0.014838263 10:0.023458883 11:0.015431905 12:0.026461782 13:0.013407696 14:0.028133003 15:0.012749903 16:0.022296276 
-450 1:0.45668685 2:0.45203301 3:0.035113882 4:0.061734736 5:0.017171176 6:0.040198084 7:0.015547098 8:0.040903024 9:0.010407531 10:0.016291004 11:0.0086832764 12:0.013719979 13:0.0083679687 14:0.018106019 15:0.0070757344 16:0.011554093 
-450 1:0.20928611 2:0.21175393 3:0.025982592 4:0.045647688 5:0.010081269 6:0.027589042 7:0.0083015561 8:0.026695602 9:0.0050358637 10:0.0077985381 11:0.0030350054 12:0.0050182194 13:0.0041345367 14:0.010313296 15:0.0024862725 16:0.0039842245 
-450 1:0.093265474 2:0.095070183 3:0.020909049 4:0.036147848 5:0.0024347054 6:0.016554816 7:0.0024175181 8:0.016502678 14:0.003647265 
-450 1:0.86835504 2:0.97187775 3:0.058611404 4:0.089488357 5:0.026551632 6:0.056872305 7:0.0268363 8:0.06070799 9:0.014092617 10:0.023690786 11:0.014668358 12:0.026586672 13:0.013725093 14:0.028628105 15:0.012523078 16:0.022119813 
-450 1:0.77239799 2:0.84379375 3:0.056959949 4:0.083870143 5:0.026716202 6:0.052910492 7:0.02631806 8:0.056631427 9:0.013809402 10:0.02154897 11:0.013994675 12:0.023245327 13:0.013647651 14:0.025993332 15:0.012316007 16:0.019243592 
390.32675336422926 1:0.87072331 2:0.97207189 3:0.067991644 4:0.093371704 5:0.028064413 6:0.055645842 7:0.029729187 8:0.059559189 9:0.014413537 10:0.022783456 11:0.01508704 12:0.025188055 13:0.014561484 14:0.027859205 15:0.01367172 16:0.021019815 
