svm_type epsilon_svr
kernel_type rbf
gamma 0.5
nr_class 2
total_sv 457
rho -4.4298983167875923
SV
-480 1:0.66000295 2:0.52343518 3:0.090585276 4:0.14336982 5:0.1005068 6:0.20044592 7:0.097778752 8:0.18702336 9:0.041280746 10:0.10044653 11:0.044439003 12:0.11874602 13:0.063331775 14:0.18251838 15:0.076929726 16:0.17645591 
-480 1:0.5452981 2:0.43373877 3:0.088373147 4:0.13897058 5:0.093532048 6:0.19193716 7:0.09429647 8:0.17862505 9:0.038272742 10:0.09386719 11:0.042416401 12:0.11489124 13:0.060688008 14:0.17772281 15:0.070671812 16:0.168014 
-480 1:0.23599251 2:0.18583496 3:0.071770906 4:0.10956142 5:0.074523941 6:0.14126778 7:0.067391261 8:0.13085055 9:0.026142271 10:0.06263151 11:0.026119856 12:0.077393621 13:0.045813769 14:0.13340972 15:0.043030821 16:0.1208801 
480 1:0.10717784 2:0.084230214 3:0.056955997 4:0.079514705 5:0.052111264 6:0.097816527 7:0.043660682 8:0.08907105 9:0.017403942 10:0.055028047 11:0.014354574 12:0.058594298 13:0.031258401 14:0.10111827 15:0.024373462 16:0.084347248 
480 1:0.043407079 2:0.034147698 3:0.034884498 4:0.048117984 5:0.035808243 6:0.07584089 7:0.02787975 8:0.065334424 9:0.008555349 10:0.041745752 11:0.0067661661 12:0.045293458 13:0.015231329 14:0.074356496 15:0.012318338 16:0.066493616 
480 1:0.65998483 2:0.52351224 3:0.093503654 4:0.14373852 5:0.094831519 6:0.19174924 7:0.093643114 8:0.18053839 9:0.037369166 10:0.097432293 11:0.039774261 12:0.11459128 13:0.05882274 14:0.17746444 15:0.068998136 16:0.17022571 
-480 1:0.54540956 2:0.43390703 3:0.091530673 4:0.13825637 5:0.087900855 6:0.18166853 7:0.090572357 8:0.17112112 9:0.03360429 10:0.08949279 11:0.037102595 12:0.1097223 13:0.055483986 14:0.17108206 15:0.061752062 16:0.15960334 
-480 1:0.23708247 2:0.18638459 3:0.079807527 4:0.10772028 5:0.086392373 6:0.13316222 7:0.07496924 8:0.12308957 9:0.028994763 10:0.057418164 11:0.023265515 12:0.066027604 13:0.050384663 14:0.12273407 15:0.037302498 16:0.10314394 
480 1:0.12037915 2:0.091970928 3:0.077469945 4:0.085373551 5:0.085649572 6:0.10589367 7:0.068784207 8:0.088459902 9:0.031214638 10:0.057060216 11:0.023442438 12:0.053238936 13:0.048140928 14:0.095488906 15:0.044322044 16:0.080398783 
480 1:0.061808147 2:0.045239463 3:0.060617588 4:0.058417097 5:0.081938796 6:0.099217832 7:0.068262592 8:0.081626073 9:0.029359572 10:0.056468274 11:0.030207815 12:0.057644818 13:0.040559929 14:0.075293027 15:0.053632677 16:0.087186597 
480 1:0.01315981 2:0.0065748286 3:0.044896506 4:0.035219885 5:0.075516768 6:0.073915184 7:0.066478193 8:0.057467017 9:0.049659003 10:0.080712408 11:0.04453982 12:0.058096755 13:0.058013596 14:0.084131517 15:0.070753403 16:0.080503486 
480 1:0.66042525 2:0.52394468 3:0.11262677 4:0.15456326 5:0.098395891 6:0.1761048 7:0.097589187 8:0.16966476 9:0.036098391 10:0.088718548 11:0.036667358 12:0.105129 13:0.058189556 14:0.16600631 15:0.062696867 16:0.15528239 
-480 1:0.54683238 2:0.43431953 3:0.1092147 4:0.14596683 5:0.094909661 6:0.16754648 7:0.097655311 8:0.16099787 9:0.034996457 10:0.08008568 11:0.034884542 12:0.099827707 13:0.055512633 14:0.15968233 15:0.059398383 16:0.14431943 
-480 1:0.24243908 2:0.18867067 3:0.11361416 4:0.12206323 5:0.1336161 6:0.142552 7:0.11640544 8:0.13103896 9:0.049000677 10:0.071976237 11:0.036639795 12:0.063412853 13:0.076770127 14:0.12218651 15:0.060135234 16:0.093904011 
480 1:0.66186494 2:0.52390784 3:0.13144055 4:0.16728532 5:0.11156414 6:0.17104888 7:0.10855262 8:0.16756777 9:0.036933199 10:0.087061815 11:0.038688585 12:0.10033443 13:0.063950278 14:0.16153236 15:0.065668151 16:0.14889923 
480 1:0.54760504 2:0.43433964 3:0.12724549 4:0.1576252 5:0.1100895 6:0.163764 7:0.10988633 8:0.15943211 9:0.037414931 10:0.077453725 11:0.038461305 12:0.09558025 13:0.062098403 14:0.15437818 15:0.06599424 16:0.13770029 
480 1:0.14026779 2:0.10433017 3:0.13345881 4:0.11906308 5:0.16082877 6:0.14870732 7:0.14046462 8:0.12338705 9:0.054312967 10:0.071846016 11:0.052179165 12:0.068044662 13:0.092505969 14:0.11706775 15:0.099285424 16:0.10758475 
-480 1:0.093647793 2:0.064751536 3:0.14801189 4:0.12060575 5:0.18885642 6:0.17448972 7:0.1794692 8:0.15751001 9:0.065175071 10:0.082433909 11:0.080889709 12:0.097857125 13:0.1079262 14:0.12095077 15:0.14503838 16:0.15237309 
-480 1:0.048495494 2:0.028967265 3:0.1527383 4:0.12795153 5:0.20563203 6:0.1925588 7:0.19480127 8:0.17424829 9:0.11043097 10:0.14340037 11:0.11328712 12:0.12401183 13:0.15543766 14:0.20052958 15:0.18438005 16:0.18561676 
480 1:0.24915133 2:0.19205971 3:0.14687493 4:0.14410067 5:0.17695361 6:0.16182753 7:0.15367241 8:0.14730784 9:0.058048837 10:0.074786536 11:0.049586713 12:0.066722669 13:0.10212272 14:0.12971205 15:0.083187327 16:0.097240262 
-480 1:0.15652989 2:0.11348727 3:0.19118431 4:0.15892869 5:0.2194659 6:0.18518224 7:0.20255734 8:0.16042544 9:0.069149345 10:0.078798071 11:0.074427284 12:0.080041133 13:0.1270524 14:0.13824709 15:0.14102933 16:0.12841411 
-480 1:0.10733619 2:0.073192194 3:0.19521731 4:0.15494947 5:0.23606886 6:0.20238324 7:0.23313999 8:0.1950455 9:0.078642093 10:0.089154355 11:0.10068201 12:0.11299203 13:0.13789974 14:0.13867272 15:0.18330772 16:0.17798373 
-480 1:0.075162135 2:0.045549989 3:0.24845275 4:0.20365663 5:0.29479483 6:0.25650713 7:0.29507378 8:0.25795513 9:0.14434154 10:0.16765407 11:0.15637816 12:0.16267595 13:0.22112709 14:0.25579578 15:0.26167378 16:0.24630775 
-480 1:0.68405569 2:0.53587049 3:0.38662517 4:0.40888295 5:0.29565871 6:0.24633361 7:0.28832307 8:0.26291206 9:0.064682037 10:0.077726141 11:0.088814281 12:0.094317555 13:0.15176123 14:0.16615297 15:0.15392497 16:0.14054708 
-480 1:0.58094549 2:0.45355144 3:0.39135545 4:0.40621382 5:0.3138825 6:0.25201839 7:0.30134094 8:0.28080422 9:0.070716903 10:0.073218882 11:0.091680609 12:0.092154808 13:0.15227193 14:0.16014831 15:0.1691317 16:0.13983881 
158.19798841520506 1:0.31353047 2:0.23443122 3:0.44917193 4:0.40021521 5:0.43253833 6:0.3274323 7:0.42568183 8:0.34009799 9:0.11255752 10:0.11028431 11:0.1231489 12:0.10852835 13:0.2388159 14:0.20727751 15:0.22009283 16:0.15664141 
-480 1:0.23928824 2:0.1712493 3:0.52652156 4:0.44448587 5:0.48002443 6:0.3792913 7:0.51490015 8:0.40695533 9:0.12864675 10:0.12496402 11:0.16218041 12:0.15109932 13:0.27089062 14:0.24831519 15:0.31318307 16:0.24159881 
-480 1:0.20004974 2:0.13762634 3:0.55746889 4:0.47445855 5:0.50743425 6:0.42343372 7:0.57771432 8:0.49212044 9:0.15094979 10:0.15822792 11:0.20986775 12:0.22112311 13:0.2988134 14:0.27937174 15:0.38812727 16:0.33980855 
-480 1:0.16305871 2:0.10791145 3:0.59836274 4:0.52086192 5:0.57074475 6:0.49714375 7:0.62094772 8:0.55982715 9:0.23433417 10:0.29770052 11:0.27562216 12:0.30005884 13:0.41062379 14:0.46708566 15:0.47468305 16:0.43762913 
-480 1:0.78580284 2:0.5976454 3:0.093836151 4:0.14226247 5:0.080939114 6:0.14115936 7:0.08159934 8:0.13123427 9:0.019692395 10:0.073698759 11:0.023664033 12:0.080545396 13:0.039814465 14:0.10849711 15:0.041420836 16:0.10492162 
-480 1:0.33548695 2:0.2589772 3:0.069810025 4:0.10773396 5:0.061081544 6:0.10801087 7:0.057838693 8:0.10303189 9:0.01264412 10:0.055319648 11:0.01231715 12:0.057193007 13:0.031075398 14:0.088550568 15:0.022772161 16:0.077892311 
480 1:0.14657386 2:0.11555728 3:0.055364497 4:0.080000281 5:0.047515742 6:0.087774321 7:0.040043242 8:0.071549781 9:0.0091688745 10:0.045119721 11:0.0062906984 12:0.042372182 13:0.021375198 14:0.070008926 15:0.013162718 16:0.057153955 
480 1:0.064746454 2:0.051201858 3:0.037780806 4:0.050141416 5:0.028454214 6:0.057447396 7:0.026267247 8:0.044103652 9:0.0013756423 10:0.032301944 11:0.00098689122 12:0.032479361 13:0.0079073831 14:0.046920087 15:0.0029555678 16:0.040937439 
-46.309564406834404 1:0.9500314 2:0.74211389 3:0.10421529 4:0.15589936 5:0.088720866 6:0.14896671 7:0.089085363 8:0.13792011 9:0.019789578 10:0.072860152 11:0.023236869 12:0.078289405 13:0.043020822 14:0.10927191 15:0.043256715 16:0.10649168 
-480 1:0.78620249 2:0.59776694 3:0.10003284 4:0.1464026 5:0.082858279 6:0.13463823 7:0.084717788 8:0.13104565 9:0.018374018 10:0.069109321 11:0.021752255 12:0.074407034 13:0.039805751 14:0.10235094 15:0.037554372 16:0.095486023 
-480 1:0.33819276 2:0.25954086 3:0.090724036 4:0.11890735 5:0.087773211 6:0.11208901 7:0.079651482 8:0.10943903 9:0.022150168 10:0.048639763 11:0.020460553 12:0.048050858 13:0.047063228 14:0.086690977 15:0.034071989 16:0.064413168 
480 1:0.16654316 2:0.12382392 3:0.089097664 4:0.09662237 5:0.098944828 6:0.10948969 7:0.079919882 8:0.086639315 9:0.027887015 10:0.044634935 11:0.027312802 12:0.043314524 13:0.056149669 14:0.083351299 15:0.049105991 16:0.059361096 
480 1:0.95134532 2:0.74236113 3:0.11296665 4:0.16128996 5:0.097275257 6:0.14769675 7:0.09695632 8:0.13985176 9:0.021815896 10:0.068805136 11:0.025170606 12:0.073921762 13:0.047492266 14:0.10606334 15:0.046417452 16:0.1010276 
480 1:0.095694721 2:0.064169385 3:0.08759582 4:0.077301115 5:0.10190778 6:0.096040569 7:0.090318397 8:0.076516084 9:0.033658903 10:0.042844996 11:0.039555751 12:0.052294612 13:0.055986159 14:0.070753403 15:0.06682267 16:0.068839885 
480 1:0.026110984 2:0.0070070028 3:0.069898821 4:0.048882503 5:0.0942197 6:0.071203694 7:0.086961634 8:0.064264454 9:0.047424957 10:0.059674568 11:0.050429881 12:0.05802739 13:0.065939941 14:0.071972102 15:0.082165509 16:0.075121798 
-480 1:0.78867799 2:0.5979687 3:0.11395551 4:0.15606266 5:0.097386166 6:0.13316542 7:0.098291337 8:0.13661556 9:0.022910818 10:0.064962611 11:0.026321245 12:0.069901809 13:0.047943857 14:0.099573344 15:0.045385357 16:0.088986218 
480 1:0.95277512 2:0.74246633 3:0.12303722 4:0.16914453 5:0.10767853 6:0.15046579 7:0.10737621 8:0.14583772 9:0.02500269 10:0.067382537 11:0.028522415 12:0.071741864 13:0.053341642 14:0.10576226 15:0.052587889 16:0.097968444 
-480 1:0.79023212 2:0.59800041 3:0.12804557 4:0.16492888 5:0.11175282 6:0.13614403 7:0.11245869 8:0.14459521 9:0.027374804 10:0.063526601 11:0.031658798 12:0.068620458 13:0.055849835 14:0.099841952 15:0.05462468 16:0.087365016 
-480 1:0.34498602 2:0.26094523 3:0.12930246 4:0.14585872 5:0.1329304 6:0.13240433 7:0.12222065 8:0.13368145 9:0.04027909 10:0.05083327 11:0.040428445 12:0.051590223 13:0.075532012 14:0.097485967 15:0.065894075 16:0.06778083 
-480 1:0.18768574 2:0.13262154 3:0.14606813 4:0.13494205 5:0.16862695 6:0.15255721 7:0.14416008 8:0.12585822 9:0.053392999 10:0.054364149 11:0.057235371 12:0.058486529 13:0.10116355 14:0.11482135 15:0.10078485 16:0.083082333 
-480 1:0.12380084 2:0.077574402 3:0.16465235 4:0.13335544 5:0.1890845 6:0.15502147 7:0.17555368 8:0.13548854 9:0.069429524 10:0.062158853 11:0.08212284 12:0.08310388 13:0.11301505 14:0.11437429 15:0.13766074 16:0.11530435 
-480 1:0.05976085 2:0.023404105 3:0.17006904 4:0.1299146 5:0.20691256 6:0.16426311 7:0.19720164 8:0.15211238 9:0.10097097 10:0.10313711 11:0.10767181 12:0.11033237 13:0.14448537 14:0.15301707 15:0.17734216 16:0.15089515 
-480 1:0.35063279 2:0.26259342 3:0.16486777 4:0.17292792 5:0.17322181 6:0.15301755 7:0.15907551 8:0.15652081 9:0.054747444 10:0.054909501 11:0.0569047 12:0.05758065 13:0.099047311 14:0.10913183 15:0.092842698 16:0.07637389 
480 1:0.20431189 2:0.14015605 3:0.19660258 4:0.16995113 5:0.22480294 6:0.18661983 7:0.19983023 8:0.1607693 9:0.073249847 10:0.064002387 11:0.080922648 12:0.073171884 13:0.13729192 14:0.13914837 15:0.14194876 16:0.10440694 
480 1:0.14936319 2:0.088337757 3:0.23991506 4:0.19349919 5:0.26414406 6:0.21043424 7:0.2519238 8:0.19137071 9:0.097142175 10:0.077254944 11:0.11582893 12:0.10808888 13:0.1589797 14:0.15313165 15:0.19648114 16:0.15183756 
480 1:0.089038722 2:0.037840795 3:0.25854722 4:0.20302935 5:0.29280525 6:0.24039407 7:0.28856689 8:0.22835733 9:0.13939549 10:0.13158433 11:0.15032634 12:0.14563748 13:0.20166141 14:0.2166774 15:0.24754621 16:0.20716985 
410.99140550869066 1:0.96819907 2:0.74527699 3:0.24612899 4:0.2786985 5:0.24814111 6:0.22322859 7:0.2334898 8:0.24025248 9:0.060920179 10:0.067126989 11:0.078346916 12:0.079396151 13:0.12991148 14:0.13858269 15:0.1398309 16:0.11886964 
480 1:0.81163645 2:0.60118604 3:0.26454321 4:0.29867148 5:0.25709978 6:0.20956922 7:0.25023589 8:0.2536976 9:0.067311369 10:0.066690519 11:0.084472969 12:0.081393912 13:0.13564937 14:0.13447432 15:0.14866833 16:0.11682072 
-480 1:0.38787705 2:0.27431932 3:0.319565 4:0.31225175 5:0.32510597 6:0.26026204 7:0.3087866 8:0.27419794 9:0.10466322 10:0.078671522 11:0.11645626 12:0.089397646 13:0.18759306 14:0.1720275 15:0.19481125 16:0.12665024 
480 1:0.25721243 2:0.16365047 3:0.36313561 4:0.30803791 5:0.38558716 6:0.31692994 7:0.35935602 8:0.28751844 9:0.12608996 10:0.095327087 11:0.14658295 12:0.12213045 13:0.23508644 14:0.22736496 15:0.25503433 16:0.18133163 
480 1:0.19747874 2:0.11276588 3:0.38700444 4:0.3182781 5:0.40628117 6:0.33261618 7:0.40287322 8:0.31537908 9:0.15125851 10:0.11665975 11:0.17977709 12:0.16551596 13:0.24794286 14:0.24195661 15:0.30518225 16:0.23666981 
480 1:0.14334932 2:0.064918257 3:0.42041174 4:0.35310984 5:0.45499441 6:0.37953219 7:0.45431525 8:0.37481093 9:0.2098462 10:0.19599395 11:0.22719082 12:0.22135614 13:0.30878785 14:0.33105078 15:0.37449417 16:0.31834519 
480 1:0.40419519 2:0.31456703 3:0.15792526 4:0.30891401 5:0.14677148 6:0.28335464 7:0.14363313 8:0.29213214 9:0.037296597 10:0.085659571 11:0.049107179 12:0.11991483 13:0.081889458 14:0.19033791 15:0.094745852 16:0.18886855 
480 1:0.3197566 2:0.25460589 3:0.14377661 4:0.28482375 5:0.13191652 6:0.25899017 7:0.13324849 8:0.27037308 9:0.031858601 10:0.075572602 11:0.042466491 12:0.10867571 13:0.072894841 14:0.1748829 15:0.084124364 16:0.17307422 
-480 1:0.14475453 2:0.099408261 3:0.096605405 4:0.19554518 5:0.080326594 6:0.17548482 7:0.089300565 8:0.18507829 9:0.0180279 10:0.052574709 11:0.023043547 12:0.069678836 13:0.043607004 14:0.12294876 15:0.046396516 16:0.10958018 
480 1:0.060634118 2:0.041229144 3:0.071269073 4:0.14791636 5:0.059265535 6:0.13064137 7:0.063943945 8:0.14325996 9:0.014388429 10:0.052426219 11:0.015761549 12:0.062967896 13:0.032916173 14:0.099162973 15:0.034279563 16:0.095782645 
480 1:0.022169709 2:0.014931254 3:0.049777854 4:0.11005946 5:0.047710039 6:0.1128439 7:0.051019914 8:0.12426107 9:0.0082906913 10:0.041347414 11:0.01103866 12:0.055177543 13:0.023963321 14:0.086641848 15:0.025951011 16:0.084680781 
480 1:0.40406564 2:0.31459126 3:0.16195169 4:0.31101897 5:0.14664532 6:0.27645957 7:0.14297049 8:0.2858274 9:0.037741899 10:0.081069909 11:0.047115467 12:0.11348936 13:0.081971802 14:0.18355575 15:0.09075778 16:0.17970587 
480 1:0.32003418 2:0.25437728 3:0.15382302 4:0.2870039 5:0.13526112 6:0.25331995 7:0.13781923 8:0.26445532 9:0.03754779 10:0.072644845 11:0.04380111 12:0.10196801 13:0.077585854 14:0.16835795 15:0.083109833 16:0.16145456 
-480 1:0.14867279 2:0.10162003 3:0.13974771 4:0.21533079 5:0.1284571 6:0.18334368 7:0.12747183 8:0.19626257 9:0.057752237 10:0.074318595 11:0.056606077 12:0.08511512 13:0.086948887 14:0.14489581 15:0.095963359 16:0.12595966 
-480 1:0.058016244 2:0.036109909 3:0.15858415 4:0.18334615 5:0.18748832 6:0.19963881 7:0.17243731 8:0.2073347 9:0.087355234 10:0.093571611 11:0.099502906 12:0.11710826 13:0.11950616 14:0.15684329 15:0.16743742 16:0.16893287 
-480 1:0.034680504 2:0.018568456 3:0.1643324 4:0.16085359 5:0.21137521 6:0.19218354 7:0.19304197 8:0.18449248 9:0.11796101 10:0.11486287 11:0.1286743 12:0.13354842 13:0.15798649 14:0.17762348 15:0.20987576 16:0.188769 
480 1:0.40918651 2:0.31764925 3:0.21109246 4:0.34059772 5:0.19260202 6:0.29137558 7:0.18683055 8:0.29638422 9:0.074946575 10:0.097504668 11:0.07975661 12:0.12560003 13:0.12296785 14:0.2028085 15:0.13964126 16:0.19690466 
-480 1:0.32672909 2:0.2581811 3:0.21506436 4:0.3194674 5:0.20010287 6:0.27582341 7:0.19217144 8:0.28531498 9:0.094039857 10:0.10222074 11:0.092996262 12:0.12511277 13:0.13412715 14:0.20300946 15:0.1507671 16:0.18565847 
480 1:0.41132772 2:0.31934938 3:0.2265099 4:0.34498623 5:0.21122511 6:0.2991882 7:0.20409374 8:0.30281013 9:0.08828824 10:0.10472199 11:0.09270066 12:0.13233688 13:0.13812271 14:0.21123859 15:0.16041757 16:0.20630716 
-480 1:0.32870817 2:0.25988615 3:0.22690566 4:0.32423276 5:0.21839972 6:0.28101987 7:0.20735 8:0.28844029 9:0.10761482 10:0.10942709 11:0.10588369 12:0.13191919 13:0.14937745 14:0.2103156 15:0.16963328 16:0.1942655 
-480 1:0.16762842 2:0.11312971 3:0.24803825 4:0.28282064 5:0.28048372 6:0.26455611 7:0.24461257 8:0.26864782 9:0.16842593 10:0.15153982 11:0.16919291 12:0.16555038 13:0.21823597 14:0.23889303 15:0.27174169 16:0.23052113 
-480 1:0.12237736 2:0.079964735 3:0.30219364 4:0.31638169 5:0.38083449 6:0.31948575 7:0.31918836 8:0.31120321 9:0.18384172 10:0.14525458 11:0.20841929 12:0.18717912 13:0.28698006 14:0.29156697 15:0.3551313 16:0.28477609 
-211.32656138634724 1:0.101179 2:0.063766755 3:0.32710266 4:0.32483256 5:0.42736113 6:0.35917604 7:0.37657166 8:0.36091769 9:0.2155885 10:0.17631054 11:0.24745148 12:0.22179535 13:0.2997396 14:0.29429987 15:0.41196996 16:0.32028323 
-480 1:0.17611197 2:0.118554 3:0.28592142 4:0.30373913 5:0.33121201 6:0.28411806 7:0.2928521 8:0.29261464 9:0.18902378 10:0.15989161 11:0.19403017 12:0.17892417 13:0.25454569 14:0.25925556 15:0.31544811 16:0.25057885 
-480 1:0.089458443 2:0.053020041 3:0.40844199 4:0.3834039 5:0.52970505 6:0.42644128 7:0.49071014 8:0.43360648 9:0.28758839 10:0.23093337 11:0.31913894 12:0.28067696 13:0.40833524 14:0.38776919 15:0.53393131 16:0.40922844 
-480 1:0.13554572 2:0.088035926 3:0.36112884 4:0.35010627 5:0.44342571 6:0.35262817 7:0.37933281 8:0.34276387 9:0.20541021 10:0.15617844 11:0.23519899 12:0.20181076 13:0.33167917 14:0.32270318 15:0.40514427 16:0.31153843 
-480 1:0.12454435 2:0.077658072 3:0.4258306 4:0.39434659 5:0.52164406 6:0.41313848 7:0.47763214 8:0.42610744 9:0.25158906 10:0.19634596 11:0.29177791 12:0.25107247 13:0.36342102 14:0.3394663 15:0.4935177 16:0.3660416 
-480 1:0.11143369 2:0.066036262 3:0.49164099 4:0.45831317 5:0.61157656 6:0.48588422 7:0.57704884 8:0.50334984 9:0.31935924 10:0.24986069 11:0.35759661 12:0.30829459 13:0.46874046 14:0.43742144 15:0.60489839 16:0.45711556 
480 1:0.45195043 2:0.34283739 3:0.34563398 4:0.42156535 5:0.29906803 6:0.33487713 7:0.30154595 8:0.34280169 9:0.12746622 10:0.12436563 11:0.1333717 12:0.14748478 13:0.1942213 14:0.23835796 15:0.22236001 16:0.22387961 
-480 1:0.37676996 2:0.28597775 3:0.36185604 4:0.39999366 5:0.32995418 6:0.32249457 7:0.31964061 8:0.33277526 9:0.15625416 10:0.13396974 11:0.15755454 12:0.15724385 13:0.2231877 14:0.24467555 15:0.25161511 16:0.22007519 
480 1:0.23079154 2:0.15112223 3:0.44744664 4:0.40613565 5:0.47632766 6:0.36216703 7:0.44251207 8:0.37079304 9:0.25299034 10:0.20338544 11:0.26655 12:0.22935654 13:0.35481665 14:0.32203367 15:0.43586195 16:0.31898913 
480 1:0.19577888 2:0.1222505 3:0.53599602 4:0.48798922 5:0.5970915 6:0.44813681 7:0.54307008 8:0.4612017 9:0.25508901 10:0.18864679 11:0.29875949 12:0.24701884 13:0.43966627 14:0.39883545 15:0.52650052 16:0.38378543 
-205.4216753704174 1:0.17815088 2:0.10774051 3:0.57737237 4:0.52306998 5:0.66130722 6:0.50381207 7:0.62856191 8:0.53973973 9:0.29829538 10:0.22858186 11:0.35275394 12:0.29632911 13:0.45773107 14:0.40518454 15:0.60469413 16:0.43662 
-395.3329468446791 1:0.15417291 2:0.09180034 3:0.61816531 4:0.57369155 5:0.73906779 6:0.57532221 7:0.71235156 8:0.61214209 9:0.36836201 10:0.28836465 11:0.41417053 12:0.35779479 13:0.56178331 14:0.51435328 15:0.70829928 16:0.53031415 
480 1:0.15729693 2:0.124656 3:0.13940524 4:0.24820514 5:0.13624826 6:0.25544626 7:0.12797794 8:0.24539664 9:0.032704227 10:0.083113901 11:0.043288808 12:0.1125828 13:0.075309947 14:0.18134232 15:0.083595023 16:0.17220776 
480 1:0.13109104 2:0.1011369 3:0.13287516 4:0.23856163 5:0.1201603 6:0.22787713 7:0.12259027 8:0.23861898 9:0.026948227 10:0.071551487 11:0.037576441 12:0.10255993 13:0.068164714 14:0.16619295 15:0.07959222 16:0.16669694 
-480 1:0.061482206 2:0.040213138 3:0.10523505 4:0.1959386 5:0.081151143 6:0.15951285 7:0.091120921 8:0.18150951 9:0.015462562 10:0.049426708 11:0.021255536 12:0.067966215 13:0.040939782 14:0.10809048 15:0.045380086 16:0.10778799 
-480 1:0.022053402 2:0.013862094 3:0.10478828 4:0.19351712 5:0.070962615 6:0.1379284 7:0.076217137 8:0.1521607 9:0.013177977 10:0.045856688 11:0.016695712 12:0.058595512 13:0.034291726 14:0.09194538 15:0.037127472 16:0.090086371 
-480 1:0.0039045466 2:0.0018262613 3:0.085367262 4:0.15865578 5:0.06565775 6:0.13000824 7:0.071426935 8:0.13956323 9:0.0097792055 10:0.039351154 11:0.015325539 12:0.053745024 13:0.026550742 14:0.080461919 15:0.032564841 16:0.082099333 
480 1:0.15952006 2:0.12531523 3:0.18547058 4:0.27054644 5:0.12962432 6:0.2312685 7:0.13629062 8:0.22870633 9:0.03542478 10:0.077596635 11:0.041309908 12:0.10103338 13:0.068078756 14:0.16271114 15:0.076784 16:0.15385354 
480 1:0.13432811 2:0.10200967 3:0.19748288 4:0.2685928 5:0.12604252 6:0.20696032 7:0.13656561 8:0.22183633 9:0.038398307 10:0.06753578 11:0.042789515 12:0.089867517 13:0.066157512 14:0.14711401 15:0.077787578 16:0.14705011 
-480 1:0.071728259 2:0.043211013 3:0.21079825 4:0.25180927 5:0.16230765 6:0.18115185 7:0.15724024 8:0.19356413 9:0.064672671 10:0.064857937 11:0.068326384 12:0.075984776 13:0.090736136 14:0.11897022 15:0.10857944 16:0.11092892 
-480 1:0.051182166 2:0.025029033 3:0.26046365 4:0.29186386 5:0.22406784 6:0.21846871 7:0.19638596 8:0.20490366 9:0.082220823 10:0.076992288 11:0.091451935 12:0.090567924 13:0.13066295 14:0.14683965 15:0.15756884 16:0.13609597 
-480 1:0.044746723 2:0.018177355 3:0.27924338 4:0.28952134 5:0.27213079 6:0.25502229 7:0.25464272 8:0.24950992 9:0.10480426 10:0.093183517 11:0.11997359 12:0.11346051 13:0.1545659 14:0.16149519 15:0.20575465 16:0.16963051 
-480 1:0.037529916 2:0.011184723 3:0.25270763 4:0.21458374 5:0.27431989 6:0.21148135 7:0.26521426 8:0.21601701 9:0.12006494 10:0.09785682 11:0.13629086 12:0.11489183 13:0.17958815 14:0.1655986 15:0.23207217 16:0.16816053 
480 1:0.16960029 2:0.12857072 3:0.29671827 4:0.34899315 5:0.18163922 6:0.23589298 7:0.20664556 8:0.25432029 9:0.068596661 10:0.083354943 11:0.075779773 12:0.10318042 13:0.099466302 14:0.16274939 15:0.12994321 16:0.15430677 
-480 1:0.14883912 2:0.10597804 3:0.32907727 4:0.37026805 5:0.20775111 6:0.22749785 7:0.22002642 8:0.25558931 9:0.091344222 10:0.084927164 11:0.096460842 12:0.10219416 13:0.11749704 14:0.1542525 15:0.14886704 16:0.15298207 
480 1:0.17692327 2:0.13044615 3:0.33811098 4:0.38021615 5:0.20793876 6:0.24020855 7:0.23431775 8:0.26336813 9:0.088381648 10:0.090545192 11:0.098929435 12:0.11050787 13:0.12122417 14:0.16681679 15:0.16560014 16:0.16242388 
-480 1:0.15543896 2:0.10786168 3:0.36065629 4:0.38302103 5:0.26105425 6:0.24010444 7:0.25618324 8:0.25763306 9:0.12451543 10:0.10158155 11:0.13199706 12:0.11930689 13:0.15521508 14:0.16882694 15:0.20112166 16:0.17193583 
-480 1:0.10318922 2:0.054115314 3:0.39010647 4:0.38409111 5:0.36438057 6:0.28196496 7:0.32067472 8:0.27531856 9:0.16616762 10:0.12470596 11:0.18363206 12:0.13934515 13:0.23154446 14:0.19775358 15:0.29242057 16:0.19041392 
-260.33075159478392 1:0.090392157 2:0.04106117 3:0.46434084 4:0.46233052 5:0.45951733 6:0.36115286 7:0.3943865 8:0.33004844 9:0.17882141 10:0.1368926 11:0.20608722 12:0.16287525 13:0.286717 14:0.25468916 15:0.35248056 16:0.24061604 
-480 1:0.089508355 2:0.037405066 3:0.52082008 4:0.4805398 5:0.55331415 6:0.43291527 7:0.51186335 8:0.42024875 9:0.21827303 10:0.17360713 11:0.25632337 12:0.21059524 13:0.33715862 14:0.2937417 15:0.43989614 16:0.31140119 
-480 1:0.12076885 2:0.062459607 3:0.50165123 4:0.44665003 5:0.49798474 6:0.35785985 7:0.44357297 8:0.33587524 9:0.2173363 10:0.15722582 11:0.24548496 12:0.17959982 13:0.31725201 14:0.25487533 15:0.39755437 16:0.24565683 
480 1:0.11132962 2:0.049991269 3:0.59653026 4:0.55070853 5:0.61459857 6:0.46215209 7:0.54487866 8:0.4156054 9:0.22801059 10:0.16945353 11:0.26863647 12:0.20574385 13:0.38094339 14:0.32650733 15:0.4654828 16:0.30750981 
-480 1:0.11474276 2:0.050216217 3:0.66957754 4:0.60229135 5:0.70168924 6:0.54073584 7:0.67046863 8:0.53326017 9:0.25958681 10:0.20478719 11:0.3092528 12:0.25261223 13:0.42496872 14:0.36557573 15:0.54091954 16:0.37766925 
-480 1:0.11651084 2:0.045240995 3:0.70756906 4:0.61371744 5:0.74912977 6:0.56882125 7:0.76210093 8:0.61526555 9:0.28202388 10:0.23168647 11:0.3393136 12:0.28553954 13:0.47879761 14:0.43163538 15:0.59677112 16:0.43008992 
-428.30085260840235 1:0.24891873 2:0.1592683 3:0.63974118 4:0.62251371 5:0.42143726 6:0.32950559 7:0.47980484 8:0.38873151 9:0.17091165 10:0.12936097 11:0.20070291 12:0.15835319 13:0.2513335 14:0.22445609 15:0.34139001 16:0.23463479 
480 1:0.22094023 2:0.13381301 3:0.66469109 4:0.62435585 5:0.47896692 6:0.36272439 7:0.48650938 8:0.39267394 9:0.20824458 10:0.15225366 11:0.22779801 12:0.17313321 13:0.28074396 14:0.2416521 15:0.3545979 16:0.2360142 
480 1:0.18032545 2:0.087585114 3:0.75501072 4:0.69085932 5:0.68953311 6:0.52239567 7:0.64749634 8:0.50349724 9:0.26502019 10:0.20579739 11:0.30721262 12:0.23675914 13:0.42052007 14:0.35750958 15:0.50995374 16:0.33271351 
480 1:0.17132212 2:0.078113273 3:0.89653295 4:0.84292972 5:0.82817429 6:0.66525608 7:0.78800464 8:0.64384848 9:0.27264097 10:0.22211395 11:0.32899073 12:0.27120677 13:0.48997459 14:0.45253247 15:0.58506244 16:0.41392046 
-355.45994874134942 1:0.16702381 2:0.076668777 3:0.93766737 4:0.88043761 5:0.88040417 6:0.72619849 7:0.89457804 8:0.76084358 9:0.30130553 10:0.27123865 11:0.36469451 12:0.32566383 13:0.50979942 14:0.46824786 15:0.63966388 16:0.48895639 
253.4070417532661 1:0.15749151 2:0.068012565 3:0.92599523 4:0.84957862 5:0.89119142 6:0.72882396 7:0.95286745 8:0.82317489 9:0.32899445 10:0.31770104 11:0.38595453 12:0.35897034 13:0.55313545 14:0.54801506 15:0.68066907 16:0.53704953 
480 1:0.47333261 2:0.4029108 3:0.13675061 4:0.22945306 5:0.10442238 6:0.19801401 7:0.11245945 8:0.19907124 9:0.025936089 10:0.081757724 11:0.030999891 12:0.098377995 13:0.049920794 14:0.13883175 15:0.05572753 16:0.13672686 
-480 1:0.38212284 2:0.31685141 3:0.12831327 4:0.21503752 5:0.096607149 6:0.18614419 7:0.10170469 8:0.18272115 9:0.022967493 10:0.076193735 11:0.027302062 12:0.091272272 13:0.045378122 14:0.13012712 15:0.049529176 16:0.12710106 
-480 1:0.15465347 2:0.12361567 3:0.095107011 4:0.16076298 5:0.070286341 6:0.13957705 7:0.075094372 8:0.13540675 9:0.014152001 10:0.05660532 11:0.015438422 12:0.066082083 13:0.030237289 14:0.094931968 15:0.02658573 16:0.089474335 
-480 1:0.0241856 2:0.020114403 3:0.062581047 4:0.099553727 5:0.044085681 6:0.093853459 7:0.046290822 8:0.086139232 9:0.0044149174 10:0.037825216 11:0.0065747974 12:0.044264108 13:0.013622352 14:0.062902212 15:0.014233495 16:0.061952438 
480 1:0.47336754 2:0.40290082 3:0.15177606 4:0.24193081 5:0.11882589 6:0.20196271 7:0.11635399 8:0.19783771 9:0.026028231 10:0.07524284 11:0.029961923 12:0.088813514 13:0.05532515 14:0.13522269 15:0.05472308 16:0.12423525 
480 1:0.38239446 2:0.31675905 3:0.14543499 4:0.22840686 5:0.11573334 6:0.19006281 7:0.11276226 8:0.18608843 9:0.026728977 10:0.069716744 11:0.03012713 12:0.081419952 13:0.055494223 14:0.12561457 15:0.055233832 16:0.11621074 
-480 1:0.15718377 2:0.12474221 3:0.14675987 4:0.20022629 5:0.14401016 6:0.17724657 7:0.13580739 8:0.16994201 9:0.033635907 10:0.054826122 11:0.037059486 12:0.062497269 13:0.07979627 14:0.11683346 15:0.068478905 16:0.089757189 
-480 1:0.081136756 2:0.061387111 3:0.16714132 4:0.20411301 5:0.16954699 6:0.19005315 7:0.15202619 8:0.16792598 9:0.045676295 10:0.060659822 11:0.054986596 12:0.072327286 13:0.10038436 14:0.13319558 15:0.10596769 16:0.10997209 
-480 1:0.048939966 2:0.033793077 3:0.17252888 4:0.18622641 5:0.18821162 6:0.19801055 7:0.1774126 8:0.18140218 9:0.063817419 10:0.072387144 11:0.079513967 12:0.096058093 13:0.11034371 14:0.13416412 15:0.13994621 16:0.14007173 
-480 1:0.019989301 2:0.0089246146 3:0.15054604 4:0.14131984 5:0.18667664 6:0.17401312 7:0.17649849 8:0.16448335 9:0.086945012 10:0.093417771 11:0.097760327 12:0.10804637 13:0.1268978 14:0.14686865 15:0.16420315 16:0.15195122 
480 1:0.4753924 2:0.40372416 3:0.19978026 4:0.28146234 5:0.17091881 6:0.22965744 7:0.15012866 8:0.2150237 9:0.042536981 10:0.073409468 11:0.046530683 12:0.087709941 13:0.085643701 14:0.1468877 15:0.084880263 16:0.12598318 
-480 1:0.38441178 2:0.31779754 3:0.19719514 4:0.27005246 5:0.17944112 6:0.22660129 7:0.16218756 8:0.21404508 9:0.052886408 10:0.074327074 11:0.057836231 12:0.08585903 13:0.096290953 14:0.14408951 15:0.10163245 16:0.12702146 
480 1:0.47628453 2:0.40406257 3:0.22103791 4:0.29632264 5:0.19277088 6:0.24451508 7:0.16434985 8:0.22474311 9:0.051452056 10:0.07653372 11:0.057590682 12:0.090592571 13:0.099226728 14:0.15597518 15:0.10240154 16:0.13227281 
-480 1:0.38553941 2:0.31803519 3:0.21228719 4:0.28488404 5:0.20167126 6:0.23677082 7:0.17772256 8:0.22828898 9:0.061434027 10:0.077432878 11:0.068677537 12:0.090314485 13:0.11030827 14:0.15272069 15:0.11937783 16:0.13378215 
-480 1:0.16518061 2:0.12920821 3:0.24121931 4:0.27906364 5:0.27119082 6:0.26173148 7:0.24544452 8:0.2522662 9:0.083418272 10:0.07732749 11:0.095708787 12:0.091199368 13:0.16828132 14:0.17738794 15:0.170561 16:0.13703243 
-480 1:0.10222035 2:0.073555566 3:0.30154964 4:0.32141694 5:0.34171301 6:0.31701571 7:0.30590668 8:0.28830314 9:0.11150605 10:0.099205911 11:0.13589756 12:0.12495525 13:0.2197922 14:0.22737667 15:0.24983387 16:0.1956003 
480 1:0.077758715 2:0.050504077 3:0.33712471 4:0.33944517 5:0.39327008 6:0.3564294 7:0.3681649 8:0.34263989 9:0.14428155 10:0.12363845 11:0.18042545 12:0.16954039 13:0.24859984 14:0.2498271 15:0.31489941 16:0.25732198 
-480 1:0.17249352 2:0.13398743 3:0.30291858 4:0.33767018 5:0.35618883 6:0.3220315 7:0.32272381 8:0.31515205 9:0.11436681 10:0.095320113 11:0.13361885 12:0.11449788 13:0.22472437 14:0.22239086 15:0.23805001 16:0.17501822 
-480 1:0.057540901 2:0.03057662 3:0.3535201 4:0.33274111 5:0.43999067 6:0.38882652 7:0.41444162 8:0.37922052 9:0.19318655 10:0.17220092 11:0.22448157 12:0.2092344 13:0.30355179 14:0.31425655 15:0.38217175 16:0.30862477 
-480 1:0.11775003 2:0.082647391 3:0.39061448 4:0.39668301 5:0.44684845 6:0.40231717 7:0.40723163 8:0.37336618 9:0.14701138 10:0.11941639 11:0.18091686 12:0.15884416 13:0.28986648 14:0.28813398 15:0.33336258 16:0.25084841 
480 1:0.099163361 2:0.062946893 3:0.44626218 4:0.44980061 5:0.51263714 6:0.46180633 7:0.48665866 8:0.45816305 9:0.18569781 10:0.15229461 11:0.23240906 12:0.21388356 13:0.32575873 14:0.32195169 15:0.40859953 16:0.3261773 
480 1:0.078127518 2:0.043316185 3:0.46650755 4:0.45442435 5:0.5629791 6:0.50636852 7:0.53743154 8:0.50886065 9:0.2360689 10:0.20680928 11:0.27781752 12:0.2581057 13:0.38600379 14:0.4041912 15:0.47987571 16:0.39130509 
480 1:0.4978455 2:0.41770914 3:0.4268806 4:0.5120973 5:0.4238739 6:0.43133706 7:0.34123778 8:0.37475944 9:0.13087581 10:0.11269938 11:0.15404187 12:0.14202094 13:0.2417767 14:0.26674962 15:0.27416456 16:0.2233811 
480 1:0.41363579 2:0.33212316 3:0.40886486 4:0.48949918 5:0.44564512 6:0.43169728 7:0.382783 8:0.39982656 9:0.15301906 10:0.12563425 11:0.18286705 12:0.15782979 13:0.2690568 14:0.27222496 15:0.31568059 16:0.24154788 
480 1:0.21538477 2:0.15776475 3:0.52700073 4:0.56960487 5:0.61719185 6:0.55189246 7:0.5654664 8:0.54338026 9:0.206917 10:0.15984377 11:0.24826361 12:0.2034446 13:0.39644915 14:0.3872008 15:0.44324997 16:0.32014656 
-420.39126356921145 1:0.1679786 2:0.11207732 3:0.63945597 4:0.66566658 5:0.72229129 6:0.65724725 7:0.66820753 8:0.63130736 9:0.23741868 10:0.18402825 11:0.29498518 12:0.25509858 13:0.47208369 14:0.4671551 15:0.54283082 16:0.4131926 
-480 1:0.14721069 2:0.093479455 3:0.68555039 4:0.70469671 5:0.76641411 6:0.69623059 7:0.73329532 8:0.70868045 9:0.26560906 10:0.21404928 11:0.33553463 12:0.30805558 13:0.49287277 14:0.4959147 15:0.59938991 16:0.48761949 
480 1:0.11732508 2:0.066730797 3:0.65855324 4:0.66064525 5:0.78384119 6:0.71887273 7:0.75279605 8:0.73038554 9:0.30940926 10:0.27134895 11:0.36856627 12:0.34431115 13:0.53459716 14:0.56962681 15:0.64877856 16:0.53452271 
480 1:0.31746218 2:0.311257 3:0.19623229 4:0.33354077 5:0.16768828 6:0.29063359 7:0.15905239 8:0.26763934 9:0.10665958 10:0.16044454 11:0.14728051 12:0.21984422 13:0.096609078 14:0.19865714 15:0.17983456 16:0.23474921 
480 1:0.28223431 2:0.27183053 3:0.19603369 4:0.33444211 5:0.16538896 6:0.27600434 7:0.17307168 8:0.27233517 9:0.16077629 10:0.22510608 11:0.075901255 12:0.13735785 13:0.073940091 14:0.17651983 15:0.10111269 16:0.17215911 
181.16916621891093 1:0.17591649 2:0.1754968 3:0.19130392 4:0.2749722 5:0.15289731 6:0.24358968 7:0.16028117 8:0.24101458 9:0.17496818 10:0.22200106 11:0.17129332 12:0.23931056 13:0.10293921 14:0.18707024 15:0.11396981 16:0.16825531 
-480 1:0.078135349 2:0.079617076 3:0.13776425 4:0.18986617 5:0.13234957 6:0.19702457 7:0.13343295 8:0.18703802 9:0.10218172 10:0.20598133 11:0.026428454 12:0.078491472 13:0.06228815 14:0.13954635 15:0.10988082 16:0.19277823 
-480 1:0.31734172 2:0.31101564 3:0.19708706 4:0.33567211 5:0.16798519 6:0.29098925 7:0.15827259 8:0.26668522 9:0.12890144 10:0.17414539 11:0.17524169 12:0.238856 13:0.10452753 14:0.20243731 15:0.20805463 16:0.24753535 
-405.60232572335633 1:0.28229174 2:0.27160177 3:0.20166004 4:0.34016091 5:0.16858104 6:0.27709654 7:0.17757994 8:0.27444592 9:0.19096738 10:0.24555883 11:0.09262193 12:0.14797914 13:0.077093072 14:0.17772053 15:0.10948291 16:0.17297767 
-480 1:0.17614254 2:0.175248 3:0.2032384 4:0.28146273 5:0.1524474 6:0.2420669 7:0.17062718 8:0.24776193 9:0.23077908 10:0.25893936 11:0.22306761 12:0.27664348 13:0.12135385 14:0.19638675 15:0.14731841 16:0.18291874 
185.05230829706622 1:0.31696129 2:0.31078333 3:0.19905099 4:0.33842343 5:0.17086902 6:0.29305705 7:0.15995426 8:0.26767686 9:0.14405224 10:0.18358274 11:0.19482751 12:0.25417423 13:0.11168063 14:0.20659125 15:0.22774175 16:0.25760525 
-480 1:0.089031242 2:0.086413577 3:0.13743877 4:0.19054359 5:0.13133387 6:0.18982214 7:0.13512319 8:0.18776764 9:0.13778591 10:0.24195606 11:0.044549979 12:0.096210748 13:0.065225579 14:0.13617073 15:0.1311086 16:0.20922288 
-480 1:0.045422632 2:0.042434193 3:0.10389 4:0.13935824 5:0.11508875 6:0.1660258 7:0.12020399 8:0.17218789 9:0.058109272 10:0.1231574 11:0.11805832 12:0.23457836 13:0.047945336 14:0.11343677 15:0.19571738 16:0.28249463 
-480 1:0.28199822 2:0.27152577 3:0.21009345 4:0.3469924 5:0.1758685 6:0.28063372 7:0.18551412 8:0.27902696 9:0.2219515 10:0.26729384 11:0.10957356 12:0.15977518 13:0.083185524 14:0.18004911 15:0.12163337 16:0.17672473 
-480 1:0.010955817 2:0.0059244274 3:0.037546933 4:0.027723294 5:0.034803364 6:0.026624676 7:0.035682853 8:0.03162894 9:0.0050939624 10:0.01376872 11:0.002460778 12:0.014178541 13:0.019038022 14:0.026716618 15:0.016133387 16:0.025123268 
480 1:0.31654376 2:0.31057751 3:0.20470834 4:0.34506965 5:0.17707118 6:0.29826888 7:0.16543812 8:0.27156827 9:0.17193188 10:0.20097874 11:0.22803237 12:0.28088671 13:0.12380935 14:0.21432659 15:0.2632618 16:0.27572969 
-480 1:0.17715542 2:0.17542683 3:0.2239245 4:0.294462 5:0.15945266 6:0.24655104 7:0.18905304 8:0.26110688 9:0.29910752 10:0.30808654 11:0.28566954 12:0.32642776 13:0.14722754 14:0.21216053 15:0.19297424 16:0.20809181 
480 1:0.2822029 2:0.27118534 3:0.23013137 4:0.36236021 5:0.193626 6:0.29275408 7:0.20327944 8:0.2902275 9:0.2747145 10:0.30660152 11:0.13960981 12:0.18262134 13:0.096795358 14:0.1890834 15:0.14624618 16:0.18535982 
-480 1:0.10158301 2:0.094476625 3:0.14715603 4:0.20098718 5:0.14238989 6:0.19210833 7:0.14710049 8:0.19861275 9:0.18419212 10:0.28893718 11:0.069092952 12:0.12229121 13:0.077574469 14:0.14110129 15:0.16458866 16:0.23472226 
-480 1:0.063066036 2:0.053979155 3:0.12298949 4:0.15565158 5:0.11893448 6:0.16615102 7:0.14974515 8:0.19844377 9:0.076861151 10:0.14392841 11:0.16111787 12:0.28125384 13:0.051415447 14:0.11163355 15:0.2564674 16:0.33060026 
-480 1:0.040448539 2:0.025643356 3:0.12898183 4:0.10500462 5:0.13718984 6:0.11291561 7:0.1292012 8:0.12163163 9:0.048491213 10:0.059734151 11:0.038447451 12:0.056404378 13:0.084787689 14:0.096122958 15:0.087236091 16:0.092121877 
-60.072461803014541 1:0.18344091 2:0.17841762 3:0.27751747 4:0.33482784 5:0.18482909 6:0.26509163 7:0.23562805 8:0.29613757 9:0.42879915 10:0.3950077 11:0.40609959 12:0.4191542 13:0.20218202 14:0.24518505 15:0.28603959 16:0.26649976 
480 1:0.12934668 2:0.1104801 3:0.18358982 4:0.23712181 5:0.18129781 6:0.2152096 7:0.18545927 8:0.23481663 9:0.26940218 10:0.39220998 11:0.11985517 12:0.1742699 13:0.11227629 14:0.16331847 15:0.23921435 16:0.2950637 
386.16881472859671 1:0.09901239 2:0.075885169 3:0.18087706 4:0.20640552 5:0.14567418 6:0.18867868 7:0.22548389 8:0.26677161 9:0.11720056 10:0.19667523 11:0.24709557 12:0.37739968 13:0.072607316 14:0.12602538 15:0.37873769 16:0.42841709 
480 1:0.091197886 2:0.055974349 3:0.27241626 4:0.22063865 5:0.30005062 6:0.24941798 7:0.27225894 8:0.25573024 9:0.11130259 10:0.12231894 11:0.097453564 12:0.12185223 13:0.19033948 14:0.20980637 15:0.20288053 16:0.1943326 
-34.304042795564953 1:0.40205976 2:0.34541452 3:0.48583448 4:0.68627137 5:0.44783583 6:0.52505058 7:0.41891161 8:0.5327816 9:0.58747709 10:0.55260837 11:0.6820479 12:0.66314399 13:0.38011861 14:0.41237149 15:0.7547037 16:0.59212899 
-215.00720896977137 1:0.38006791 2:0.31420782 3:0.64659756 4:0.82822043 5:0.52303743 6:0.58041775 7:0.53678876 8:0.61276752 9:0.76680857 10:0.73625028 11:0.47888395 12:0.46840361 13:0.31553206 14:0.37128651 15:0.52681226 16:0.41547355 
57.947167918326997 1:0.30393758 2:0.23837289 3:0.73776358 4:0.81217748 5:0.42317382 6:0.49731898 7:0.58470416 8:0.65919429 9:1 10:1 11:1 12:1 13:0.51107019 14:0.50707865 15:0.80249316 16:0.68142408 
-30.751862348967439 1:0.27567753 2:0.2058399 3:0.45374885 4:0.597031 5:0.43971729 6:0.48112074 7:0.45116234 8:0.57714844 9:0.59725296 10:0.9368583 11:0.34414986 12:0.45348918 13:0.30600542 14:0.38179398 15:0.57765579 16:0.67194182 
23.629089751383454 1:0.2599228 2:0.18830217 3:0.5381279 4:0.64642262 5:0.36995497 6:0.47104043 7:0.63188595 8:0.75021529 9:0.29785833 10:0.47974762 11:0.58541602 12:0.90338975 13:0.23485191 14:0.33386153 15:0.87671053 16:1 
-257.54667124673966 1:0.24543567 2:0.1735324 3:0.80981398 4:0.77386504 5:0.86226791 6:0.85965031 7:0.76056337 8:0.77293849 9:0.34241444 10:0.47250649 11:0.29194006 12:0.40854686 13:0.54776978 14:0.76581705 15:0.56818223 16:0.64026821 
-480 1:0.87792277 2:0.87190175 3:0.083244599 4:0.1437505 5:0.094248295 6:0.20814545 7:0.088272795 8:0.1947192 9:0.047264773 10:0.10028231 11:0.04879855 12:0.12442464 13:0.071648017 14:0.19588077 15:0.086322799 16:0.19106038 
-480 1:0.77100068 2:0.77425146 3:0.082710385 4:0.14113493 5:0.088331304 6:0.19401278 7:0.086631246 8:0.18810526 9:0.044240039 10:0.094865821 11:0.045316119 12:0.11770485 13:0.06772545 14:0.18602821 15:0.081492014 16:0.18235026 
480 1:0.45033458 2:0.43101916 3:0.065799214 4:0.1066038 5:0.066436142 6:0.13641898 7:0.06889239 8:0.14150746 9:0.027604876 10:0.06192974 11:0.027870586 12:0.079544559 13:0.050599251 14:0.13933484 15:0.053730648 16:0.12876818 
-281.33724428665084 1:0.2133885 2:0.20180953 3:0.043153126 4:0.075135969 5:0.046717949 6:0.10238407 7:0.046785008 8:0.10303061 9:0.020931059 10:0.058053449 11:0.018143503 12:0.065029159 13:0.037262838 14:0.1074611 15:0.037317745 16:0.098289452 
480 1:0.09157823 2:0.089792922 3:0.022914724 4:0.048981406 5:0.030014999 6:0.080474876 7:0.02982497 8:0.084070913 9:0.013863823 10:0.047056586 11:0.011455704 12:0.052550428 13:0.025641978 14:0.090956055 15:0.025403455 16:0.082587637 
-480 1:0.87803805 2:0.8719849 3:0.085572623 4:0.14249586 5:0.091513321 6:0.20316225 7:0.087137528 8:0.19088051 9:0.045455031 10:0.098085359 11:0.046470374 12:0.12200159 13:0.06935741 14:0.19296105 15:0.082555428 16:0.18793908 
-480 1:0.77110583 2:0.77444625 3:0.086150192 4:0.13958429 5:0.08544267 6:0.18699966 7:0.085922442 8:0.18343662 9:0.04170702 10:0.091674492 11:0.042001821 12:0.11391743 13:0.064820215 14:0.18149905 15:0.07624349 16:0.17753543 
480 1:0.45060018 2:0.43124777 3:0.069792077 4:0.10355014 5:0.065167554 6:0.12823857 7:0.068805553 8:0.13453707 9:0.02433105 10:0.056253929 11:0.02318106 12:0.072771288 13:0.047399957 14:0.13133043 15:0.044601325 16:0.11775716 
-480 1:0.22118632 2:0.2069248 3:0.04637327 4:0.073382713 5:0.047749199 6:0.098321654 7:0.047822554 8:0.097925156 9:0.016450452 10:0.051909808 11:0.015206173 12:0.0597491 13:0.035724957 14:0.10040923 15:0.032977149 16:0.090863921 
480 1:0.10438105 2:0.098220639 3:0.028022118 4:0.04873202 5:0.035770562 6:0.081326842 7:0.035471544 8:0.084534608 9:0.012025885 10:0.043853436 11:0.014105057 12:0.053109042 13:0.023596056 14:0.081854746 15:0.029083146 16:0.083022371 
-480 1:0.0036275717 2:0.0014568862 4:0.0001599331 5:0.00078266923 6:0.0047584642 7:0.0020845521 8:0.0059368294 9:0.0072150305 10:0.017240226 11:0.0015644665 12:0.011996755 13:0.0068943808 14:0.018907877 15:0.0050332458 16:0.016121015 
480 1:0.87807029 2:0.87198365 3:0.08918684 4:0.14194213 5:0.089698769 6:0.19815101 7:0.086954169 8:0.18703696 9:0.043747284 10:0.096298687 11:0.044368517 12:0.11960146 13:0.067422733 14:0.18985559 15:0.079138912 16:0.1846581 
-480 1:0.77119571 2:0.7745775 3:0.088927068 4:0.13877608 5:0.08428137 6:0.18310201 7:0.085987709 8:0.18080686 9:0.040420666 10:0.090081699 11:0.040394906 12:0.11197762 13:0.063464813 14:0.17915112 15:0.073616698 16:0.17488687 
-480 1:0.4509396 2:0.43161818 3:0.07411851 4:0.10279586 5:0.066058964 6:0.12479944 7:0.070822649 8:0.1313978 9:0.023057155 10:0.054441426 11:0.021603785 12:0.069927007 13:0.046856359 14:0.12767111 15:0.041264828 16:0.11286784 
480 1:0.22871824 2:0.21188889 3:0.054334786 4:0.074845374 5:0.053159036 6:0.097604141 7:0.053557951 8:0.09739238 9:0.015346088 10:0.050361682 11:0.015735513 12:0.058659069 13:0.037366752 14:0.097439699 15:0.03399336 16:0.088425517 
480 1:0.11339702 2:0.1040465 3:0.036978845 4:0.052773684 5:0.043800104 6:0.084878169 7:0.044561502 8:0.088760547 9:0.01294789 10:0.044120245 11:0.017852839 12:0.055694725 13:0.026767869 14:0.080404811 15:0.035158534 16:0.08614105 
480 1:0.015142009 2:0.0088871541 3:0.019148529 4:0.018578852 5:0.022411948 6:0.024752539 7:0.02449066 8:0.02728956 9:0.019361548 10:0.028990656 11:0.013507471 12:0.023778275 13:0.025316203 14:0.039274774 15:0.025495732 16:0.034315325 
84.716439012766884 1:0.87884432 2:0.87255329 3:0.10132731 4:0.14282984 5:0.088104777 6:0.18895105 7:0.089736708 8:0.17968902 9:0.040677305 10:0.093248501 11:0.040312409 12:0.11513036 13:0.064421616 14:0.18416511 15:0.072819658 16:0.17816193 
480 1:0.77214676 2:0.77480578 3:0.10063051 4:0.1389903 5:0.083970949 6:0.17352544 7:0.089868501 8:0.17363591 9:0.037123322 10:0.086754508 11:0.036362521 12:0.10686354 13:0.060764495 14:0.17269211 15:0.067243464 16:0.1674512 
480 1:0.45420885 2:0.43312678 3:0.090823591 4:0.10406797 5:0.074626371 6:0.11926305 7:0.080710642 8:0.12653202 9:0.021837881 10:0.051935215 11:0.020823214 12:0.065564893 13:0.048693739 14:0.12083629 15:0.038274214 16:0.10344314 
480 1:0.24264476 2:0.22001478 3:0.071169004 4:0.08210627 5:0.067090645 6:0.10075753 7:0.068473987 8:0.10036883 9:0.016422488 10:0.049371656 11:0.019862561 12:0.058495641 13:0.044160884 14:0.096840873 15:0.040965009 16:0.087419316 
480 1:0.1405828 2:0.11942727 3:0.070757605 4:0.074075028 5:0.079264455 6:0.10125329 7:0.081999324 8:0.10835373 9:0.021297846 10:0.047619075 11:0.033629134 12:0.063914731 13:0.046021435 14:0.08397381 15:0.062196601 16:0.098261558 
480 1:0.048822578 2:0.028476246 3:0.071222253 4:0.066419668 5:0.084638767 6:0.076039173 7:0.088319257 8:0.084605515 9:0.051663056 10:0.057087272 11:0.046411116 12:0.0543258 13:0.079988509 14:0.09232302 15:0.084468268 16:0.080957413 
480 1:0.8833521 2:0.87460458 3:0.15182731 4:0.16299458 5:0.10738952 6:0.17313935 7:0.11839775 8:0.17424504 9:0.035584133 10:0.085852116 11:0.036396045 12:0.10342535 13:0.065998517 14:0.16991268 15:0.068677783 16:0.16027589 
480 1:0.77886987 2:0.77731574 3:0.1508348 4:0.15844908 5:0.1057622 6:0.16011766 7:0.11839534 8:0.1686243 9:0.033660144 10:0.079585865 11:0.03362225 12:0.094458327 13:0.064489581 14:0.15783402 15:0.063562386 16:0.14935611 
480 1:0.46693495 2:0.43983528 3:0.14185241 4:0.12691027 5:0.11668912 6:0.12566832 7:0.12187043 8:0.13291378 9:0.032154776 10:0.054971412 11:0.033413146 12:0.064445131 13:0.067867562 14:0.11717799 15:0.055122837 16:0.093983263 
480 1:0.27830571 2:0.23967591 3:0.12758072 4:0.11603436 5:0.12685099 6:0.1312978 7:0.12710755 8:0.13060245 9:0.030581467 10:0.053286571 11:0.042389382 12:0.067374945 13:0.078869939 14:0.11097825 15:0.07945504 16:0.10061357 
480 1:0.1801683 2:0.14252236 3:0.12988381 4:0.11812956 5:0.14440081 6:0.14401017 7:0.15020312 8:0.15656883 9:0.041183259 10:0.061354797 11:0.064514339 12:0.087904416 13:0.085428029 14:0.10551787 15:0.1144622 16:0.13075946 
480 1:0.09544576 2:0.055294469 3:0.14435054 4:0.13387585 5:0.17301111 6:0.15606952 7:0.1789044 8:0.17174302 9:0.09481252 10:0.10098064 11:0.091694206 12:0.10109236 13:0.15553096 14:0.17057876 15:0.16638865 16:0.15340245 
480 1:0.29850879 2:0.5009287 3:0.19144867 4:0.2687476 5:0.17985563 6:0.28171647 7:0.18539202 8:0.28440583 9:0.055499889 10:0.10975208 11:0.067093648 12:0.13806207 13:0.10716134 14:0.21787089 15:0.12408666 16:0.21177481 
-480 1:0.25038907 2:0.41340035 3:0.1932645 4:0.26974761 5:0.17812794 6:0.27429307 7:0.18402094 8:0.2800678 9:0.052253753 10:0.10372931 11:0.063082621 12:0.13035138 13:0.10512412 14:0.21229862 15:0.11792554 16:0.20317413 
-480 1:0.11032926 2:0.17372233 3:0.17552021 4:0.22844332 5:0.15777276 6:0.22505809 7:0.14833017 8:0.21638471 9:0.039123904 10:0.076958247 11:0.043138035 12:0.091722034 13:0.084331609 14:0.16618834 15:0.080051303 16:0.14650553 
480 1:0.047309857 2:0.079270311 3:0.17037493 4:0.21044578 5:0.14124528 6:0.19215205 7:0.12677601 8:0.17360829 9:0.033573508 10:0.070157088 11:0.036914796 12:0.079060666 13:0.06558533 14:0.1296737 15:0.068669461 16:0.12262871 
480 1:0.014762145 2:0.031960964 3:0.13399023 4:0.15778607 5:0.12511766 6:0.16381153 7:0.11137518 8:0.13993427 9:0.026971964 10:0.058829769 11:0.031462472 12:0.064838693 13:0.046821956 14:0.1004073 15:0.052162614 16:0.08903452 
480 1:0.29780337 2:0.50060475 3:0.2037105 4:0.27362204 5:0.18091615 6:0.27817184 7:0.18842824 8:0.28293204 9:0.053702358 10:0.10751112 11:0.064744137 12:0.13509731 13:0.10576491 14:0.21521905 15:0.11938772 16:0.20723036 
-480 1:0.24936771 2:0.41270065 3:0.21045971 4:0.27632535 5:0.18334569 6:0.27106434 7:0.19148594 8:0.27969804 9:0.050947707 10:0.10078625 11:0.060765829 12:0.12579718 13:0.10520986 14:0.20904426 15:0.11181198 16:0.19609228 
-480 1:0.11099552 2:0.17446496 3:0.21250141 4:0.24548964 5:0.18335392 6:0.23077258 7:0.1673438 8:0.21732871 9:0.047634397 10:0.079498917 11:0.047669254 12:0.088905819 13:0.095814973 14:0.16651207 15:0.076012336 16:0.13301045 
480 1:0.057275459 2:0.089913167 3:0.22358246 4:0.24040775 5:0.18009947 6:0.20706643 7:0.15604751 8:0.17998768 9:0.045027874 10:0.074956149 11:0.047119927 12:0.080051631 13:0.080951959 14:0.13136217 15:0.072855294 16:0.11127032 
480 1:0.29709798 2:0.5003705 3:0.22916585 4:0.28618076 5:0.18868732 6:0.27663475 7:0.19739492 8:0.28418931 9:0.054110862 10:0.10572274 11:0.06434273 12:0.13158229 13:0.10745463 14:0.21245137 15:0.11685276 16:0.20140749 
480 1:0.03284584 2:0.051355191 3:0.21070188 4:0.20248568 5:0.19367036 6:0.19902396 7:0.17196113 8:0.16522893 9:0.047620676 10:0.070591643 11:0.059505794 12:0.080739439 13:0.069454521 14:0.10220263 15:0.083010405 16:0.093691953 
-480 1:0.010092065 2:0.015145357 3:0.094918951 4:0.081483781 5:0.089219943 6:0.07056874 7:0.093247347 8:0.076545089 9:0.034337282 10:0.039483216 11:0.037383653 12:0.041142471 13:0.051711395 14:0.052021086 15:0.060971595 16:0.051647082 
-480 1:0.29714742 2:0.50025982 3:0.23711428 4:0.29144314 5:0.19323283 6:0.27721703 7:0.20200713 8:0.28449303 9:0.054414649 10:0.10471976 11:0.065018557 12:0.13101409 13:0.1084532 14:0.21177843 15:0.11688385 16:0.19999523 
-480 1:0.24925019 2:0.41267228 3:0.2408499 4:0.28901225 5:0.19795649 6:0.27261198 7:0.20842728 8:0.28435898 9:0.053065833 10:0.099919453 11:0.062708758 12:0.12329104 13:0.11033451 14:0.20795271 15:0.11083212 16:0.18945614 
180.11845117609352 1:0.24963751 2:0.41317675 3:0.25245598 4:0.29817599 5:0.20700552 6:0.274257 7:0.21634284 8:0.28639528 9:0.053130612 10:0.098882273 11:0.063725226 12:0.12242116 13:0.11317451 14:0.20857494 15:0.11153533 16:0.18770188 
480 1:0.11650517 2:0.17893344 3:0.28428474 4:0.28494006 5:0.24091768 6:0.25539821 7:0.21592285 8:0.23551792 9:0.066022091 10:0.092167392 11:0.066019043 12:0.097423278 13:0.12563194 14:0.18095233 15:0.094905578 16:0.13064678 
480 1:0.072631665 2:0.10503198 3:0.32435054 4:0.30748966 5:0.25780645 6:0.25195077 7:0.22533673 8:0.21371827 9:0.06801974 10:0.093752518 11:0.073711261 12:0.097284876 13:0.11951581 14:0.1535818 15:0.10785139 16:0.11789644 
480 1:0.12001427 2:0.18118945 3:0.31751424 4:0.31057507 5:0.26360616 6:0.26969576 7:0.24011223 8:0.24923185 9:0.074585073 10:0.098694168 11:0.074400723 12:0.10220081 13:0.1367588 14:0.18882458 15:0.10487017 16:0.13275729 
480 1:0.057546582 2:0.075461209 3:0.3428022 4:0.30109254 5:0.3038336 6:0.27486083 7:0.28029749 8:0.23663875 9:0.085575782 10:0.099833518 11:0.1086925 12:0.12124682 13:0.12169913 14:0.13409466 15:0.15283804 16:0.13312152 
480 1:0.03948395 2:0.044351358 3:0.24370819 4:0.22405139 5:0.22271053 6:0.1930709 7:0.23553783 8:0.2081911 9:0.09696769 10:0.10471842 11:0.10201407 12:0.1115386 13:0.13858876 14:0.14529869 15:0.16701832 16:0.14756542 
480 1:0.087363504 2:0.11859173 3:0.41584754 4:0.382967 5:0.32295716 6:0.29642653 7:0.29154527 8:0.25906339 9:0.086538292 10:0.10530075 11:0.096798599 12:0.11232109 13:0.15314183 14:0.17721725 15:0.1420224 16:0.13379824 
480 1:0.067193128 2:0.083933391 3:0.38613147 4:0.33495972 5:0.34439823 6:0.30649871 7:0.32006228 8:0.26725444 9:0.095757015 10:0.10493448 11:0.12404331 12:0.13098007 13:0.14090984 14:0.14837946 15:0.17708175 16:0.14710408 
480 1:0.064149946 2:0.066771485 3:0.33998826 4:0.31111208 5:0.3220965 6:0.2832126 7:0.33849302 8:0.29983512 9:0.1437939 10:0.14682247 11:0.15058345 12:0.16090092 13:0.20914496 14:0.22742227 15:0.25379583 16:0.22999397 
480 1:0.33182094 2:0.5335114 3:0.63334429 4:0.61661834 5:0.41714787 6:0.39967713 7:0.43046185 8:0.42125693 9:0.088389777 10:0.1164842 11:0.11532736 12:0.14746848 13:0.19156288 14:0.25081113 15:0.19448489 16:0.21100464 
480 1:0.29351094 2:0.45135367 3:0.63912672 4:0.63211429 5:0.4680064 6:0.42903042 7:0.48952612 8:0.47060639 9:0.10139795 10:0.13071859 11:0.1326052 12:0.15888348 13:0.21918076 14:0.2687515 15:0.20557646 16:0.20971867 
480 1:0.1816133 2:0.24364786 3:0.74083006 4:0.68031061 5:0.60030597 6:0.53597724 7:0.56352359 8:0.49828169 9:0.1958165 10:0.23571494 11:0.20191748 12:0.22971044 13:0.31836778 14:0.35373977 15:0.27859646 16:0.2442127 
-210.93250135923742 1:0.1653024 2:0.20597722 3:0.92520124 4:0.84562898 5:0.72650278 6:0.65583277 7:0.68513691 8:0.60621667 9:0.24152192 10:0.29545766 11:0.25883105 12:0.29714409 13:0.37408191 14:0.41237766 15:0.37311026 16:0.31542468 
480 1:0.15436363 2:0.18219697 3:0.90731198 4:0.84761935 5:0.80027777 6:0.74218839 7:0.78241318 8:0.7116527 9:0.29657397 10:0.36241075 11:0.34924263 12:0.41800326 13:0.37749264 14:0.40662163 15:0.49471733 16:0.45703509 
39.730328911376255 1:0.14521635 2:0.1641494 3:0.78837532 4:0.83031356 5:0.72715509 6:0.75125909 7:0.7704187 8:0.79422456 9:0.3843289 10:0.50798547 11:0.36537832 12:0.48455256 13:0.49387693 14:0.65716726 15:0.59682345 16:0.65895647 
480 1:0.81166273 2:0.93710834 3:0.08891432 4:0.15614004 5:0.077152871 6:0.17192143 7:0.076792128 8:0.15957098 9:0.028103588 10:0.092703536 11:0.029949453 12:0.10266341 13:0.043130111 14:0.13416523 15:0.050527155 16:0.13942261 
480 1:0.71490598 2:0.78987747 3:0.089762069 4:0.15571631 5:0.073436342 6:0.16099618 7:0.074485414 8:0.1538149 9:0.025817065 10:0.087959409 11:0.027560106 12:0.097672082 13:0.040787265 14:0.12771831 15:0.047009669 16:0.13256285 
480 1:0.3787131 2:0.37924048 3:0.074172288 4:0.12009636 5:0.059854887 6:0.12119827 7:0.058813736 8:0.11443883 9:0.016723825 10:0.067396604 11:0.015582078 12:0.070550844 13:0.031552773 14:0.10005144 15:0.026796255 16:0.094815694 
480 1:0.17739058 2:0.17996919 3:0.059887107 4:0.085498519 5:0.04231564 6:0.085130207 7:0.040878315 8:0.076855883 9:0.0088042775 10:0.052842524 11:0.0065565365 12:0.050086923 13:0.021427423 14:0.076363109 15:0.016691852 16:0.068030894 
480 1:0.075673603 2:0.078449219 3:0.040814977 4:0.050050609 5:0.026163306 6:0.055596266 7:0.026454514 8:0.04786022 9:0.0023873751 10:0.039044436 11:0.001208124 12:0.035686821 13:0.0084886756 14:0.051636405 15:0.0060572177 16:0.046925947 
480 1:0.81183082 2:0.93704265 3:0.091707073 4:0.15780215 5:0.076610267 6:0.17040369 7:0.07732325 8:0.1590222 9:0.02690242 10:0.091536023 11:0.028463218 12:0.10095972 13:0.042298879 14:0.13265564 15:0.048212484 16:0.13689405 
480 1:0.71497679 2:0.7898373 3:0.09277457 4:0.15754507 5:0.073125705 6:0.15942776 7:0.075230516 8:0.15320739 9:0.024584156 10:0.086454011 11:0.025983356 12:0.095747203 13:0.040099353 14:0.12620156 15:0.044593386 16:0.12963676 
480 1:0.81186062 2:0.93702239 3:0.094544895 4:0.1594591 5:0.076634429 6:0.16929063 7:0.078339309 8:0.15869781 9:0.025954304 10:0.090366445 11:0.027443515 12:0.09944208 13:0.041877836 14:0.13144326 15:0.046647418 16:0.13453145 
-29.499543219731798 1:0.71510279 2:0.78996366 3:0.095837682 4:0.15974268 5:0.073418923 6:0.15831989 7:0.076322578 8:0.15301549 9:0.02356407 10:0.084931582 11:0.024987135 12:0.094078481 13:0.039952569 14:0.12496468 15:0.04311965 16:0.12719972 
-480 1:0.3788861 2:0.37941575 3:0.080287285 4:0.12235765 5:0.0633341 6:0.11950488 7:0.0629218 8:0.11382873 9:0.015447583 10:0.06346222 11:0.013002029 12:0.065664627 13:0.032898162 14:0.098119505 15:0.022557748 16:0.087102644 
480 1:0.18846382 2:0.18654582 3:0.066781171 4:0.087280609 5:0.048294954 6:0.08382377 7:0.045693249 8:0.075376824 9:0.0081825973 10:0.046680752 11:0.0056225928 12:0.044701792 13:0.024794105 14:0.074539967 15:0.016529506 16:0.061448112 
102.89313665610433 1:0.092007428 2:0.088471495 3:0.047843341 4:0.051755909 5:0.03459337 6:0.056378976 7:0.03305918 8:0.047996756 9:0.0033330857 10:0.033602644 11:0.0043856404 12:0.034018282 13:0.012277499 14:0.048928425 15:0.01101674 16:0.044854794 
-480 1:0.0112874 2:0.0053067985 3:0.00078190811 9:0.0045328354 10:0.018111246 12:0.0075863814 14:0.0079748342 16:0.0069904011 
480 1:0.81193852 2:0.9370631 3:0.10469805 4:0.16624948 5:0.079436727 6:0.167037 7:0.083272167 8:0.1590431 9:0.023959752 10:0.087027766 11:0.025665553 12:0.095836081 13:0.042318225 14:0.12891473 15:0.04455578 16:0.12945153 
480 1:0.71518403 2:0.79007155 3:0.10590297 4:0.16651618 5:0.077092201 6:0.15667464 7:0.081980921 8:0.15381137 9:0.021987714 10:0.081362829 11:0.023466686 12:0.090382345 13:0.041020777 14:0.12308416 15:0.041506819 16:0.12196925 
-480 1:0.38031086 2:0.37961054 3:0.089925788 4:0.12661183 5:0.071285747 6:0.12037402 7:0.071202964 8:0.11557224 9:0.016295634 10:0.061100461 11:0.012880597 12:0.06166831 13:0.037068125 14:0.097803719 15:0.023249127 16:0.080805823 
-480 1:0.20243157 2:0.19400679 3:0.080008939 4:0.093606986 5:0.063371293 6:0.088136099 7:0.058870945 8:0.079409666 9:0.012704703 10:0.043992929 11:0.011529651 12:0.042594422 13:0.034332372 14:0.076426424 15:0.026725695 16:0.05985127 
480 1:0.11145426 2:0.099013567 3:0.062522672 4:0.060267854 5:0.054940287 6:0.066149831 7:0.050173417 8:0.05675251 9:0.012543604 10:0.033605028 11:0.016549947 12:0.037816744 13:0.025257936 14:0.052903522 15:0.029479722 16:0.050602574 
-480 1:0.032573115 2:0.017093405 3:0.023967396 4:0.023027951 5:0.032290682 6:0.030680159 7:0.02785478 8:0.027414285 9:0.02870951 10:0.0378436 11:0.022047279 12:0.025298391 13:0.024211455 14:0.034401033 15:0.032437321 16:0.031872701 
480 1:0.38866347 2:0.38119486 3:0.11971874 4:0.14146075 5:0.10057747 6:0.12849846 7:0.099494584 8:0.12613879 9:0.02331459 10:0.058135919 11:0.021067858 12:0.057482753 13:0.054255571 14:0.10219374 15:0.039171476 16:0.074857123 
480 1:0.24095252 2:0.21110535 3:0.12015825 4:0.11484025 5:0.11198413 6:0.10854254 7:0.10233685 8:0.099072561 9:0.032394975 10:0.044800062 11:0.036034022 12:0.047580637 13:0.065701678 14:0.090072267 15:0.066483758 16:0.068617322 
480 1:0.16217522 2:0.12292869 3:0.10846512 4:0.090201892 5:0.11598017 6:0.099102594 7:0.10302779 8:0.087684236 9:0.043342911 10:0.040974624 11:0.054353703 12:0.055050589 13:0.066196181 14:0.074919961 15:0.086730771 16:0.074941173 
480 1:0.094077468 2:0.04723933 3:0.085493572 4:0.075292207 5:0.11590224 6:0.096432723 7:0.10124628 8:0.088731579 9:0.08705765 10:0.078428343 11:0.078401811 12:0.06783317 13:0.086189613 14:0.095413499 15:0.1168867 16:0.091257602 
480 1:0.85108858 2:0.94226211 3:0.24427852 4:0.2679587 5:0.17685786 6:0.19310376 7:0.18781722 8:0.20631295 9:0.038465727 10:0.075957604 11:0.046476718 12:0.083647899 13:0.091482542 14:0.13508072 15:0.09061975 16:0.11666375 
480 1:0.75773555 2:0.79838485 3:0.24850297 4:0.2704404 5:0.18500119 6:0.1902695 7:0.19457878 8:0.20438182 9:0.04173775 10:0.071324877 11:0.049271107 12:0.079236127 13:0.096530788 14:0.13348742 15:0.095481075 16:0.1117361 
480 1:0.43952692 2:0.39569655 3:0.22560321 4:0.21058273 5:0.21198867 6:0.17855927 7:0.20519263 8:0.18191868 9:0.058569308 10:0.063419975 11:0.065065585 12:0.067937851 13:0.12070157 14:0.1344514 15:0.1150159 16:0.092587687 
480 1:0.32095212 2:0.24655673 3:0.22053547 4:0.18632813 5:0.22822289 6:0.17668112 7:0.20754175 8:0.16285971 9:0.077404022 10:0.062109359 11:0.089841314 12:0.07653372 13:0.13767189 14:0.13550361 15:0.15520152 16:0.11060753 
480 1:0.25406772 2:0.16887979 3:0.21453105 4:0.17375062 5:0.24532327 6:0.18768136 7:0.22076435 8:0.17369409 9:0.099224329 10:0.071515381 11:0.12224592 12:0.10220531 13:0.1481972 14:0.13744053 15:0.19397575 16:0.14172716 
480 1:0.19865187 2:0.10168119 3:0.20588516 4:0.17885676 5:0.26490831 6:0.22304812 7:0.23975331 8:0.20579855 9:0.17145684 10:0.15364125 11:0.16397564 12:0.14602342 13:0.19259576 14:0.20595606 15:0.25044674 16:0.2001377 
480 1:0.53768796 2:0.52511364 3:0.13580894 4:0.22976208 5:0.13377027 6:0.25918108 7:0.12759334 8:0.25564879 9:0.049306419 10:0.10588904 11:0.057946537 12:0.13720255 13:0.081779949 14:0.20542911 15:0.10435463 16:0.21065065 
-480 1:0.4365378 2:0.42355022 3:0.13058487 4:0.22425033 5:0.12405217 6:0.24263807 7:0.12032401 8:0.2409322 9:0.045160115 10:0.098411955 11:0.052641697 12:0.12691967 13:0.077873923 14:0.19514933 15:0.09615913 16:0.19631732 
-480 1:0.18852556 2:0.19344413 3:0.091180079 4:0.1577159 5:0.081093445 6:0.16330807 7:0.084913157 8:0.17019968 9:0.027224809 10:0.062916614 11:0.030684657 12:0.081124641 13:0.050742459 14:0.13571894 15:0.057799418 16:0.1293705 
-480 1:0.079767443 2:0.08352074 3:0.063409828 4:0.11040639 5:0.052586872 6:0.1121582 7:0.056256603 8:0.11574851 9:0.022189362 10:0.061184946 11:0.019940285 12:0.065087311 13:0.034492452 14:0.099416427 15:0.035958562 16:0.092832915 
480 1:0.031572387 2:0.035074562 3:0.03804709 4:0.07065618 5:0.034694836 6:0.085421026 7:0.034316722 8:0.084149025 9:0.012557387 10:0.043793164 11:0.010924281 12:0.047061149 13:0.023231234 14:0.084256865 15:0.021699904 16:0.071515217 
-480 1:0.53801739 2:0.52521044 3:0.14338978 4:0.23080269 5:0.13240235 6:0.25368091 7:0.1256364 8:0.25022894 9:0.046624567 10:0.1026873 11:0.053807605 12:0.13334683 13:0.078369312 14:0.20074765 15:0.096634649 16:0.2048004 
-480 1:0.43700054 2:0.42370173 3:0.14147425 4:0.22623533 5:0.12267397 6:0.23531577 7:0.11930183 8:0.23449287 9:0.041837256 10:0.094141401 11:0.047442228 12:0.12171429 13:0.073479295 14:0.18822142 15:0.086456574 16:0.18796167 
-480 1:0.19075641 2:0.19483806 3:0.10212624 4:0.15390278 5:0.081484064 6:0.15154202 7:0.085769363 8:0.15833539 9:0.022735132 10:0.056465112 11:0.023845943 12:0.071602099 13:0.047463994 14:0.12391754 15:0.04444645 16:0.11386413 
-480 1:0.093825392 2:0.093212597 3:0.080552913 4:0.10995838 5:0.062082939 6:0.10491897 7:0.06358736 8:0.10693972 9:0.017153457 10:0.052979033 11:0.016240668 12:0.056424294 13:0.036949813 14:0.088640906 15:0.032886036 16:0.080505379 
480 1:0.050646096 2:0.048408635 3:0.060177017 4:0.075740978 5:0.051607031 6:0.086897075 7:0.052233916 8:0.087845966 9:0.011910792 10:0.039171822 11:0.015308086 12:0.045321118 13:0.027163213 14:0.073882788 15:0.031631541 16:0.070515797 
-480 1:0.010965576 2:0.0073925527 3:0.034639388 4:0.029606542 5:0.027528616 6:0.023434257 7:0.0336417 8:0.028750876 9:0.013209271 10:0.020763662 11:0.009720956 12:0.01312245 13:0.019073518 14:0.023268562 15:0.020467196 16:0.019676965 
-480 1:0.53894925 2:0.52560943 3:0.15262012 4:0.23163109 5:0.13323584 6:0.24944009 7:0.12677595 8:0.24645202 9:0.045059938 10:0.10091379 11:0.051083479 12:0.13024956 13:0.076877423 14:0.19683361 15:0.09136498 16:0.1997885 
-480 1:0.43876612 2:0.42488658 3:0.15373306 4:0.22699249 5:0.12434975 6:0.22913225 7:0.12285388 8:0.22983274 9:0.040086184 10:0.091706619 11:0.044327937 12:0.11786481 13:0.072360106 14:0.18331203 15:0.081241861 16:0.18186603 
167.19596304733196 1:0.5405919 2:0.52598375 3:0.16368791 4:0.23341294 5:0.1348493 6:0.24589154 7:0.13069656 8:0.24433357 9:0.043731499 10:0.099321477 11:0.049077958 12:0.12792276 13:0.076530546 14:0.19433779 15:0.088125795 16:0.19599295 
480 1:0.19692376 2:0.19826387 3:0.1230678 4:0.15480372 5:0.092295088 6:0.14687113 7:0.096672319 8:0.15251002 9:0.022536872 10:0.055029459 11:0.023000561 12:0.067438982 13:0.051195148 14:0.11830029 15:0.04300192 16:0.10486915 
-480 1:0.10583929 2:0.10024619 3:0.10298187 4:0.11801618 5:0.07815209 6:0.10805309 7:0.080429785 8:0.10913599 9:0.018283669 10:0.051868316 11:0.019567575 12:0.055199556 13:0.045692861 14:0.087572031 15:0.041020375 16:0.079460546 
-480 1:0.44135627 2:0.42551926 3:0.16601293 4:0.22910585 5:0.12859084 6:0.22646624 7:0.12754293 8:0.22787711 9:0.039189588 10:0.090225801 11:0.043027475 12:0.11548873 13:0.072903164 14:0.18028344 15:0.078609787 16:0.17786536 
480 1:0.072143331 2:0.060806915 3:0.10136804 4:0.096833564 5:0.086418979 6:0.10031619 7:0.090220414 8:0.10614497 9:0.018748239 10:0.040953483 11:0.027273018 12:0.049520217 13:0.045969591 14:0.076574162 15:0.055777449 16:0.077651441 
-480 1:0.036409527 2:0.021924242 3:0.097081088 4:0.079668052 5:0.087663755 6:0.066294707 7:0.098582096 8:0.079013117 9:0.036030166 10:0.037391968 11:0.036163423 12:0.032634433 13:0.064674094 14:0.059271596 15:0.069490634 16:0.051084489 
480 1:0.20512 2:0.20114519 3:0.14417429 4:0.15860829 5:0.10538002 6:0.14735945 7:0.11093624 8:0.15192428 9:0.023741372 10:0.055216413 11:0.024679383 12:0.065014571 13:0.056564465 14:0.11558423 15:0.046233449 16:0.099932246 
480 1:0.12064729 2:0.1078365 3:0.13128769 4:0.1307617 5:0.10012942 6:0.11391336 7:0.1044479 8:0.11618245 9:0.020906221 10:0.051847138 11:0.024766775 12:0.05510091 13:0.05777128 14:0.0894209 15:0.052414756 16:0.080057248 
480 1:0.094998658 2:0.072957955 3:0.15121923 4:0.12799993 5:0.12737723 6:0.11809163 7:0.13763726 8:0.13243262 9:0.027024295 10:0.044388745 11:0.042221889 12:0.05675827 13:0.069961213 14:0.083806366 15:0.084953949 16:0.090927914 
480 1:0.062373873 2:0.035817947 3:0.16157183 4:0.12731089 5:0.14783673 6:0.10626159 7:0.16566284 8:0.12789749 9:0.057285354 10:0.052879982 11:0.062013086 12:0.052208908 13:0.10957628 14:0.094502822 15:0.11845641 16:0.083830073 
480 1:0.58476341 2:0.54035372 3:0.30589521 4:0.29114529 5:0.20720862 6:0.2446187 7:0.21240436 8:0.24855147 9:0.045732249 10:0.092199072 11:0.051902752 12:0.11444601 13:0.097441681 14:0.17930092 15:0.09491913 16:0.17366736 
480 1:0.48389733 2:0.44015011 3:0.30861405 4:0.28694668 5:0.2045311 6:0.2317901 7:0.21489197 8:0.24162933 9:0.043406401 10:0.085918784 11:0.048936751 12:0.10306896 13:0.098463222 14:0.16823268 15:0.090837777 16:0.15591465 
480 1:0.26639435 2:0.22756232 3:0.30611867 4:0.23328245 5:0.2089082 6:0.17180456 7:0.23166712 8:0.18849228 9:0.043732736 10:0.064844862 11:0.052728813 12:0.068508558 13:0.1077834 14:0.12163248 15:0.097906642 16:0.097735159 
480 1:0.20232847 2:0.14856973 3:0.32554904 4:0.24936663 5:0.23830324 6:0.17953068 7:0.26863953 8:0.19989172 9:0.044222321 10:0.057948012 11:0.066063963 12:0.069449596 13:0.14058357 14:0.12631619 15:0.13751261 16:0.1089037 
480 1:0.17110477 2:0.11574215 3:0.33756128 4:0.26436976 5:0.26512682 6:0.19996241 7:0.30437738 8:0.24047214 9:0.057260808 10:0.063584395 11:0.089808024 12:0.088235043 13:0.14836189 14:0.12620299 15:0.17770484 16:0.14051342 
480 1:0.1446256 2:0.083323963 3:0.37217703 4:0.2980547 5:0.31544483 6:0.23106577 7:0.36504072 8:0.29190487 9:0.11413508 10:0.10868483 11:0.12759466 12:0.11439332 13:0.22896689 14:0.2047333 15:0.24490713 16:0.18158074 
-480 1:0.45738816 2:0.49345315 3:0.3849003 4:0.49978295 5:0.2947987 6:0.38250089 7:0.24618596 8:0.34909189 9:0.068878435 10:0.11645926 11:0.076485701 12:0.14372702 13:0.11936584 14:0.21540855 15:0.11648114 16:0.19529428 
-480 1:0.38081726 2:0.40919492 3:0.34334436 4:0.4683919 5:0.26086178 6:0.35209417 7:0.2288692 8:0.32846552 9:0.060260575 10:0.10708462 11:0.067385189 12:0.13136439 13:0.10788351 14:0.20277745 15:0.1039525 16:0.18173584 
-480 1:0.1692625 2:0.17576899 3:0.20435952 4:0.28230613 5:0.16344039 6:0.23586001 7:0.14548446 8:0.22264506 9:0.043430351 10:0.08239641 11:0.037295129 12:0.085940853 13:0.076644383 14:0.15648641 15:0.061366536 16:0.12551022 
-480 1:0.073576935 2:0.077269346 3:0.13290021 4:0.19415544 5:0.11086434 6:0.17150258 7:0.10999538 8:0.17919873 9:0.032169294 10:0.069005728 11:0.024466945 12:0.065161094 13:0.054973893 14:0.12327339 15:0.045632012 16:0.096886806 
-480 1:0.027714521 2:0.032517616 3:0.095172182 4:0.13967435 5:0.068997979 6:0.12138808 7:0.08990901 8:0.14857076 9:0.020178264 10:0.054157659 11:0.016949568 12:0.053726196 13:0.030140288 14:0.082909539 15:0.030602397 16:0.076536946 
-480 1:0.45748857 2:0.49348006 3:0.40583175 4:0.51391602 5:0.30686492 6:0.38733286 7:0.26000032 8:0.35569483 9:0.070528388 10:0.11724031 11:0.077205986 12:0.14328736 13:0.12350979 14:0.21675092 15:0.11634301 16:0.19301827 
-480 1:0.38102362 2:0.40920469 3:0.36297643 4:0.48058224 5:0.27331692 6:0.35738319 7:0.24363121 8:0.3358382 9:0.062407643 10:0.10769503 11:0.067631133 12:0.1304163 13:0.11234631 14:0.20442463 15:0.10174146 16:0.17762451 
-480 1:0.17020451 2:0.17637694 3:0.23297925 4:0.29555741 5:0.1824989 6:0.24537405 7:0.17355582 8:0.23804837 9:0.049041692 10:0.08482556 11:0.036945961 12:0.082676508 13:0.084378377 14:0.16019289 15:0.057166152 16:0.11561243 
-480 1:0.45768377 2:0.49369422 3:0.42517817 4:0.52905613 5:0.31828123 6:0.39212671 7:0.27309197 8:0.36160389 9:0.072112076 10:0.11801083 11:0.078530319 12:0.14336267 13:0.12797809 14:0.21785444 15:0.11739572 16:0.19188552 
-480 1:0.38121268 2:0.40930972 3:0.38189444 4:0.49237037 5:0.28570032 6:0.36388713 7:0.25781709 8:0.34151807 9:0.064464286 10:0.10859241 11:0.068460293 12:0.13051049 13:0.1173982 14:0.20692198 15:0.10196229 16:0.17537203 
-480 1:0.079470992 2:0.081461936 3:0.16317886 4:0.20866519 5:0.1287913 6:0.17915754 7:0.13913213 8:0.19395766 9:0.040911958 10:0.073182605 11:0.027869299 12:0.064511523 13:0.062418167 14:0.12510446 15:0.053770538 16:0.097733274 
-480 1:0.037964486 2:0.039959464 3:0.134059 4:0.15998517 5:0.092495918 6:0.13317209 7:0.13344005 8:0.17750637 9:0.030885488 10:0.059886072 11:0.023177549 12:0.053569835 13:0.041187726 14:0.086181752 15:0.044876784 16:0.080189146 
-480 3:0.032456685 4:0.026310556 5:0.017335242 6:0.013048859 7:0.040288426 8:0.044270385 9:0.0081491256 10:0.021558367 11:0.0008303161 12:0.006850963 13:0.0068781651 14:0.011409401 15:0.010158552 16:0.014965761 
-480 1:0.17170215 2:0.17715931 3:0.26544374 4:0.31194994 5:0.20284368 6:0.2570211 7:0.20027481 8:0.25264034 9:0.053244386 10:0.086884581 11:0.038887829 12:0.081829183 13:0.094202675 14:0.16617329 15:0.060352758 16:0.11309654 
-480 1:0.083088972 2:0.083975911 3:0.18702127 4:0.22199062 5:0.14486565 6:0.18920204 7:0.15996294 8:0.20786007 9:0.045749139 10:0.076232374 11:0.031715024 12:0.065890312 13:0.070204675 14:0.12962107 15:0.061571714 16:0.10090918 
-480 1:0.45831195 2:0.49387643 3:0.46868047 4:0.56211543 5:0.33932701 6:0.40261352 7:0.30250856 8:0.37775648 9:0.075633496 10:0.1200917 11:0.08122535 12:0.1437747 13:0.13561656 14:0.22186178 15:0.12110367 16:0.19093663 
-480 1:0.38210523 2:0.4095071 3:0.42651752 4:0.52022761 5:0.30984476 6:0.37690932 7:0.28666776 8:0.35512125 9:0.067712367 10:0.11004165 11:0.070495978 12:0.12993774 13:0.12696245 14:0.21256512 15:0.10552543 16:0.17329104 
-480 1:0.044083394 2:0.044104759 3:0.16243745 4:0.17876181 5:0.11357772 6:0.14784057 7:0.16055314 8:0.19819915 9:0.03761372 10:0.065305062 11:0.03046241 12:0.0583249 13:0.05269314 14:0.094084769 15:0.058152396 16:0.087779604 
-480 1:0.0072544222 2:0.00510342 3:0.065732799 4:0.057535134 5:0.047073409 6:0.042130817 7:0.076417871 8:0.081980981 9:0.024641799 10:0.039544385 11:0.015436595 12:0.022397196 13:0.025976788 14:0.033103533 15:0.034968685 16:0.037578691 
-480 1:0.17612121 2:0.17950076 3:0.31471738 4:0.34620559 5:0.23712838 6:0.27686596 7:0.24154173 8:0.28067139 9:0.059605271 10:0.091067776 11:0.04391228 12:0.082209915 13:0.11242685 14:0.17899314 15:0.072093993 16:0.11373936 
-480 1:0.09729889 2:0.092919841 3:0.25187042 4:0.26751074 5:0.19532135 6:0.22494338 7:0.21350059 8:0.24649574 9:0.057175428 10:0.083228506 11:0.04419161 12:0.071734257 13:0.09787076 14:0.15134653 15:0.085147209 16:0.11207554 
-480 1:0.065296605 2:0.057530407 3:0.24246195 4:0.23893702 5:0.17890584 6:0.19865042 7:0.23663275 8:0.25737181 9:0.058431949 10:0.082529277 11:0.055460226 12:0.076510817 13:0.090548038 14:0.12512147 15:0.102427 16:0.11650657 
480 1:0.031789258 2:0.020647591 3:0.15508738 4:0.1416963 5:0.12708554 6:0.11901484 7:0.17036204 8:0.17550123 9:0.064483166 10:0.080451734 11:0.054918543 12:0.065291777 13:0.079321861 14:0.092985444 15:0.10057274 16:0.097241797 
-18.986803276895088 1:0.47671965 2:0.50279218 3:0.7264269 4:0.75751656 5:0.48808166 6:0.49175891 7:0.46893066 8:0.47826284 9:0.097950429 10:0.12851213 11:0.10328067 12:0.14766844 13:0.19499992 14:0.2589969 15:0.16695662 16:0.19589882 
213.71215505819023 1:0.40465492 2:0.4226259 3:0.7011534 4:0.73679847 5:0.46141934 6:0.47420767 7:0.46495467 8:0.46748471 9:0.091644302 10:0.12286059 11:0.09554857 12:0.13814609 13:0.19481118 14:0.25560507 15:0.15470102 16:0.1830578 
-480 1:0.20883381 2:0.20023336 3:0.55638468 4:0.53128195 5:0.40074489 6:0.40458024 7:0.42976677 8:0.41910413 9:0.094638467 10:0.1220629 11:0.081222557 12:0.1058496 13:0.19995637 14:0.26852325 15:0.14599574 16:0.15478192 
480 1:0.14244668 2:0.12561212 3:0.47425526 4:0.4529483 5:0.35861361 6:0.37201828 7:0.39850199 8:0.40556973 9:0.1040855 10:0.12611307 11:0.096681595 12:0.1160347 13:0.19261272 14:0.25319842 15:0.18224141 16:0.18449672 
-480 1:0.10923801 2:0.091510832 3:0.4414503 4:0.42519924 5:0.33258885 6:0.34891197 7:0.41033816 8:0.42822349 9:0.10659499 10:0.14273621 11:0.11476848 12:0.14025626 13:0.18005341 14:0.22733104 15:0.20642862 16:0.21070404 
480 1:0.081268765 2:0.058716342 3:0.35322082 4:0.35416436 5:0.29645491 6:0.30695394 7:0.35137242 8:0.37694028 9:0.14581349 10:0.19962727 11:0.1337968 12:0.17081437 13:0.19262619 14:0.24645233 15:0.23297749 16:0.24404043 
-72.537702710595013 1:0.1888127 2:0.15874034 3:0.17494971 4:0.33402446 5:0.21640876 6:0.38189423 7:0.23019676 8:0.39614737 9:0.062363163 10:0.12082496 11:0.086709887 12:0.17034639 13:0.14441781 14:0.27500165 15:0.16961339 16:0.26834244 
-480 1:0.14575993 2:0.12026204 3:0.16617846 4:0.31503966 5:0.20294973 6:0.36178833 7:0.21945491 8:0.37710068 9:0.05536801 10:0.11053412 11:0.080617167 12:0.16042115 13:0.13779414 14:0.26259929 15:0.16038351 16:0.25454396 
-480 1:0.046589479 2:0.037552763 3:0.11420079 4:0.21474099 5:0.13324796 6:0.250108 7:0.15725219 8:0.27080381 9:0.024914488 10:0.055969976 11:0.047005579 12:0.09654697 13:0.091392405 14:0.17723867 15:0.10239219 16:0.16420205 
480 1:0.015261554 2:0.012962223 3:0.078956515 4:0.15279284 5:0.08998017 6:0.17282231 7:0.10552438 8:0.18762141 9:0.032985631 10:0.070612781 11:0.039090313 12:0.082323432 13:0.060747541 14:0.11686303 15:0.071287349 16:0.11484975 
480 1:0.0004684382 2:0.0011339866 3:0.049652457 4:0.10358404 5:0.071676277 6:0.1413871 7:0.077421933 8:0.14657374 9:0.018632263 10:0.041885413 11:0.024618737 12:0.054798808 13:0.056960028 14:0.10936175 15:0.053320698 16:0.086559877 
480 1:0.18760486 2:0.15677691 3:0.15545349 4:0.31195542 5:0.19088803 6:0.35806736 7:0.21095775 8:0.37709904 9:0.052283529 10:0.11034522 11:0.075992346 12:0.15928969 13:0.13390866 14:0.26263982 15:0.15423155 16:0.25404578 
480 1:0.14577925 2:0.11864322 3:0.14017175 4:0.28234974 5:0.16726436 6:0.32550988 7:0.19087432 8:0.34652209 9:0.042967718 10:0.095212035 11:0.064736679 12:0.14265558 13:0.12130737 14:0.24232401 15:0.13643178 16:0.23162821 
480 1:0.056141485 2:0.041830741 3:0.092639774 4:0.16646692 5:0.10683972 6:0.19143452 7:0.11394885 8:0.20602855 9:0.058335844 10:0.055046529 11:0.04191586 12:0.071310341 13:0.074452542 14:0.13692871 15:0.075600535 16:0.11924538 
480 1:0.19015256 2:0.15728527 3:0.14111893 4:0.2900064 5:0.17157571 6:0.3350966 7:0.19320314 8:0.35771599 9:0.04754959 10:0.10307476 11:0.068148538 12:0.14993249 13:0.12530497 14:0.2512379 15:0.14176811 16:0.24172375 
480 1:0.051467665 2:0.037206162 3:0.13893296 4:0.17821774 5:0.15752357 6:0.17687395 7:0.14175446 8:0.18109602 9:0.065009534 10:0.068583168 11:0.066156656 12:0.076883316 13:0.1070156 14:0.11673947 15:0.12343834 16:0.11389058 
480 1:0.045778073 2:0.032593597 3:0.16968705 4:0.19104701 5:0.20737609 6:0.20329989 7:0.20221937 8:0.22433268 9:0.12843111 10:0.094085895 11:0.11677557 12:0.099680074 13:0.10632503 14:0.11300749 15:0.1889637 16:0.14156434 
480 1:0.041068517 2:0.028797161 3:0.2455629 4:0.26852605 5:0.27535135 6:0.22889642 7:0.28667718 8:0.26289201 9:0.22454585 10:0.15776166 11:0.18247591 12:0.13279089 13:0.25066406 14:0.17680784 15:0.29431042 16:0.17682688 
480 1:0.19240372 2:0.15768127 3:0.13811339 4:0.2843526 5:0.16644499 6:0.32851467 7:0.18807432 8:0.35199621 9:0.046546396 10:0.10100287 11:0.066370793 12:0.147826 13:0.12299018 14:0.24833257 15:0.13859373 16:0.23849891 
480 1:0.15176231 2:0.11994901 3:0.12929523 4:0.25873691 5:0.14983575 6:0.30041826 7:0.17209654 8:0.32285565 9:0.04240175 10:0.08782991 11:0.057871308 12:0.13188946 13:0.11216275 14:0.22870491 15:0.12306662 16:0.21576437 
480 1:0.068143554 2:0.048483718 3:0.11017641 4:0.16681513 5:0.12548064 6:0.18601169 7:0.11911546 8:0.19679205 9:0.090394728 10:0.070670262 11:0.058920093 12:0.077895567 13:0.090018637 14:0.13728367 15:0.094449304 16:0.12156224 
480 1:0.15589182 2:0.12273357 3:0.12827389 4:0.25141239 5:0.14622901 6:0.29155174 7:0.16709229 8:0.31398988 9:0.045095406 10:0.086756147 11:0.056194294 12:0.12792753 13:0.10900455 14:0.22320633 15:0.11841694 16:0.21009408 
480 1:0.069147244 2:0.047509894 3:0.1915751 4:0.21562459 5:0.2187003 6:0.21246961 7:0.19072296 8:0.21405193 9:0.087863915 10:0.080896892 11:0.09510038 12:0.097605161 13:0.16349246 14:0.15901157 15:0.18527575 16:0.15424719 
480 1:0.064864784 2:0.043996744 3:0.24168217 4:0.25481996 5:0.28894755 6:0.26264971 7:0.28423989 8:0.2910625 9:0.17444046 10:0.12558903 11:0.1705222 12:0.14368837 13:0.16329174 14:0.15744756 15:0.28671342 16:0.20737331 
480 1:0.061719753 2:0.041244306 3:0.34057242 4:0.36047423 5:0.39028424 6:0.33240914 7:0.40692416 8:0.37472567 9:0.30021116 10:0.21680355 11:0.26884118 12:0.2062584 13:0.40025002 14:0.30622917 15:0.45714608 16:0.2956931 
480 1:0.091748834 2:0.062551476 3:0.15435527 4:0.18634044 5:0.16556211 6:0.19577993 7:0.14296336 8:0.19782998 9:0.17271292 10:0.13485438 11:0.098679617 12:0.10766084 13:0.12065368 14:0.15460281 15:0.13531341 16:0.14398579 
480 1:0.086914964 2:0.058867116 3:0.24847238 4:0.2629219 5:0.27535331 6:0.25401235 7:0.24020763 8:0.25119928 9:0.11438905 10:0.10018174 11:0.12457822 12:0.12201949 13:0.21485162 14:0.2047026 15:0.24096818 16:0.19765426 
480 1:0.10838013 2:0.074580997 3:0.42172408 4:0.44771227 5:0.49931195 6:0.45290101 7:0.48154613 8:0.4860529 9:0.29866678 10:0.24204654 11:0.28838027 12:0.26185605 13:0.30420539 14:0.30232063 15:0.49211976 16:0.38217568 
397.99938968716572 1:0.10804671 2:0.073349617 3:0.56856298 4:0.61081535 5:0.67827368 6:0.62729579 7:0.68020093 8:0.6491465 9:0.49122474 10:0.4136489 11:0.44423583 12:0.38784969 13:0.71449685 14:0.64161259 15:0.76283121 16:0.55993909 
480 1:0.24435942 2:0.18476598 3:0.17318219 4:0.23947756 5:0.15932432 6:0.26655892 7:0.16376847 8:0.28820419 9:0.058184117 10:0.091399416 11:0.055971656 12:0.11946556 13:0.10173991 14:0.2104616 15:0.10825508 16:0.19572259 
480 1:0.21278565 2:0.15448067 3:0.19168691 4:0.23059161 5:0.16792989 6:0.24933007 7:0.16563658 8:0.26100942 9:0.088037938 10:0.10468232 11:0.062580153 12:0.10979392 13:0.097313896 14:0.19127713 15:0.10480646 16:0.17224351 
480 1:0.16281845 2:0.11276234 3:0.33938199 4:0.34345922 5:0.33442107 6:0.31216142 7:0.27452993 8:0.28649244 9:0.36006904 10:0.34139663 11:0.21209928 12:0.23331724 13:0.23948613 14:0.28503454 15:0.27620953 16:0.26704848 
480 1:0.15925658 2:0.1123308 3:0.51426798 4:0.54329824 5:0.58468568 6:0.54820818 7:0.50244564 8:0.50306803 9:0.21439084 10:0.19969922 11:0.23901169 12:0.24579363 13:0.46557865 14:0.4992511 15:0.47564307 16:0.41926792 
236.45614068351637 1:0.15756732 2:0.11120753 3:0.62973404 4:0.69149899 5:0.75283176 6:0.72707826 7:0.72206402 8:0.74278015 9:0.40661404 10:0.36755645 11:0.38801929 12:0.37857726 13:0.45233211 14:0.49375781 15:0.67272127 16:0.55922651 
-18.394759497363648 1:0.15583917 2:0.11142346 3:0.81069201 4:0.91050231 5:1 6:1 7:1 8:1 9:0.64068121 10:0.60574138 11:0.56926697 12:0.53715825 13:1 14:1 15:1 16:0.78787231 
480 1:0.29487494 2:0.36425537 3:0.32267129 4:0.46383518 5:0.22125205 6:0.28207773 7:0.20710577 8:0.27776679 9:0.044612881 10:0.099010624 11:0.051747549 12:0.11596271 13:0.084916398 14:0.16019814 15:0.0788856 16:0.14960973 
480 1:0.25804183 2:0.31982687 3:0.30965346 4:0.45006064 5:0.20747384 6:0.2703684 7:0.19186497 8:0.26328647 9:0.041379023 10:0.094910413 11:0.049095277 12:0.11034001 13:0.079551689 14:0.15321176 15:0.073156811 16:0.14079714 
480 1:0.13600859 2:0.1559559 3:0.18759142 4:0.26124498 5:0.14397742 6:0.19857879 7:0.12130976 8:0.17110488 9:0.03245686 10:0.072238371 11:0.030243011 12:0.076368563 13:0.065729395 14:0.128831 15:0.044897139 16:0.098504648 
480 1:0.05591644 2:0.067914672 3:0.12605852 4:0.16479284 5:0.098876074 6:0.13800345 7:0.082301259 8:0.11536714 9:0.022977239 10:0.053578675 11:0.020432739 12:0.05440465 13:0.047213554 14:0.096638925 15:0.036984064 16:0.075471424 
-480 1:0.020092852 2:0.027465282 3:0.085070252 4:0.1054595 5:0.059320722 6:0.087931573 7:0.061067946 8:0.083438329 9:0.012586646 10:0.040706053 11:0.014006621 12:0.043300964 13:0.025991134 14:0.061167568 15:0.02319357 16:0.055288076 
480 1:0.29480693 2:0.36410975 3:0.36088878 4:0.49325833 5:0.24504556 6:0.29071686 7:0.22857255 8:0.2902317 9:0.046987858 10:0.09796039 11:0.054190125 12:0.11458788 13:0.092390001 14:0.16078533 15:0.08056803 16:0.1458233 
480 1:0.2582736 2:0.31971741 3:0.36238033 4:0.49215066 5:0.23973374 6:0.28411895 7:0.21995248 8:0.27996668 9:0.045213539 10:0.093344338 11:0.053342327 12:0.10856548 13:0.090763487 14:0.15484771 15:0.076452829 16:0.13501543 
480 1:0.29522231 2:0.36415982 3:0.39297292 4:0.5195055 5:0.26189697 6:0.29904845 7:0.24605778 8:0.30109993 9:0.049682371 10:0.097465031 11:0.057119809 12:0.11410653 13:0.099092185 14:0.16215986 15:0.084034562 16:0.14374608 
480 1:0.25904095 2:0.32014006 3:0.3926596 4:0.51448619 5:0.25587267 6:0.29078859 7:0.23586059 8:0.2895304 9:0.047706295 10:0.092976876 11:0.056452129 12:0.10817567 13:0.097557239 14:0.1562089 15:0.080480099 16:0.13340425 
480 1:0.13845049 2:0.15684761 3:0.24017517 4:0.29672647 5:0.18447247 6:0.21486281 7:0.15201037 8:0.18640713 9:0.043416962 10:0.07154005 11:0.037992094 12:0.073052131 13:0.087559916 14:0.13498403 15:0.055783186 16:0.090836324 
480 1:0.068549126 2:0.076649845 3:0.17483051 4:0.19386168 5:0.13941605 6:0.15352039 7:0.11546309 8:0.12994476 9:0.040249892 10:0.053628594 11:0.036338802 12:0.054596461 13:0.075039506 14:0.10506612 15:0.06026791 16:0.073790938 
-480 1:0.037086658 2:0.039341889 3:0.12756115 4:0.12839611 5:0.097168013 6:0.10276907 7:0.094190851 8:0.097848818 9:0.030214701 10:0.041480947 11:0.033806864 12:0.049137987 13:0.053523839 14:0.06849312 15:0.054348513 16:0.061404865 
-480 1:0.29702064 2:0.36476839 3:0.45323858 4:0.56908846 5:0.29667109 6:0.3127332 7:0.27901712 8:0.32317585 9:0.055095293 10:0.096613772 11:0.063726842 12:0.11375594 13:0.11274675 14:0.16458221 15:0.093575172 16:0.14046773 
-480 1:0.2603828 2:0.32087719 3:0.43890086 4:0.55219549 5:0.27994984 6:0.30278051 7:0.26021555 8:0.30708483 9:0.052062739 10:0.092210576 11:0.061655972 12:0.10777545 13:0.10750871 14:0.15998332 15:0.088197917 16:0.13135782 
-480 1:0.14099996 2:0.15832396 3:0.27475479 4:0.32326978 5:0.20649581 6:0.2237374 7:0.17257424 8:0.19850297 9:0.049973112 10:0.072369516 11:0.044981472 12:0.072581582 13:0.10070562 14:0.13903481 15:0.067451142 16:0.090096295 
-480 1:0.012582215 2:0.009415633 3:0.076314926 4:0.048756097 5:0.060000826 6:0.034988619 7:0.063653082 8:0.03436574 9:0.033718828 10:0.033431746 11:0.037623417 12:0.032593783 13:0.044066794 14:0.034008536 15:0.060409084 16:0.03906418 
-480 1:0.0754456 2:0.081962056 3:0.20372973 4:0.21705717 5:0.15960622 6:0.16274376 7:0.13636401 8:0.14231022 9:0.048431147 10:0.05462968 11:0.045907538 12:0.057125032 13:0.089507826 14:0.11028892 15:0.076129146 16:0.077304989 
-480 1:0.14593756 2:0.16078985 3:0.30786219 4:0.35554254 5:0.22732645 6:0.23317686 7:0.1957441 8:0.21433713 9:0.054867126 10:0.071526483 11:0.050842684 12:0.071962282 13:0.11243662 14:0.14255603 15:0.07889799 16:0.089436226 
-480 1:0.050660446 2:0.04932956 3:0.1699789 4:0.16430715 5:0.1295547 6:0.1208277 7:0.12846708 8:0.12075799 9:0.04403428 10:0.045019709 11:0.052023966 12:0.058422681 13:0.07705228 14:0.080082618 15:0.085090511 16:0.073712766 
-480 1:0.031243937 2:0.023463633 3:0.13755406 4:0.10742335 5:0.10954113 6:0.077878498 7:0.11599935 8:0.080119178 9:0.056434378 10:0.054307994 11:0.064389855 12:0.057525039 13:0.077732772 14:0.065572932 15:0.10472003 16:0.073285624 
480 1:0.091409087 2:0.091690905 3:0.25087509 4:0.26525 5:0.19082592 6:0.18006852 7:0.17156705 8:0.16980471 9:0.057564076 10:0.055935178 11:0.058619559 12:0.061890855 13:0.10890488 14:0.12038378 15:0.099687889 16:0.0852862 
-480 1:0.064231277 2:0.057848152 3:0.20309727 4:0.19776212 5:0.15310745 6:0.13766308 7:0.1546174 8:0.14311984 9:0.051495831 10:0.047800072 11:0.062901966 12:0.066250354 13:0.091818273 14:0.090711638 15:0.10461837 16:0.086237103 
480 1:0.050659675 2:0.034318428 3:0.17632772 4:0.15089178 5:0.14315002 6:0.11121072 7:0.14937103 8:0.11459341 9:0.070965275 10:0.069207713 11:0.080503337 12:0.076564237 13:0.098846674 14:0.089634441 15:0.13128638 16:0.099279247 
-253.32270907486134 1:0.33914405 2:0.37818879 3:0.74902231 4:0.8887763 5:0.46563247 6:0.43478054 7:0.48709574 8:0.51952112 9:0.069908373 10:0.086060502 11:0.09238679 12:0.10945302 13:0.18380891 14:0.20209855 15:0.15790601 16:0.14526133 
480 1:0.30497018 2:0.33636394 3:0.75947434 4:0.86119151 5:0.45192653 6:0.42852262 7:0.46383578 8:0.49145031 9:0.067539334 10:0.0828771 11:0.091442436 12:0.10614812 13:0.17961411 14:0.19891061 15:0.15574297 16:0.14056921 
-480 1:0.2003666 2:0.18649811 3:0.5434311 4:0.59869051 5:0.36638278 6:0.33838993 7:0.36473671 8:0.37403515 9:0.077316597 10:0.073017716 11:0.088281073 12:0.087883577 13:0.18097667 14:0.18951976 15:0.15528195 16:0.12099387 
-480 1:0.15659478 2:0.1286093 3:0.43700638 4:0.45665926 5:0.31700909 6:0.28685072 7:0.31617889 8:0.30946818 9:0.091992438 10:0.078359403 11:0.10774828 12:0.10533556 13:0.17996904 14:0.1849328 15:0.18806338 16:0.15003085 
-172.01062004946803 1:0.13591693 2:0.10111349 3:0.3844445 4:0.39216617 5:0.29348585 6:0.26978087 7:0.30663642 8:0.29727903 9:0.09924525 10:0.089062721 11:0.12830928 12:0.13799337 13:0.1741243 14:0.17530988 15:0.21416242 16:0.18339433 
422.44218555220948 1:0.11874825 2:0.078730345 3:0.34641337 4:0.34279767 5:0.2890785 6:0.26989999 7:0.29942182 8:0.27866176 9:0.14648229 10:0.17100899 11:0.15445772 12:0.17365876 13:0.18987302 14:0.21102884 15:0.24980915 16:0.22688115 
480 1:0.22222237 2:0.24390145 3:0.3489607 4:0.45115051 5:0.11982314 6:0.17768644 7:0.14539108 8:0.23833266 9:0.029490914 10:0.057828166 11:0.049209118 12:0.10272947 13:0.070274286 14:0.13804771 15:0.10132596 16:0.17400557 
480 1:0.18910527 2:0.2009435 3:0.3478063 4:0.42957893 5:0.11701643 6:0.18471709 7:0.12618759 8:0.21905106 9:0.022991518 10:0.045088336 11:0.034928333 12:0.078338079 13:0.082654692 14:0.15625027 15:0.086910233 16:0.15108068 
-480 1:0.097548053 2:0.075053379 3:0.1881707 4:0.26418844 5:0.072485901 6:0.10794178 7:0.09929949 8:0.18140741 9:0.00367658 10:0.02323042 11:0.015104981 12:0.043829758 13:0.041007288 14:0.066864878 15:0.045188263 16:0.084662564 
480 1:0.037985545 2:0.029262124 3:0.12760703 4:0.19751436 5:0.0550793 6:0.072247364 7:0.079932608 8:0.14237776 9:0.0045979409 10:0.026959635 11:0.010253484 12:0.038217455 13:0.023928266 14:0.040661093 15:0.025231697 16:0.057224598 
480 1:0.011567221 2:0.0093062529 3:0.11133708 4:0.17827708 5:0.042214327 6:0.067200087 7:0.063274868 8:0.1065795 9:3.0372936e-05 10:0.016977493 11:0.0046996824 12:0.025965681 13:0.015464647 14:0.044123258 15:0.017106902 16:0.040785074 
-480 1:0.22476357 2:0.24659181 3:0.40227503 4:0.47273496 5:0.12301388 6:0.17233767 7:0.15827137 8:0.23657672 9:0.026336683 10:0.053597603 11:0.043447278 12:0.095943883 13:0.063716888 14:0.13093121 15:0.089216277 16:0.16434848 
-480 1:0.19275086 2:0.20393007 3:0.39843476 4:0.44732484 5:0.11344553 6:0.17531998 7:0.13505653 8:0.21491729 9:0.020324891 10:0.041208163 11:0.030699212 12:0.072513781 13:0.073207483 14:0.14561124 15:0.075055219 16:0.14145888 
-480 1:0.10653058 2:0.081836842 3:0.24040897 4:0.2790792 5:0.072840065 6:0.10118508 7:0.093861483 8:0.16315879 9:0.0072176186 10:0.020710984 11:0.015034364 12:0.03817207 13:0.035748936 14:0.057849262 15:0.034954451 16:0.07227359 
-480 1:0.055671491 2:0.041990846 3:0.16847029 4:0.20912778 5:0.063863516 6:0.074813239 7:0.08253549 8:0.13510016 9:0.0063815364 10:0.022945262 11:0.013084817 12:0.033493537 13:0.022673916 14:0.038440589 15:0.025579022 16:0.049934179 
480 1:0.03336437 2:0.024136905 3:0.15446517 4:0.19444838 5:0.056121349 6:0.073427595 7:0.078316674 8:0.10820188 9:0.0038563567 10:0.015541009 11:0.011984584 12:0.025491286 13:0.014793521 14:0.039206091 15:0.027978264 16:0.040434759 
480 1:0.012506371 2:0.0075145401 3:0.060413513 4:0.044600092 5:0.01945648 6:0.0031852154 7:0.036199458 8:0.020293204 9:0.00096216245 11:0.0024319645 13:0.0052116667 15:0.0061097099 
-480 1:0.22972696 2:0.24979906 3:0.45779389 4:0.49936238 5:0.13132279 6:0.17270343 7:0.17500161 8:0.23758937 9:0.026601309 10:0.052401893 11:0.041911677 12:0.092648976 13:0.062536642 14:0.12757125 15:0.0843383 16:0.15956591 
-480 1:0.20000198 2:0.2092407 3:0.44822663 4:0.46324906 5:0.11764556 6:0.17103063 7:0.1480324 8:0.21327342 9:0.021506414 10:0.041392639 11:0.030450502 12:0.070715681 13:0.070474312 14:0.14159189 15:0.071382806 16:0.13745569 
480 1:0.11668864 2:0.088733099 3:0.28052023 4:0.29434752 5:0.079766557 6:0.10261786 7:0.10199626 8:0.15795882 9:0.01046761 10:0.022822734 11:0.017760722 12:0.038543012 13:0.037317693 14:0.058663521 15:0.036166932 16:0.070899412 
-480 1:0.069019496 2:0.050740872 3:0.2061138 4:0.22696184 5:0.073955551 6:0.080293953 7:0.098269626 8:0.13854189 9:0.0087263091 10:0.02407369 11:0.016628131 12:0.034385547 13:0.025425449 14:0.041595414 15:0.031015472 16:0.051071182 
181.41556471403757 1:0.23785606 2:0.25506866 3:0.52241874 4:0.5261268 5:0.14009343 6:0.17350668 7:0.19026245 8:0.24031428 9:0.02860268 10:0.053439684 11:0.041823272 12:0.092186324 13:0.064216495 14:0.12739833 15:0.083201863 16:0.15824223 
-7.806972438801699 1:0.1223511 2:0.092239968 3:0.30986327 4:0.30722901 5:0.085135266 6:0.10572018 7:0.11061869 8:0.15806194 9:0.012232662 10:0.024168538 11:0.019916568 12:0.038951747 13:0.038889162 14:0.059463851 15:0.038006455 16:0.071236879 
480 1:0.055502128 2:0.038004577 3:0.22488709 4:0.23393849 5:0.079020277 6:0.086063057 7:0.11920607 8:0.12392223 9:0.0097725904 10:0.019480549 11:0.020319881 12:0.029552421 13:0.020831879 14:0.043821443 15:0.041957311 16:0.046990946 
-480 1:0.036436755 2:0.022245543 3:0.14027065 4:0.11168277 5:0.055536792 6:0.031737033 7:0.10020125 8:0.061570477 9:0.012576013 10:0.0078713251 11:0.016043767 12:0.010643099 13:0.023761829 14:0.018170789 15:0.030812418 16:0.016773386 
-480 1:0.21540694 2:0.22053191 3:0.53808618 4:0.49202403 5:0.12956412 6:0.17477843 7:0.17233266 8:0.21805237 9:0.023388337 10:0.042200875 11:0.03195034 12:0.070957161 13:0.072055787 14:0.13953376 15:0.072011039 16:0.13669434 
480 1:0.085330755 2:0.060221873 3:0.2572372 4:0.25391966 5:0.090294003 6:0.088021137 7:0.12536526 8:0.14633745 9:0.011158044 10:0.024621993 11:0.021048004 12:0.035311673 13:0.030858675 14:0.046735018 15:0.038687926 16:0.052688703 
480 1:0.076874919 2:0.050327409 3:0.2885043 4:0.26676911 5:0.1035436 6:0.099202991 7:0.15791573 8:0.14052443 9:0.015000454 10:0.021999428 11:0.027531305 12:0.033133551 13:0.028662011 14:0.048135601 15:0.055725258 16:0.053020172 
480 1:0.058203332 2:0.035674397 3:0.20686528 4:0.16100793 5:0.087406851 6:0.056249641 7:0.1551317 8:0.091739103 9:0.023868663 10:0.01598784 11:0.02857521 12:0.020997753 13:0.04065932 14:0.034718614 15:0.053207025 16:0.032176875 
480 1:0.29136592 2:0.28677025 3:0.87413698 4:0.71974039 5:0.21995138 6:0.20113562 7:0.30946553 8:0.27944988 9:0.041979957 10:0.068473205 11:0.043958299 12:0.089662276 13:0.078219123 14:0.13814873 15:0.081400484 16:0.15255263 
-480 1:0.27137426 2:0.25540164 3:1 4:0.74795836 5:0.2154326 6:0.22979562 7:0.32230762 8:0.29291284 9:0.061990678 10:0.088254616 11:0.059042051 12:0.08929985 13:0.093431406 14:0.16662446 15:0.09608233 16:0.15310748 
480 1:0.19034241 2:0.13573125 3:0.63575989 4:0.49443379 5:0.1915309 6:0.16533841 7:0.22033912 8:0.19958748 9:0.069544293 10:0.073017672 11:0.057801899 12:0.060863994 13:0.089857079 14:0.1049365 15:0.087039679 16:0.09611465 
480 1:0.15478888 2:0.10453527 3:0.52798092 4:0.42663759 5:0.22437873 6:0.16912028 7:0.26857382 8:0.22867744 9:0.059637107 10:0.063911416 11:0.064142138 12:0.059991583 13:0.096814632 14:0.1143807 15:0.11266144 16:0.095922753 
480 1:0.135885 2:0.087812155 3:0.52449358 4:0.44048798 5:0.22111337 6:0.17117593 7:0.30467099 8:0.23927046 9:0.060517553 10:0.062736034 11:0.073060647 12:0.0643152 13:0.083939031 14:0.0866936 15:0.13717808 16:0.10249359 
204.78448593191237 1:0.12115058 2:0.075888 3:0.41779107 4:0.34542543 5:0.20287469 6:0.14817186 7:0.32508317 8:0.21613804 9:0.084914736 10:0.075876825 11:0.080423601 12:0.070410058 13:0.12288875 14:0.11033897 15:0.1445457 16:0.10083859 
-480 1:0.26620683 2:0.29117367 3:0.1743131 4:0.25906006 5:0.14238338 6:0.24064773 7:0.14720933 8:0.25813073 9:0.042846177 10:0.088277295 11:0.048592944 12:0.10732044 13:0.079342633 14:0.1721665 15:0.097701982 16:0.18436576 
-480 1:0.22990653 2:0.24544579 3:0.16922887 4:0.25031018 5:0.13848971 6:0.22955537 7:0.14034566 8:0.24591179 9:0.039297421 10:0.081640393 11:0.045224328 12:0.099779233 13:0.077021107 14:0.16684614 15:0.091099888 16:0.1725052 
-480 1:0.11880549 2:0.12412338 3:0.1299451 4:0.1894404 5:0.11337004 6:0.17157584 7:0.10988358 8:0.18656576 9:0.027584311 10:0.061593469 11:0.032131191 12:0.075976811 13:0.055268731 14:0.11063509 15:0.057969652 16:0.11647695 
-480 1:0.048791211 2:0.054225624 3:0.11595324 4:0.16587062 5:0.10306843 6:0.16234411 7:0.087895155 8:0.14406514 9:0.020463781 10:0.050218083 11:0.029907843 12:0.07219319 13:0.0460959 14:0.099202663 15:0.051164262 16:0.10519941 
480 1:0.016392458 2:0.020237403 3:0.089178137 4:0.12656972 5:0.089547321 6:0.15070517 7:0.076968029 8:0.1230312 9:0.015788836 10:0.044351436 11:0.037290562 12:0.095237948 13:0.033141393 14:0.082703218 15:0.033598214 16:0.071157925 
480 1:0.26596209 2:0.29100931 3:0.19240834 4:0.26340303 5:0.141791 6:0.23213434 7:0.15044086 8:0.25212887 9:0.038372874 10:0.083394282 11:0.044214483 12:0.10183496 13:0.075175062 14:0.16393392 15:0.08698085 16:0.17393464 
-480 1:0.22984092 2:0.24538435 3:0.19400817 4:0.25510529 5:0.13917616 6:0.21807972 7:0.14663778 8:0.23749545 9:0.03454816 10:0.075949728 11:0.041733548 12:0.094584361 13:0.071700491 14:0.15459716 15:0.076914184 16:0.15694816 
480 1:0.26651326 2:0.29133955 3:0.2143259 4:0.2702463 5:0.14780603 6:0.22820477 7:0.1586656 8:0.24866258 9:0.036482792 10:0.080374375 11:0.043580003 12:0.099522673 13:0.075216018 14:0.15907077 15:0.081052266 16:0.1653558 
-480 1:0.12184244 2:0.12683132 3:0.17224194 4:0.19816081 5:0.14724268 6:0.18442045 7:0.12708837 8:0.17394674 9:0.02673913 10:0.056109652 11:0.034815188 12:0.073036253 13:0.067186579 14:0.11137114 15:0.046968214 16:0.095289178 
-480 1:0.23085934 2:0.24604897 3:0.22219279 4:0.26530612 5:0.14981385 6:0.214981 7:0.160257 8:0.23513676 9:0.034082241 10:0.074558213 11:0.043760072 12:0.094890587 13:0.073631495 14:0.14861286 15:0.07336358 16:0.14790118 
-64.79114321844996 1:0.06667152 2:0.07080926 3:0.19412538 4:0.20355244 5:0.16840318 6:0.20227692 7:0.13692491 8:0.15525226 9:0.035584077 10:0.060665745 11:0.055883233 12:0.094214045 13:0.069942653 14:0.10717344 15:0.056215044 16:0.08592733 
-480 1:0.040403444 2:0.042586215 3:0.17379096 4:0.17099127 5:0.16593342 6:0.20340158 7:0.14985067 8:0.16162096 9:0.026986435 10:0.045156781 11:0.07981725 12:0.13728021 13:0.061715975 14:0.090762906 15:0.072840616 16:0.089120723 
-480 1:0.023569217 2:0.025106926 3:0.16932766 4:0.15550318 5:0.14547484 6:0.1385556 7:0.1469427 8:0.12678383 9:0.03534098 10:0.042945605 11:0.060681723 12:0.083052397 13:0.077838741 14:0.086695045 15:0.079353824 16:0.067629918 
-480 1:0.23338807 2:0.24713992 3:0.26110244 4:0.28496695 5:0.16746679 6:0.21452816 7:0.18396455 8:0.23630652 9:0.034442578 10:0.073401697 11:0.047212571 12:0.095705658 13:0.078225762 14:0.14272033 15:0.073272243 16:0.13939828 
-480 1:0.128656 2:0.13279727 3:0.23863949 4:0.23010653 5:0.19479415 6:0.21334866 7:0.16758551 8:0.18264781 9:0.033772618 10:0.058891609 11:0.047358673 12:0.081181228 13:0.088924974 14:0.12569366 15:0.059468035 16:0.091069154 
480 1:0.084920473 2:0.087123476 3:0.29228005 4:0.26821974 5:0.2409068 6:0.25773942 7:0.21090597 8:0.19876659 9:0.053474441 10:0.077502809 11:0.081537813 12:0.11899202 13:0.10524552 14:0.1350145 15:0.086275488 16:0.095706329 
480 1:0.062362064 2:0.062919028 3:0.2826353 4:0.25249752 5:0.24699649 6:0.26767531 7:0.23810877 8:0.22701123 9:0.045155298 10:0.057988107 11:0.11425918 12:0.1796148 13:0.10361579 14:0.12440347 15:0.12051693 16:0.12355787 
480 1:0.13950267 2:0.14156066 3:0.3184548 4:0.28470886 5:0.24874997 6:0.25058237 7:0.2219902 8:0.20581926 9:0.043084241 10:0.064231373 11:0.062252358 12:0.09240853 13:0.11390426 14:0.14543778 15:0.079357907 16:0.095333748 
-480 1:0.054886609 2:0.053426072 3:0.32935876 4:0.31123221 5:0.26456749 6:0.26015624 7:0.27925569 8:0.24935625 9:0.070577815 10:0.07952641 11:0.10376375 12:0.13154531 13:0.14433548 14:0.16364323 15:0.15082195 16:0.13321018 
-255.78704641690373 1:0.10479015 2:0.10408878 3:0.40231973 4:0.35999587 5:0.30611154 6:0.31037381 7:0.28933734 8:0.25296417 9:0.064842224 10:0.087403417 11:0.099695034 12:0.13638762 13:0.13719521 14:0.16237031 15:0.11590931 16:0.1109249 
-105.60837678582334 1:0.085392989 2:0.083268717 3:0.39674801 4:0.35364845 5:0.32080725 6:0.33167166 7:0.32679117 8:0.29879746 9:0.058579244 10:0.068282828 11:0.13657902 12:0.20481828 13:0.14049391 14:0.15820374 15:0.15784425 16:0.15385789 
-480 1:0.083365701 2:0.079510219 3:0.47456938 4:0.4457455 5:0.35314798 6:0.34521666 7:0.39191052 8:0.35550416 9:0.098120727 10:0.11530283 11:0.13374652 12:0.16589558 13:0.19391163 14:0.220825 15:0.20895836 16:0.20111117 
480 1:0.34478775 2:0.35521558 3:0.79698503 4:0.72702265 5:0.48736644 6:0.40387186 7:0.5225383 8:0.42502689 9:0.07576941 10:0.10502864 11:0.12247014 12:0.14441156 13:0.21611263 14:0.21609329 15:0.19140643 16:0.16414896 
-480 1:0.31904945 2:0.32255185 3:0.82010579 4:0.73863047 5:0.51510215 6:0.42096221 7:0.56123263 8:0.44937223 9:0.084860742 10:0.11848725 11:0.13903931 12:0.17277877 13:0.22532403 14:0.22047466 15:0.20467211 16:0.17190157 
190.79517988404294 1:0.24104632 2:0.23574686 3:0.90568912 4:0.81740916 5:0.60800856 6:0.58908087 7:0.64142305 8:0.51244116 9:0.11665383 10:0.1590274 11:0.15970911 12:0.20323041 13:0.29257828 14:0.36154118 15:0.24535865 16:0.22052903 
-480 1:0.21439935 2:0.21040495 3:0.97720826 4:0.91618693 5:0.6533649 6:0.66947222 7:0.70345283 8:0.61232305 9:0.15945835 10:0.22924875 11:0.21498016 12:0.29514274 13:0.31488729 14:0.38485745 15:0.29008153 16:0.26321745 
265.39563171201428 1:0.20280854 2:0.19653985 3:0.98459339 4:0.9488039 5:0.67233479 6:0.70965809 7:0.76209241 8:0.72478342 9:0.15044777 10:0.19190483 11:0.28534132 12:0.45859042 13:0.32052636 14:0.38606417 15:0.37557569 16:0.40949968 
-293.54839020159756 1:0.18954799 2:0.1834757 3:0.99390274 4:1 5:0.65958041 6:0.6908437 7:0.77444845 8:0.76273733 9:0.20560737 10:0.28846776 11:0.23744182 12:0.3110173 13:0.37605971 14:0.48995972 15:0.40992093 16:0.45246318 
-480 1:0.86526734 2:0.97117978 3:0.091229357 4:0.14759585 5:0.083411045 6:0.17348643 7:0.076947458 8:0.15925303 9:0.022554036 10:0.066858858 11:0.0265844 12:0.08228723 13:0.042989422 14:0.12523915 15:0.047609977 16:0.1211516 
-480 1:0.76880205 2:0.84517896 3:0.082373545 4:0.13294497 5:0.078014039 6:0.16169471 7:0.072204903 8:0.15116087 9:0.020653956 10:0.06247846 11:0.023726372 12:0.075898923 13:0.039333466 14:0.11712331 15:0.042726822 16:0.11170093 
-480 1:0.45812708 2:0.4561573 3:0.057440922 4:0.095787384 5:0.056185834 6:0.11610011 7:0.048757434 8:0.10514455 9:0.013584316 10:0.048760816 11:0.011759529 12:0.050391126 13:0.026070712 14:0.083949469 15:0.019584689 16:0.069647089 
-480 1:0.21596034 2:0.21894588 3:0.05072635 4:0.078507349 5:0.041435793 6:0.08815667 7:0.03364639 8:0.073450573 9:0.0067339246 10:0.037460376 11:0.0058224117 12:0.039338764 13:0.016169751 14:0.062439132 15:0.011839399 16:0.05313817 
-480 1:0.093598686 2:0.095617428 3:0.036293086 4:0.056089792 5:0.027465923 6:0.066558644 7:0.027927492 8:0.060455512 10:0.025720853 11:0.0022160304 12:0.032067753 13:0.0052542305 14:0.041090999 15:0.005299964 16:0.041431516 
-480 1:0.86728823 2:0.97175008 3:0.10469171 4:0.153319 5:0.081748515 6:0.16826345 7:0.077539593 8:0.15489841 9:0.020446455 10:0.064600579 11:0.023556223 12:0.078543536 13:0.040687054 14:0.12107351 15:0.041696809 16:0.11518203 
-480 1:0.771339 2:0.84534669 3:0.09662661 4:0.13686346 5:0.078262173 6:0.15561157 7:0.072735064 8:0.14443175 9:0.018761242 10:0.05997704 11:0.020537948 12:0.071192838 13:0.037672259 14:0.11223722 15:0.036010265 16:0.10371749 
126.55818837489851 1:0.86965984 2:0.97196615 3:0.11650801 4:0.15817803 5:0.083402775 6:0.16566978 7:0.080835164 8:0.15301584 9:0.020246493 10:0.063333824 11:0.022780115 12:0.076638013 13:0.040712401 14:0.1185437 15:0.040187594 16:0.11181428 
-480 1:0.77412558 2:0.84644598 3:0.10954452 4:0.14134017 5:0.084139831 6:0.15331857 7:0.077471808 8:0.14157704 9:0.019659093 10:0.058956761 11:0.020973593 12:0.069189161 13:0.040036783 14:0.10992005 15:0.036376283 16:0.099631839 
480 1:0.46321943 2:0.45769978 3:0.07506191 4:0.094118506 5:0.078748472 6:0.11688031 7:0.063298143 8:0.096334398 9:0.019535961 10:0.050998744 11:0.015080888 12:0.046430416 13:0.038647413 14:0.084472328 15:0.025759479 16:0.061136514 
-480 1:0.87334245 2:0.97303259 3:0.13738532 4:0.16749142 5:0.090434074 6:0.16215493 7:0.088927247 8:0.15060376 9:0.021105986 10:0.062089216 11:0.023783742 12:0.074261405 13:0.043379236 14:0.11575371 15:0.041307133 16:0.10723367 
-480 1:0.77904516 2:0.84775949 3:0.13400319 4:0.14995077 5:0.09868253 6:0.15339088 7:0.090287976 8:0.13913085 9:0.022962946 10:0.058602396 11:0.025327569 12:0.067103952 13:0.047521655 14:0.10887287 15:0.043123644 16:0.095031537 
-480 1:0.27305135 2:0.24761611 3:0.099662989 4:0.092999056 5:0.11397427 6:0.11709078 7:0.09344694 8:0.086047664 9:0.034408614 10:0.051547889 11:0.036370087 12:0.050801054 13:0.063941479 14:0.087602124 15:0.065992616 16:0.070062637 
