svm_type epsilon_svr
kernel_type rbf
gamma 0.59999999999999998
nr_class 2
total_sv 455
rho -25.792801758235502
SV
-400 1:0.66300684 2:0.52416897 3:0.089844503 4:0.12266059 5:0.095284164 6:0.16280691 7:0.093465589 8:0.17332478 9:0.053257741 10:0.092017829 11:0.052234847 12:0.13034642 13:0.091089524 14:0.24415743 15:0.082682282 16:0.18839394 
-400 1:0.54911751 2:0.43521553 3:0.090821229 4:0.11998791 5:0.088028438 6:0.15089214 7:0.090289317 8:0.16650344 9:0.047491647 10:0.079133466 11:0.04992662 12:0.124573 13:0.086387388 14:0.23506102 15:0.0776278 16:0.17946507 
-400 1:0.23706174 2:0.1858281 3:0.071330324 4:0.083756775 5:0.062971011 6:0.10209207 7:0.064385697 8:0.11609682 9:0.030595217 10:0.045998704 11:0.031991083 12:0.079698354 13:0.05485525 14:0.16674908 15:0.046500452 16:0.12439595 
400 1:0.10303043 2:0.08091373 3:0.037625082 4:0.045794118 5:0.046060871 6:0.06905283 7:0.040712852 8:0.074461244 9:0.018569862 10:0.036700394 11:0.019160949 12:0.055231124 13:0.038787168 14:0.12039322 15:0.030654542 16:0.086139396 
400 1:0.04355916 2:0.034061659 3:0.012505054 4:0.019539522 5:0.022058215 6:0.041238423 7:0.01737787 8:0.040872462 9:0.0082373098 10:0.019072525 11:0.0093721058 12:0.033342179 13:0.023160864 14:0.092776924 15:0.0173344 16:0.063590176 
400 1:0.6630125 2:0.52420419 3:0.095672272 4:0.12241947 5:0.09257628 6:0.15297341 7:0.091628537 8:0.16599216 9:0.047045603 10:0.085324451 11:0.046842188 12:0.12342533 13:0.084210418 14:0.23650631 15:0.075237915 16:0.18132526 
-400 1:0.54925835 2:0.43534303 3:0.099269934 4:0.11989821 5:0.087025039 6:0.13963155 7:0.088678405 8:0.15780813 9:0.041863821 10:0.071001351 11:0.044057358 12:0.11613222 13:0.079448938 14:0.22534111 15:0.069691151 16:0.1704517 
-400 1:0.23813184 2:0.18641348 3:0.090858534 4:0.08477369 5:0.080757625 6:0.09565334 7:0.077179901 8:0.10513383 9:0.032935929 10:0.048553579 11:0.030918602 12:0.068222277 13:0.053989965 14:0.14599323 15:0.043331344 16:0.10733463 
400 1:0.11635798 2:0.088691168 3:0.064584702 4:0.051156297 5:0.084639683 6:0.081086248 7:0.069802359 8:0.071965955 9:0.03912688 10:0.070697203 11:0.035674568 12:0.062250443 13:0.060882714 14:0.11761757 15:0.058632944 16:0.091533206 
400 1:0.061975535 2:0.045110445 3:0.045308691 4:0.030564534 5:0.073264331 6:0.073293887 7:0.06073235 8:0.055725344 9:0.034977302 10:0.055813942 11:0.033980198 12:0.046464577 13:0.058932308 14:0.10764846 15:0.056754455 16:0.081470855 
-279.01976873055094 1:0.013207598 2:0.0065634442 3:0.046630833 4:0.035300512 5:0.071689896 6:0.06704697 7:0.062318351 8:0.054596674 9:0.042750392 10:0.055238642 11:0.039877076 12:0.044328481 13:0.072351694 14:0.095913529 15:0.061213274 16:0.065387495 
400 1:0.66348284 2:0.52462065 3:0.12143381 4:0.13091888 5:0.10852487 6:0.14038225 7:0.10393962 8:0.15382187 9:0.044098463 10:0.073193721 11:0.044949234 12:0.10918497 13:0.082355618 14:0.21836223 15:0.072226673 16:0.16528057 
-400 1:0.55058169 2:0.43563998 3:0.12638387 4:0.12958045 5:0.1080616 6:0.12905261 7:0.1009355 8:0.14622736 9:0.043879908 10:0.067041494 11:0.043006252 12:0.10215478 13:0.080864258 14:0.20714359 15:0.068839274 16:0.15380464 
-400 1:0.24351993 2:0.18867654 3:0.14020239 4:0.10547179 5:0.13902453 6:0.1161708 7:0.12305786 8:0.11060995 9:0.055434056 10:0.076734111 11:0.047343425 12:0.06818594 13:0.081660129 14:0.13396795 15:0.068193078 16:0.099691458 
400 1:0.66471297 2:0.52467197 3:0.14397363 4:0.14317991 5:0.12864414 6:0.14150067 7:0.11829937 8:0.15160397 9:0.048438396 10:0.071910977 11:0.048622414 12:0.10344281 13:0.088720068 14:0.20958072 15:0.076639727 16:0.15756178 
-400 1:0.55136144 2:0.43583038 3:0.15102525 4:0.14214651 5:0.13252455 6:0.1338103 7:0.11717713 8:0.14428981 9:0.049823146 10:0.069219075 11:0.047915034 12:0.097635716 13:0.088812344 14:0.19847997 15:0.075502194 16:0.14667642 
400 1:0.13645317 2:0.10126735 3:0.1327329 4:0.089542814 5:0.17070055 6:0.13221814 7:0.14569402 8:0.10683913 9:0.07924474 10:0.10226972 11:0.073128663 12:0.09068159 13:0.12150319 14:0.15274149 15:0.12001127 16:0.12648745 
-400 1:0.093894184 2:0.064614832 3:0.14659491 4:0.098370515 5:0.19765849 6:0.15850066 7:0.17811437 8:0.13160472 9:0.089636527 10:0.091253079 11:0.088997647 12:0.092371419 13:0.15434578 14:0.17845857 15:0.14755204 16:0.1435442 
-400 1:0.048587862 2:0.028894363 3:0.1581516 4:0.11931641 5:0.20751767 6:0.17044577 7:0.19466563 8:0.16502005 9:0.10527766 10:0.099578954 11:0.1045846 12:0.10853764 13:0.19904473 14:0.22823204 15:0.168075 16:0.16217273 
-400 1:0.25019267 2:0.19204181 3:0.18343298 4:0.12903133 5:0.1919114 6:0.14483608 7:0.16413437 8:0.12708929 9:0.073544115 10:0.081387505 11:0.063332073 12:0.075579993 13:0.11209554 14:0.13884819 15:0.093533561 16:0.10442527 
-400 1:0.15279105 2:0.11048657 3:0.19748937 4:0.12946853 5:0.24440688 6:0.1738767 7:0.21434306 8:0.14640799 9:0.10871174 10:0.1180056 11:0.10170503 12:0.11545914 13:0.17183177 14:0.1818803 15:0.16828617 16:0.15718888 
-400 1:0.10761897 2:0.073042803 3:0.19661732 4:0.13353275 5:0.25470483 6:0.18925071 7:0.23533224 8:0.17083676 9:0.11096875 10:0.10117827 11:0.11214675 12:0.11226252 13:0.19821768 14:0.20351565 15:0.18746349 16:0.17108656 
-400 1:0.075312547 2:0.045406375 3:0.25680986 4:0.18668948 5:0.30844557 6:0.23196886 7:0.30380479 8:0.24632576 9:0.14368893 10:0.11947617 11:0.14954051 12:0.15167658 13:0.28882307 14:0.29653984 15:0.24433526 16:0.22153261 
114.41799683959441 1:0.687361 2:0.53687572 3:0.39486918 4:0.36480796 5:0.36376792 6:0.3112894 7:0.31427717 8:0.26166445 9:0.11313472 10:0.097864576 11:0.113416 12:0.12350736 13:0.18937804 14:0.19961049 15:0.16557756 16:0.156992 
-400 1:0.58397645 2:0.45443672 3:0.41752213 4:0.37317756 5:0.38966075 6:0.3203699 7:0.31845656 8:0.27065685 9:0.13234611 10:0.10978979 11:0.11705078 12:0.11978684 13:0.19988474 14:0.20007016 15:0.17728439 16:0.15759543 
11.558247000108441 1:0.31434199 2:0.23408821 3:0.49539223 4:0.39037576 5:0.49911764 6:0.37925032 7:0.44587684 8:0.33118987 9:0.17183924 10:0.14931244 11:0.15880124 12:0.15429395 13:0.29080707 14:0.23099576 15:0.24927339 16:0.18577372 
-400 1:0.23588847 2:0.16760224 3:0.52560198 4:0.40927136 5:0.56048203 6:0.42396525 7:0.53756326 8:0.40723634 9:0.2224562 10:0.22368436 11:0.22053769 12:0.24941397 13:0.38415501 14:0.35535994 15:0.36752975 16:0.31748718 
-47.421315982821078 1:0.20029873 2:0.13720706 3:0.55448347 4:0.44080228 5:0.58538824 6:0.47253615 7:0.59637219 8:0.4842751 9:0.23058878 10:0.21002893 11:0.24653697 12:0.26652512 13:0.43398929 14:0.42130831 15:0.41023219 16:0.36465558 
-400 1:0.16316228 2:0.1077039 3:0.59035498 4:0.48182476 5:0.63002598 6:0.51788783 7:0.65178144 8:0.56927562 9:0.26424652 10:0.2326868 11:0.28598908 12:0.31591919 13:0.55092806 14:0.56379527 15:0.47067192 16:0.43057638 
69.174101025397704 1:0.92033207 2:0.71421742 3:0.091868564 4:0.13044108 5:0.089575455 6:0.15052944 7:0.086394086 8:0.13639976 9:0.03899239 10:0.086191453 11:0.039223433 12:0.10296728 13:0.06482742 14:0.1635166 15:0.059377905 16:0.13187651 
-400 1:0.76083058 2:0.57648814 3:0.087459326 4:0.12347839 5:0.08221437 6:0.13928433 7:0.079953484 8:0.12664768 9:0.03599567 10:0.079796515 11:0.035661925 12:0.096690044 13:0.061342057 14:0.15618356 15:0.054115914 16:0.12192217 
400 1:0.32796776 2:0.25197342 3:0.060791459 4:0.08726088 5:0.051951982 6:0.089527182 7:0.056862749 8:0.092984386 9:0.020740127 10:0.049596757 11:0.023093827 12:0.066828541 13:0.038383551 14:0.11157597 15:0.032096848 16:0.085987858 
400 1:0.14416541 2:0.11315549 3:0.033777054 4:0.048421144 5:0.034268532 6:0.061272517 7:0.036714312 8:0.058384132 9:0.010692647 10:0.031759623 11:0.013215826 12:0.045129698 13:0.023882288 14:0.079486117 15:0.020567531 16:0.061951231 
400 1:0.063680328 2:0.050144598 3:0.011907093 4:0.020327432 5:0.012969741 6:0.031853288 7:0.015195435 8:0.027742511 9:0.0032427399 10:0.017509563 11:0.0060808375 12:0.027426792 13:0.010653728 14:0.057573244 15:0.009171485 16:0.042283885 
-400 1:0.76128739 2:0.57661504 3:0.092701159 4:0.12318582 5:0.080887735 6:0.12850145 7:0.082173236 8:0.12206565 9:0.031777103 10:0.070703253 11:0.032612372 12:0.086838029 13:0.05861032 14:0.14379375 15:0.051295333 16:0.11136118 
-400 1:0.33073705 2:0.25252578 3:0.08379399 4:0.093085401 5:0.078054331 6:0.085017726 7:0.082743019 8:0.093446612 9:0.029747663 10:0.040140666 11:0.032793507 12:0.056721352 13:0.05579542 14:0.096414275 15:0.046495207 16:0.071310394 
400 1:0.16403286 2:0.12133693 3:0.071222089 4:0.059423406 5:0.092158899 6:0.074353941 7:0.086594798 8:0.070282526 9:0.039984424 10:0.041819617 11:0.043099824 12:0.054850906 13:0.076265059 14:0.092129774 15:0.067692094 16:0.072327152 
400 1:0.92232829 2:0.71456182 3:0.10312593 4:0.13078444 5:0.093908973 6:0.13435148 7:0.094344646 8:0.13044456 9:0.034707699 10:0.070425108 11:0.03800102 12:0.087828226 13:0.065191835 14:0.14337821 15:0.058995519 16:0.1153941 
400 1:0.094626501 2:0.063063502 3:0.073280193 4:0.045149524 5:0.10230306 6:0.07254567 7:0.095036566 8:0.063412905 9:0.049494989 10:0.039781898 11:0.050926093 12:0.051007498 13:0.086438909 14:0.093461841 15:0.078695975 16:0.071892388 
-400 1:0.026082026 2:0.0069676572 3:0.079426289 4:0.046169292 5:0.10680814 6:0.068827309 7:0.10228739 8:0.067152023 9:0.058395773 10:0.045688704 11:0.058484223 12:0.053461034 13:0.097598895 14:0.091756031 15:0.088548683 16:0.071617633 
-400 1:0.76377952 2:0.57680744 3:0.10797095 4:0.12698561 5:0.09577027 6:0.12441763 7:0.097922929 8:0.12353577 9:0.035952795 10:0.063793831 11:0.038379394 12:0.080091998 13:0.067859605 14:0.13537812 15:0.061209638 16:0.10375033 
400 1:0.92411327 2:0.71465552 3:0.11350571 4:0.1338014 5:0.10630272 6:0.13469234 7:0.10640524 8:0.13356182 9:0.037993453 10:0.066676967 11:0.042003252 12:0.084348209 13:0.073367737 14:0.13962743 15:0.065913267 16:0.11132032 
-400 1:0.76549786 2:0.57685119 3:0.12114582 4:0.13305345 5:0.11210292 6:0.12358724 7:0.11354939 8:0.12900312 9:0.041494619 10:0.060993746 11:0.0443298 12:0.078171179 13:0.079199299 14:0.13095166 15:0.071684912 16:0.1019581 
-400 1:0.33767703 2:0.25404736 3:0.12524898 4:0.11243522 5:0.13116811 6:0.1050311 7:0.1309517 8:0.11391305 9:0.053106125 10:0.044234011 11:0.055556301 12:0.062366903 13:0.094494507 14:0.10361096 15:0.081897847 16:0.076250285 
-400 1:0.18518813 2:0.13013077 3:0.13560694 4:0.095729813 5:0.17423451 6:0.11884498 7:0.16308783 8:0.11145788 9:0.07799162 10:0.062415753 11:0.081132397 12:0.079896651 13:0.14376834 14:0.13157681 15:0.12872641 16:0.1015869 
-400 1:0.12278749 2:0.076365672 3:0.15969321 4:0.10189705 5:0.20431584 6:0.1372737 7:0.19420509 8:0.12818372 9:0.097743176 10:0.067396291 11:0.10024341 12:0.087871216 13:0.17128305 14:0.15265465 15:0.15559982 16:0.11933593 
-400 1:0.059652373 2:0.023255987 3:0.18381508 4:0.11910494 5:0.2281097 6:0.15597038 7:0.2248859 8:0.15790269 9:0.11928651 10:0.084807768 11:0.11896759 12:0.10906404 13:0.20613463 14:0.19274409 15:0.18582906 16:0.14829341 
-400 1:0.34355801 2:0.25569052 3:0.16298719 4:0.13557085 5:0.17720287 6:0.12646683 7:0.17268282 8:0.13650508 9:0.071855225 10:0.051078729 11:0.074485675 12:0.069642745 13:0.12880805 14:0.11401793 15:0.11110666 16:0.085302293 
400 1:0.20199804 2:0.1376577 3:0.19104199 4:0.13091953 5:0.23934634 6:0.15640002 7:0.22734208 8:0.14862634 9:0.10758029 10:0.079621404 11:0.11090344 12:0.10027692 13:0.19667464 14:0.16461225 15:0.1760259 16:0.12917419 
400 1:0.14826667 2:0.0870618 3:0.23944317 4:0.15924078 5:0.2913515 6:0.19463645 7:0.28226697 8:0.19057684 9:0.13554874 10:0.086657509 11:0.13994266 12:0.1200965 13:0.23887499 14:0.2068437 15:0.218215 16:0.15993609 
400 1:0.088954262 2:0.037642621 3:0.27419075 4:0.18458492 5:0.32248181 6:0.22571428 7:0.32542199 8:0.23424433 9:0.1641437 10:0.10767133 11:0.16437344 12:0.1478488 13:0.28531253 14:0.27045295 15:0.256969 16:0.20291781 
400 1:0.94054341 2:0.71772581 3:0.23519631 4:0.21124493 5:0.24964067 6:0.2057786 7:0.24375355 8:0.22294292 9:0.092018239 10:0.069063559 11:0.10146344 12:0.10096466 13:0.17088394 14:0.15919928 15:0.15785916 16:0.12981357 
400 1:0.7880125 2:0.58059943 3:0.25465381 4:0.22443403 5:0.2646316 6:0.20290045 7:0.26231772 8:0.22644182 9:0.10124855 10:0.070348173 11:0.10697833 12:0.099744394 13:0.18163139 14:0.15793978 15:0.16833854 16:0.13183077 
400 1:0.38136515 2:0.26762211 3:0.32016411 4:0.25031769 5:0.34885144 6:0.24055246 7:0.33772218 8:0.25034574 9:0.14127852 10:0.086966299 11:0.14431442 12:0.11539458 13:0.24697965 14:0.18690689 15:0.21810411 16:0.14169669 
400 1:0.25490594 2:0.16096149 3:0.35950556 4:0.25695321 5:0.42614973 6:0.29497096 7:0.406443 8:0.28620893 9:0.18610707 10:0.1342124 11:0.19216195 12:0.17347269 13:0.33878613 14:0.2808789 15:0.30125535 16:0.21912527 
400 1:0.19597466 2:0.11116347 3:0.39550504 4:0.27398872 5:0.45901662 6:0.32763633 7:0.45184615 8:0.32381335 9:0.21011239 10:0.14091395 11:0.21440929 12:0.19195688 13:0.36796507 14:0.32804915 15:0.33570269 16:0.2543503 
400 1:0.14315909 2:0.064529158 3:0.44344911 4:0.31996882 5:0.50804555 6:0.36403561 7:0.51312423 8:0.38899913 9:0.25036258 10:0.16965188 11:0.25096849 12:0.23391883 13:0.43769807 14:0.41899863 15:0.39370072 16:0.31639168 
400 1:0.37853643 2:0.29387653 3:0.13384986 4:0.22729141 5:0.14375016 6:0.26240641 7:0.14168905 8:0.27578101 9:0.058645964 10:0.10790427 11:0.06452097 12:0.16307297 13:0.1162879 14:0.25063786 15:0.10410588 16:0.21385226 
400 1:0.30386358 2:0.24138567 3:0.12388589 4:0.20976348 5:0.12712681 6:0.23799312 7:0.1313335 8:0.25519019 9:0.051275618 10:0.09593527 11:0.0579607 12:0.1475939 13:0.10599438 14:0.23415238 15:0.094410539 16:0.19653647 
-400 1:0.14123596 2:0.096604243 3:0.078242049 4:0.13751534 5:0.075653747 6:0.15023769 7:0.090249859 8:0.17736068 9:0.028662246 10:0.058378216 11:0.037499562 12:0.097554773 13:0.068660386 14:0.16244736 15:0.058911063 16:0.1318153 
400 1:0.058270816 2:0.039419658 3:0.046180051 4:0.088403158 5:0.054198626 6:0.10635205 7:0.064834654 8:0.13309832 9:0.021700867 10:0.044076435 11:0.026542194 12:0.074943997 13:0.053414267 14:0.12651598 15:0.045729142 16:0.10708336 
400 1:0.021666968 2:0.014537225 3:0.021258011 4:0.049292795 5:0.036421407 6:0.072998226 7:0.039328896 8:0.088377774 9:0.01572508 10:0.033434868 11:0.021466646 12:0.062115461 13:0.044457749 14:0.11450472 15:0.037006535 16:0.092579328 
400 1:0.37833413 2:0.29388198 3:0.13337049 4:0.21696091 5:0.12720108 6:0.2425983 7:0.13868804 8:0.26388052 9:0.049841654 10:0.096381493 11:0.058525056 12:0.15269303 13:0.1138763 14:0.24256797 15:0.099040911 16:0.20343053 
400 1:0.3040975 2:0.24118815 3:0.12811475 4:0.19891281 5:0.11437355 6:0.21624799 7:0.13731925 8:0.2476242 9:0.046951413 10:0.083459713 11:0.054882366 12:0.13567452 13:0.11005616 14:0.22780877 15:0.092706814 16:0.18556212 
-400 1:0.14517978 2:0.098828413 3:0.11483443 4:0.14146517 5:0.11298311 6:0.1399257 7:0.13692342 8:0.18823577 9:0.05599184 10:0.054488257 11:0.060588572 12:0.096828267 13:0.1080613 14:0.16853325 15:0.090776049 16:0.13189788 
-86.831564346456602 1:0.083063744 2:0.053587612 3:0.11825752 4:0.11436059 5:0.15249224 6:0.14377841 7:0.15079339 8:0.17423244 9:0.087550722 10:0.071648084 11:0.081548996 12:0.10404271 13:0.1453784 14:0.18248825 15:0.12416433 16:0.14459185 
-400 1:0.057456251 2:0.035625182 3:0.131488 4:0.10867076 5:0.18696143 6:0.16493616 7:0.17029017 8:0.16945036 9:0.10102948 10:0.078339964 11:0.095495693 12:0.11060353 13:0.16394965 14:0.20051728 15:0.14855771 16:0.15539166 
-400 1:0.034714371 2:0.018529763 3:0.16219357 4:0.14060399 5:0.21754526 6:0.18502726 7:0.2014132 8:0.18446626 9:0.11734655 10:0.088759966 11:0.11264104 12:0.11896676 13:0.19175258 14:0.19640315 15:0.1738131 16:0.15730476 
234.40776050283773 1:0.38376629 2:0.29673296 3:0.17701638 4:0.21645218 5:0.15753789 6:0.22782966 7:0.18560161 8:0.27211562 9:0.070585802 10:0.087800585 11:0.081922859 12:0.15182474 13:0.16335019 14:0.26035598 15:0.13996828 16:0.21156901 
-400 1:0.31106707 2:0.24490061 3:0.1825515 4:0.205993 5:0.16764559 6:0.21301624 7:0.20058598 8:0.2642886 9:0.084440276 10:0.085157849 11:0.091196902 12:0.14309461 13:0.17681047 14:0.25949618 15:0.14911018 16:0.20039324 
400 1:0.38587195 2:0.29866108 3:0.19307365 4:0.22219811 5:0.17390175 6:0.23102851 7:0.20370513 8:0.27596307 9:0.080173798 10:0.089309998 11:0.092700146 12:0.15472853 13:0.18364775 14:0.2719129 15:0.15738814 16:0.21788129 
-400 1:0.31351507 2:0.24708085 3:0.19608578 4:0.20988847 5:0.18623173 6:0.21589361 7:0.21717052 8:0.26976725 9:0.094220445 10:0.088433936 11:0.1022376 12:0.14732574 13:0.1957726 14:0.26734069 15:0.1648576 16:0.2069225 
-400 1:0.16442348 2:0.11048388 3:0.22710733 4:0.20280918 5:0.25420964 6:0.20918611 7:0.26547772 8:0.25948361 9:0.14144064 10:0.096408859 11:0.1421511 12:0.14514977 13:0.24536064 14:0.24789429 15:0.21604624 16:0.19802594 
-400 1:0.12104384 2:0.078709282 3:0.27501532 4:0.22866578 5:0.35155126 6:0.27427787 7:0.33590198 8:0.30238512 9:0.20009792 10:0.13518453 11:0.19107956 12:0.1831627 13:0.3364841 14:0.31636602 15:0.29206255 16:0.24603637 
-400 1:0.10066043 2:0.063279569 3:0.30518618 4:0.251903 5:0.40890434 6:0.32748392 7:0.38353136 8:0.33533889 9:0.21152641 10:0.14318271 11:0.20848487 12:0.19855793 13:0.3655276 14:0.34380829 15:0.32826263 16:0.26993799 
-400 1:0.17303249 2:0.11603563 3:0.26256251 4:0.21995249 5:0.298834 6:0.23166995 7:0.31487769 8:0.28372484 9:0.16066346 10:0.10419384 11:0.16267669 12:0.15577169 13:0.28120682 14:0.26611602 15:0.2485068 16:0.21321642 
-400 1:0.089400679 2:0.052839551 3:0.3922452 4:0.33468825 5:0.50615817 6:0.40528107 7:0.49483377 8:0.42658263 9:0.25102141 10:0.17175066 11:0.25551289 12:0.24502577 13:0.46253166 14:0.41604042 15:0.4114421 16:0.33157858 
-400 1:0.13424048 2:0.086682156 3:0.3281278 4:0.26157936 5:0.4099972 6:0.31007117 7:0.39802283 8:0.33433545 9:0.22194812 10:0.14640358 11:0.21484756 12:0.19800004 13:0.38295481 14:0.3457942 15:0.33103058 16:0.26900974 
-400 1:0.1240088 2:0.077163018 3:0.39822638 4:0.32253811 5:0.50223953 6:0.3880147 7:0.4847196 8:0.4040218 9:0.24565895 10:0.16242351 11:0.24649721 12:0.22636592 13:0.43700093 14:0.39341563 15:0.39161646 16:0.30798748 
-400 1:0.11129574 2:0.065763324 3:0.47408992 4:0.39990723 5:0.58505034 6:0.46173155 7:0.58230573 8:0.4982343 9:0.27917662 10:0.18763089 11:0.28775224 12:0.27219501 13:0.52976376 14:0.46630964 15:0.46701589 16:0.3692646 
400 1:0.42930737 2:0.3237156 3:0.31509364 4:0.27884176 5:0.28001505 6:0.2679981 7:0.31200114 8:0.31408164 9:0.12238519 10:0.10396127 11:0.13686161 12:0.16369185 13:0.25288701 14:0.29085276 15:0.22170566 16:0.22850692 
-400 1:0.36286706 2:0.27334324 3:0.33632618 4:0.28087887 5:0.31531438 6:0.26396084 7:0.34722036 8:0.32347789 9:0.14579885 10:0.10707516 11:0.15586655 12:0.16906123 13:0.28085008 14:0.29694763 15:0.24295942 16:0.22761022 
400 1:0.22807707 2:0.14885059 3:0.42282471 4:0.31993383 5:0.461615 6:0.32530153 7:0.47829124 8:0.37303776 9:0.22352031 10:0.13622734 11:0.22878209 12:0.19804473 13:0.39507204 14:0.3284418 15:0.35128874 16:0.26435009 
400 1:0.19439688 2:0.12090068 3:0.50345236 4:0.38547394 5:0.57864213 6:0.41821519 7:0.57278252 8:0.45636845 9:0.28496581 10:0.18635631 11:0.28115362 12:0.2505863 13:0.51038581 14:0.43020833 15:0.43953645 16:0.33531183 
-328.13400067158653 1:0.17735055 2:0.10707196 3:0.55261225 4:0.44163653 5:0.65607327 6:0.49484256 7:0.64825183 8:0.52453458 9:0.29833969 10:0.19696905 11:0.30571336 12:0.27842236 13:0.55214578 14:0.47565207 15:0.48990983 16:0.37485671 
-73.791624362421814 1:0.15391162 2:0.091252975 3:0.59992844 4:0.50176817 5:0.71316075 6:0.55448663 7:0.72237605 8:0.61023027 9:0.32404041 10:0.21955541 11:0.34022066 12:0.32222974 13:0.63755161 14:0.55249435 15:0.55713755 16:0.43934691 
400 1:0.16539642 2:0.13163784 3:0.13652138 4:0.21930449 5:0.14838067 6:0.26083505 7:0.13273998 8:0.23741733 9:0.060990259 10:0.11046188 11:0.062932253 12:0.14959106 13:0.1152696 14:0.24420537 15:0.10194194 16:0.20277695 
400 1:0.13674854 2:0.10597254 3:0.13265495 4:0.21102904 5:0.1336394 6:0.23774602 7:0.12721415 8:0.2278634 9:0.052233309 10:0.095235169 11:0.056858297 12:0.13744843 13:0.1047401 14:0.22399455 15:0.09626615 16:0.19265553 
-400 1:0.06255313 2:0.041158579 3:0.11284221 4:0.18063955 5:0.098251648 6:0.17529026 7:0.10108807 8:0.18209624 9:0.035084665 10:0.066547237 11:0.040138673 12:0.098491773 13:0.066847704 14:0.14457068 15:0.060742691 16:0.12881814 
400 1:0.023955369 2:0.015314686 3:0.07415361 4:0.1195109 5:0.084528483 6:0.14234012 7:0.082744345 8:0.14640662 9:0.03069007 10:0.054837223 11:0.03306054 12:0.080524832 13:0.056492455 14:0.12086576 15:0.052984167 16:0.10708424 
-400 1:0.0041071577 2:0.0020046153 3:0.039707936 4:0.068406925 5:0.062513523 6:0.10254937 7:0.054814614 8:0.097184487 9:0.026253002 10:0.044364009 11:0.029147815 12:0.065119505 13:0.049992517 14:0.11027987 15:0.045242701 16:0.089645192 
400 1:0.16758956 2:0.13229695 3:0.18872219 4:0.24220912 5:0.15775569 6:0.24259473 7:0.14632404 8:0.22364233 9:0.058063414 10:0.09820614 11:0.057618797 12:0.13310124 13:0.10286052 14:0.21953723 15:0.090661921 16:0.18113489 
400 1:0.14000742 2:0.106802 3:0.20551388 4:0.24360999 5:0.15978886 6:0.22786467 7:0.14982985 8:0.21569932 9:0.05736585 10:0.083941437 11:0.056720711 12:0.12026625 13:0.096625768 14:0.19744819 15:0.087445207 16:0.16916965 
-400 1:0.072753876 2:0.044125758 3:0.23698515 4:0.24232523 5:0.20973952 6:0.21556628 7:0.18392675 8:0.20760596 9:0.077631585 10:0.073533133 11:0.073130615 12:0.10236693 13:0.11214617 14:0.14674039 15:0.097482868 16:0.12022547 
-400 1:0.052756391 2:0.026314303 3:0.2283816 4:0.19818978 5:0.26208112 6:0.23289157 7:0.21581924 8:0.20732501 9:0.10687623 10:0.088461161 11:0.098375693 12:0.11575712 13:0.16303009 14:0.17989703 15:0.14384387 16:0.14136304 
-400 1:0.044813499 2:0.018233916 3:0.23961347 4:0.18296519 5:0.30110487 6:0.24624081 7:0.25223625 8:0.21039601 9:0.12356195 10:0.093833335 11:0.11687669 12:0.12029599 13:0.19457339 14:0.20416409 15:0.17597535 16:0.15520366 
-400 1:0.037440665 2:0.011121293 3:0.26170006 4:0.20071688 5:0.310159 6:0.2361614 7:0.28051838 8:0.22057314 9:0.12837809 10:0.086773723 11:0.12596141 12:0.11553244 13:0.20811671 14:0.18479432 15:0.19171935 16:0.14695142 
400 1:0.17748371 2:0.13542338 3:0.30292252 4:0.3213549 5:0.23262991 6:0.26094863 7:0.2246591 8:0.25578666 9:0.085771076 10:0.096572295 11:0.083503328 12:0.13119344 13:0.1325202 14:0.21288033 15:0.12151294 16:0.17448334 
-400 1:0.15430768 2:0.11066037 3:0.34175387 4:0.34169745 5:0.2662693 6:0.26624218 7:0.24522007 8:0.25958559 9:0.10480517 10:0.09372244 11:0.097170725 12:0.12644483 13:0.14552522 14:0.19755201 15:0.13366896 16:0.16493493 
400 1:0.18469216 2:0.13732727 3:0.34558311 4:0.34736568 5:0.26737255 6:0.27396172 7:0.2562682 8:0.26600358 9:0.10509345 10:0.10027738 11:0.10173313 12:0.13527076 13:0.15394168 14:0.21635714 15:0.14525102 16:0.17536694 
-400 1:0.1607832 2:0.11259049 3:0.38257077 4:0.35535952 5:0.32360342 6:0.28567082 7:0.28575063 8:0.26426929 9:0.13775334 10:0.10401163 11:0.12593524 12:0.14012043 13:0.18487832 14:0.20763463 15:0.17140108 16:0.1741271 
-400 1:0.10400029 2:0.05482037 3:0.42529404 4:0.37731761 5:0.43960837 6:0.34220365 7:0.36144432 8:0.30514938 9:0.1798521 10:0.12165529 11:0.16574955 12:0.15436877 13:0.26166674 14:0.22212337 15:0.23130557 16:0.17415474 
-400 1:0.091659494 2:0.042181402 3:0.43256974 4:0.35291314 5:0.5085324 6:0.39038426 7:0.42200899 8:0.33787814 9:0.21473569 10:0.14955893 11:0.20250534 12:0.18947376 13:0.34130892 14:0.30125132 15:0.29932827 16:0.22627228 
-142.86430980476757 1:0.089410074 2:0.037381984 3:0.4889802 4:0.370336 5:0.59888279 6:0.4452545 7:0.52312315 8:0.39691144 9:0.24595985 10:0.16753119 11:0.2400222 12:0.2148305 13:0.40567425 14:0.35469222 15:0.36614344 16:0.27187231 
-400 1:0.092186578 2:0.033002656 3:0.57947952 4:0.43834439 5:0.6792112 6:0.49666479 7:0.63933462 8:0.48600134 9:0.27405187 10:0.1856544 11:0.27825806 12:0.2521939 13:0.47020686 14:0.39873368 15:0.43098563 16:0.32032713 
-400 1:0.12133925 2:0.063148394 3:0.54799622 4:0.44805899 5:0.58376378 6:0.42765981 7:0.48650262 8:0.37177968 9:0.23531073 10:0.15217407 11:0.22017257 12:0.19087024 13:0.3530302 14:0.2773695 15:0.31176862 16:0.21433556 
400 1:0.11242837 2:0.051076304 3:0.56950676 4:0.43771276 5:0.67001939 6:0.49406487 7:0.57266909 8:0.42897105 9:0.27179962 10:0.18535465 11:0.26107708 12:0.23543178 13:0.44558695 14:0.37720904 15:0.39055631 16:0.2821207 
-400 1:0.11459343 2:0.050147418 3:0.64153779 4:0.49039844 5:0.75730652 6:0.56735736 7:0.68321955 8:0.51725608 9:0.29573032 10:0.20346828 11:0.29461202 12:0.26518792 13:0.50580794 14:0.43820187 15:0.45438847 16:0.33370247 
-400 1:0.11623131 2:0.045040645 3:0.72006583 4:0.57076603 5:0.80710536 6:0.61490452 7:0.7822575 8:0.62422484 9:0.30886886 10:0.21739113 11:0.320851 12:0.30074862 13:0.55179858 14:0.48434016 15:0.50274032 16:0.38607198 
400 1:0.25555921 2:0.16532452 3:0.66956943 4:0.60118937 5:0.53830272 6:0.42235169 7:0.52020115 8:0.41336936 9:0.20107894 10:0.14037696 11:0.20142464 12:0.18774909 13:0.29782587 14:0.27161014 15:0.28699124 16:0.22393183 
400 1:0.2256633 2:0.13829963 3:0.70465255 4:0.60551202 5:0.59409684 6:0.47014081 7:0.54335344 8:0.42174727 9:0.23827316 10:0.16049744 11:0.22246058 12:0.20166294 13:0.32685527 14:0.27988905 15:0.30216825 16:0.22648656 
144.43598351077475 1:0.18091454 2:0.088146545 3:0.82605708 4:0.69323754 5:0.82967347 6:0.65446496 7:0.70893216 8:0.56267273 9:0.3073768 10:0.21738525 11:0.29341856 12:0.26865631 13:0.48264343 14:0.40061414 15:0.42296994 16:0.30374405 
400 1:0.17229255 2:0.079144783 3:0.86640441 4:0.72199732 5:0.93688369 6:0.7564199 7:0.83323461 8:0.68184751 9:0.35346046 10:0.27626434 11:0.34420854 12:0.34259841 13:0.58980316 14:0.5477643 15:0.51785243 16:0.41166562 
332.11177829204848 1:0.16699296 2:0.076515958 3:0.90600985 4:0.75423461 5:0.9900375 6:0.81117576 7:0.91961503 8:0.76328743 9:0.36824766 10:0.29195544 11:0.36709821 12:0.36992055 13:0.61923182 14:0.58789587 15:0.55948907 16:0.45574698 
-400 1:0.15732753 2:0.067801774 3:0.9435007 4:0.79381222 5:1 6:0.82175744 7:0.98667169 8:0.84650713 9:0.37552136 10:0.30165353 11:0.3852801 12:0.39762676 13:0.65359491 14:0.62969673 15:0.59708714 16:0.50163233 
400 1:0.44902116 2:0.38140336 3:0.12254517 4:0.18302219 5:0.11396845 6:0.19879921 7:0.11700808 8:0.19249871 9:0.046411764 10:0.096708618 11:0.04878597 12:0.12644157 13:0.075696453 14:0.19079691 15:0.070917852 16:0.15652007 
-400 1:0.36583927 2:0.30267155 3:0.11900628 4:0.17739181 5:0.10480917 6:0.18406765 7:0.10574997 8:0.17642735 9:0.042553104 10:0.090133741 11:0.044510715 12:0.11816554 13:0.0689971 14:0.17817163 15:0.064724728 16:0.14765918 
-400 1:0.15160359 2:0.12094191 3:0.091500938 4:0.13314867 5:0.079279691 6:0.14235936 7:0.079595871 8:0.13212386 9:0.030218262 10:0.066867128 11:0.030858478 12:0.084934004 13:0.044194233 14:0.12442145 15:0.038442057 16:0.10158315 
400 1:0.063609861 2:0.051293943 3:0.055384804 4:0.082600802 5:0.06039609 6:0.10798255 7:0.058444504 8:0.097180322 9:0.020954 10:0.048112042 11:0.022254508 12:0.065449305 13:0.037252173 14:0.10669607 15:0.034448314 16:0.085415572 
-400 1:0.023761349 2:0.01973227 3:0.024906326 4:0.04204645 5:0.034260865 6:0.067967467 7:0.032445412 8:0.059425015 9:0.014811832 10:0.035279356 11:0.017158294 12:0.050456624 13:0.026881285 14:0.088820457 15:0.025305524 16:0.069621526 
400 1:0.44906297 2:0.38139194 3:0.13974786 4:0.19445758 5:0.1329481 6:0.20554313 7:0.12023868 8:0.18874693 9:0.044525113 10:0.087446824 11:0.046069775 12:0.11418899 13:0.079784855 14:0.1815619 15:0.069104157 16:0.14334969 
400 1:0.36612725 2:0.30260605 3:0.14601871 4:0.19643891 5:0.12876351 6:0.19055931 7:0.11662418 8:0.17652673 9:0.043814704 10:0.080205955 11:0.044077363 12:0.10495076 13:0.078529596 14:0.16749735 15:0.067479841 16:0.13510193 
-400 1:0.15416478 2:0.12206258 3:0.15025342 4:0.16909233 5:0.15979847 6:0.18276335 7:0.1493644 8:0.1700561 9:0.05160442 10:0.067145318 11:0.052312128 12:0.086784363 13:0.1016237 14:0.13826124 15:0.077120893 16:0.10137878 
-400 1:0.07963147 2:0.060066387 3:0.13357708 4:0.13285182 5:0.17578305 6:0.17402004 7:0.16160262 8:0.15938984 9:0.070147708 10:0.075771637 11:0.072350904 12:0.10084993 13:0.13645113 14:0.16523819 15:0.11926349 16:0.13060135 
-400 1:0.048448164 2:0.033349972 3:0.13685472 4:0.11612833 5:0.18902048 6:0.17366311 7:0.17614575 8:0.15528829 9:0.086872667 10:0.080030851 11:0.088766053 12:0.10557448 13:0.1546572 14:0.17890026 15:0.14019975 16:0.14104503 
-400 1:0.019909225 2:0.0088615026 3:0.15357208 4:0.12779635 5:0.19960715 6:0.17467354 7:0.18999828 8:0.16557755 9:0.099925548 10:0.08602342 11:0.10027848 12:0.1110383 13:0.16673726 14:0.17521746 15:0.15372524 16:0.14250122 
400 1:0.45113501 2:0.38214076 3:0.19669993 4:0.23048836 5:0.19875222 6:0.24109361 7:0.15678217 8:0.20594649 9:0.062893674 10:0.085427418 11:0.06247396 12:0.11217616 13:0.1163028 14:0.18951114 15:0.095989861 16:0.14407183 
-400 1:0.36829317 2:0.30368409 3:0.21553726 4:0.24935877 5:0.20637096 6:0.23155187 7:0.16867481 8:0.20413756 9:0.072013058 10:0.082533523 11:0.067305334 12:0.10605324 13:0.12843277 14:0.1818683 15:0.10660485 16:0.14152938 
400 1:0.45213145 2:0.38260382 3:0.22041847 4:0.24844697 5:0.22331238 6:0.25746369 7:0.17443606 8:0.21415003 9:0.073358655 10:0.088008769 11:0.071565911 12:0.11423489 13:0.13382232 14:0.19781031 15:0.1106139 16:0.14835058 
-400 1:0.36956736 2:0.30405098 3:0.23692246 4:0.26107085 5:0.22959265 6:0.24553281 7:0.18533657 8:0.21758735 9:0.081738912 10:0.085906647 11:0.076884106 12:0.11130647 13:0.1458399 14:0.18930671 15:0.12121663 16:0.14797838 
-400 1:0.16226529 2:0.12653491 3:0.25266549 4:0.24415836 5:0.29353225 6:0.27420568 7:0.26609752 8:0.25464481 9:0.10740258 10:0.09435603 11:0.10718904 12:0.12177169 13:0.20820148 14:0.20077625 15:0.16627891 16:0.14608243 
-400 1:0.10075819 2:0.072183907 3:0.2672061 4:0.23750094 5:0.35129109 6:0.30451927 7:0.32219955 8:0.28265756 9:0.14999005 10:0.1279157 11:0.15319283 12:0.16804749 13:0.28617254 14:0.27865157 15:0.2495303 16:0.21767001 
400 1:0.077148564 2:0.049932878 3:0.30076045 4:0.25576088 5:0.39626408 6:0.33781335 7:0.37488234 8:0.32165539 9:0.17847519 10:0.13989785 11:0.18553792 12:0.19110978 13:0.33021149 14:0.32168344 15:0.29796985 16:0.25669646 
-400 1:0.16968325 2:0.13134091 3:0.31399435 4:0.29402468 5:0.37938726 6:0.33890301 7:0.34512338 8:0.31650791 9:0.14315516 10:0.1149544 11:0.14376932 12:0.14877531 13:0.27648076 14:0.24970835 15:0.22569661 16:0.18290617 
-398.73132010821809 1:0.057277832 2:0.030346842 3:0.35132611 4:0.29378441 5:0.44562641 6:0.37439546 7:0.43106633 8:0.37765172 9:0.21203952 10:0.16183317 11:0.2193462 12:0.22204083 13:0.38581473 14:0.37478021 15:0.34658295 16:0.29422382 
164.13294866529623 1:0.11626474 2:0.081194758 3:0.35236865 4:0.30728275 5:0.45810401 6:0.39030495 7:0.42627215 8:0.36811018 9:0.19389006 10:0.1561102 11:0.19980869 12:0.20987688 13:0.37494209 14:0.35375509 15:0.32723144 16:0.27518761 
400 1:0.098411381 2:0.062230993 3:0.40576336 4:0.35408068 5:0.51767755 6:0.44469109 7:0.49560404 8:0.4369787 9:0.22723292 10:0.17456388 11:0.23883137 12:0.24352951 13:0.43100452 14:0.4120096 15:0.38624638 16:0.32840508 
400 1:0.077725567 2:0.043029636 3:0.4579004 4:0.40196952 5:0.57147342 6:0.49439397 7:0.55687296 8:0.50513756 9:0.26074159 10:0.19851664 11:0.27368903 12:0.28007856 13:0.49218974 14:0.48260087 15:0.43860248 16:0.37712187 
400 1:0.47540358 2:0.39758587 3:0.44383967 4:0.45816249 5:0.50225687 6:0.49049568 7:0.36270481 8:0.3726941 9:0.1817109 10:0.14371479 11:0.16831249 12:0.18268657 13:0.31646055 14:0.32009876 15:0.2671926 16:0.24171285 
-80.937484391966407 1:0.39818674 2:0.31866547 3:0.46772593 4:0.48769176 5:0.51114506 6:0.47676387 7:0.39708713 8:0.40103132 9:0.19697797 10:0.15015836 11:0.18307196 12:0.18815766 13:0.34400579 14:0.32599685 15:0.29479262 16:0.25345245 
400 1:0.21237962 2:0.15534036 3:0.54719496 4:0.51432258 5:0.66052449 6:0.594679 7:0.60081023 8:0.56178975 9:0.25524345 10:0.19638702 11:0.25788638 12:0.26059127 13:0.49355447 14:0.44286567 15:0.41382262 16:0.33048886 
400 1:0.16614397 2:0.11053113 3:0.59348899 4:0.54592693 5:0.74446172 6:0.65850419 7:0.69635493 8:0.63600498 9:0.30948624 10:0.24719818 11:0.322319 12:0.34121305 13:0.61873913 14:0.57988399 15:0.53274119 16:0.45309776 
-400 1:0.14612758 2:0.092533536 3:0.6355893 4:0.58845478 5:0.78238046 6:0.69067466 7:0.75475478 8:0.69853038 9:0.32598552 10:0.25357124 11:0.35019338 12:0.36714524 13:0.65569639 14:0.63371038 15:0.57753527 16:0.49987718 
400 1:0.11664001 2:0.066261247 3:0.64733857 4:0.58757043 5:0.79616803 6:0.70529926 7:0.78015321 8:0.72721291 9:0.3456409 10:0.26592359 11:0.37239927 12:0.38756016 13:0.69395608 14:0.69327474 15:0.61019146 16:0.53259534 
400 1:0.31658787 2:0.30942008 3:0.14739744 4:0.21879229 5:0.18197121 6:0.26199013 7:0.16505536 8:0.24106307 9:0.15891369 10:0.17230372 11:0.1851653 12:0.25855693 13:0.16121766 14:0.26602167 15:0.23698871 16:0.26972252 
400 1:0.28111196 2:0.26924643 3:0.17276865 4:0.22210146 5:0.16906008 6:0.23964375 7:0.2211768 8:0.26343745 9:0.2306433 10:0.24440683 11:0.10030959 12:0.16018391 13:0.11989567 14:0.22881909 15:0.14001997 16:0.19848071 
103.16586306582508 1:0.17593886 2:0.17472097 3:0.23480225 4:0.22104514 5:0.17814484 6:0.22366464 7:0.17931493 8:0.21622917 9:0.22389999 10:0.2299917 11:0.21564408 12:0.27043742 13:0.19957511 14:0.25973299 15:0.12218872 16:0.16548972 
-400 1:0.074829079 2:0.076507449 3:0.092007257 4:0.11658704 5:0.14964025 6:0.17961527 7:0.14768779 8:0.17678685 9:0.19418827 10:0.26476043 11:0.067187361 12:0.12555766 13:0.11231534 14:0.17789352 15:0.13732274 16:0.2113198 
-400 1:0.02954735 2:0.032092076 3:0.16226931 4:0.11997899 5:0.13346653 6:0.1502724 7:0.16478211 8:0.15295228 9:0.091184147 10:0.14977109 11:0.12813105 12:0.24622445 13:0.076510057 14:0.14565362 15:0.21151228 16:0.27482629 
-320.65934336097212 1:0.31648496 2:0.30916911 3:0.14680061 4:0.21662049 5:0.17723083 6:0.25598934 7:0.16533019 8:0.23897715 9:0.18260041 10:0.18376912 11:0.21116981 12:0.27621534 13:0.17473806 14:0.27144793 15:0.26614994 16:0.28344905 
-400 1:0.28116816 2:0.26903152 3:0.18458155 4:0.22529539 5:0.16915761 6:0.2355409 7:0.23297797 8:0.26537922 9:0.26068857 10:0.2613849 11:0.11760575 12:0.17061566 13:0.12794492 14:0.23074333 15:0.15258038 16:0.20116231 
-400 1:0.17616349 2:0.17447321 3:0.26205131 4:0.22975154 5:0.1711427 6:0.21469627 7:0.18852206 8:0.21889731 9:0.27332702 10:0.26111844 11:0.26196083 12:0.30548534 13:0.23024563 14:0.2723192 15:0.15244652 16:0.17835161 
400 1:0.31610307 2:0.30888519 3:0.14951523 4:0.2166256 5:0.17722052 6:0.25381252 7:0.16842373 8:0.23900332 9:0.1987423 10:0.19174856 11:0.22985813 12:0.29026389 13:0.18611592 14:0.27697274 15:0.28609115 16:0.29331252 
-400 1:0.085907966 2:0.083418332 3:0.099982269 4:0.11906011 5:0.15354314 6:0.17155018 7:0.15701544 8:0.18065789 9:0.24260661 10:0.30314749 11:0.094390504 12:0.15133055 13:0.12870552 14:0.17972977 15:0.1632998 16:0.22948274 
-400 1:0.045314912 2:0.042176574 3:0.1994195 4:0.13416861 5:0.13028012 6:0.14181857 7:0.19461972 8:0.1679778 9:0.10941816 10:0.16609178 11:0.16274391 12:0.28122476 13:0.082640134 14:0.14305574 15:0.25850067 16:0.30823594 
-400 1:0.28087577 2:0.26895097 3:0.20095249 4:0.23088166 5:0.17400952 6:0.23484209 7:0.24844265 8:0.27113673 9:0.29037902 10:0.27992976 11:0.13432266 12:0.18082924 13:0.1396163 14:0.23490267 15:0.16676964 16:0.20613065 
-400 1:0.010930945 2:0.0058898106 3:0.033810697 4:0.028365666 5:0.04147977 6:0.03474636 7:0.030710129 8:0.029416081 9:0.0082275337 10:0.010821497 11:0.0062708436 12:0.013573215 13:0.019332407 14:0.029891741 15:0.012860442 16:0.022214169 
400 1:0.31572074 2:0.30863461 3:0.15591085 4:0.21851212 5:0.18027943 6:0.25268501 7:0.17569005 8:0.24081877 9:0.22621432 10:0.20532829 11:0.26050216 12:0.31463698 13:0.20679513 14:0.28729007 15:0.32027555 16:0.31286612 
400 1:0.17718673 2:0.17465101 3:0.29992279 4:0.2454197 5:0.1720553 6:0.21166138 7:0.20564415 8:0.2285765 9:0.32970786 10:0.29954848 11:0.31669447 12:0.35047927 13:0.26921245 14:0.29251757 15:0.19128259 16:0.20008333 
-357.33369100281112 1:0.28109699 2:0.26861718 3:0.23332912 4:0.24459133 5:0.19027582 6:0.23834436 7:0.28029144 8:0.2834374 9:0.3413268 10:0.31177703 11:0.16496898 12:0.20338514 13:0.1639702 14:0.24613439 15:0.19623421 16:0.21776605 
400 1:0.098724529 2:0.091658838 3:0.12513959 4:0.13543636 5:0.17631778 6:0.17707914 7:0.1797545 8:0.19720963 9:0.30373305 10:0.35270441 11:0.12841469 12:0.18699814 13:0.1593688 14:0.19273734 15:0.20090035 16:0.25776261 
-190.62188035472204 1:0.06294705 2:0.053676192 3:0.26129121 4:0.16652399 5:0.1446383 6:0.14967121 7:0.24628024 8:0.20057237 9:0.13654581 10:0.18971862 11:0.20881422 12:0.32919702 13:0.10253194 14:0.15256935 15:0.3228057 16:0.35514331 
400 1:0.040354379 2:0.025515705 3:0.11636746 4:0.099343166 5:0.14978439 6:0.1279362 7:0.12045534 8:0.11510141 9:0.048921052 10:0.054192521 11:0.039500669 12:0.058932375 13:0.091265284 14:0.10765369 15:0.071351655 16:0.083332144 
-394.65521848694254 1:0.18348272 2:0.17756355 3:0.39296526 4:0.28667447 5:0.18876225 6:0.22035921 7:0.25076291 8:0.25702494 9:0.44301775 10:0.37665349 11:0.42895514 12:0.43635082 13:0.35370269 14:0.3344363 15:0.27443808 16:0.25027868 
276.0662452251002 1:0.1267734 2:0.10783347 3:0.19464788 4:0.18639468 5:0.24442387 6:0.21737336 7:0.24182549 8:0.24458177 9:0.41804063 10:0.45318994 11:0.19663651 12:0.25800323 13:0.23245332 14:0.23851478 15:0.28280064 16:0.32028702 
108.98745421717722 1:0.098859318 2:0.075494379 3:0.39491838 4:0.24479003 5:0.19425972 6:0.1916306 7:0.36227727 8:0.2774193 9:0.19288778 10:0.24885495 11:0.30020291 12:0.42304966 13:0.15734999 14:0.19019067 15:0.45645925 16:0.4469431 
400 1:0.090981349 2:0.055701222 3:0.24691813 4:0.20496249 5:0.32387304 6:0.26710927 7:0.26496392 8:0.23970376 9:0.11264768 10:0.11091255 11:0.095949464 12:0.12508656 13:0.20600177 14:0.22552231 15:0.16830087 16:0.17272606 
5.620739848091886 1:0.40079412 2:0.34168372 3:0.49902955 4:0.49679387 5:0.47193849 6:0.47199574 7:0.47120574 8:0.49567068 9:0.70467991 10:0.53877205 11:0.73936999 12:0.744807 13:0.62248176 14:0.57830894 15:0.86091334 16:0.67239505 
33.063023638242299 1:0.378315 2:0.31134903 3:0.7589674 4:0.64520448 5:0.56563658 6:0.53646034 7:0.75442386 8:0.63245815 9:0.87036896 10:0.70228875 11:0.54336542 12:0.52576286 13:0.52618045 14:0.50578368 15:0.6377089 16:0.48041692 
9.5464794083223943 1:0.30328637 2:0.2374393 3:1 4:0.76269621 5:0.42908761 6:0.4822596 7:0.59882534 8:0.59966987 9:1 10:0.90567845 11:1 12:1 13:0.82994467 14:0.68059641 15:0.75421131 16:0.64328337 
-65.261827849636546 1:0.27359629 2:0.20331597 3:0.56796205 4:0.60762227 5:0.61695707 6:0.59617269 7:0.58115447 8:0.64901453 9:0.86273068 10:1 11:0.48961985 12:0.63227749 13:0.58615124 14:0.57610941 15:0.64929736 16:0.71864969 
6.9857806359182542 1:0.25946009 2:0.18752842 3:0.9790073 4:0.77403539 5:0.50617033 6:0.57498246 7:0.89546859 8:0.78836846 9:0.44349408 10:0.56593037 11:0.6681996 12:0.94964916 13:0.45516717 14:0.53732848 15:1 16:1 
-267.81503350687478 1:0.24496265 2:0.17275274 3:0.67258525 4:0.6845383 5:0.88694572 6:0.86980212 7:0.73115551 8:0.73801929 9:0.32471612 10:0.39528546 11:0.28808171 12:0.409473 13:0.58037406 14:0.79625344 15:0.48336312 16:0.55345666 
-400 1:0.89181268 2:0.87712753 3:0.087678768 4:0.11421873 5:0.073221415 6:0.15422447 7:0.079462156 8:0.17652315 9:0.056582108 10:0.082429588 11:0.045775883 12:0.13107254 13:0.093091525 14:0.25527906 15:0.074656248 16:0.1935055 
-400 1:0.77739829 2:0.78110856 3:0.086636171 4:0.10820174 5:0.069803521 6:0.1395898 7:0.080605268 8:0.1696412 9:0.052847162 10:0.07360521 11:0.043160327 12:0.12266726 13:0.090428077 14:0.24285591 15:0.071667261 16:0.18395633 
400 1:0.45193231 2:0.43022755 3:0.063617751 4:0.068626523 5:0.061369237 6:0.091284961 7:0.065552935 8:0.12235814 9:0.031992223 10:0.037582476 11:0.030001927 12:0.080815874 13:0.07100527 14:0.17294933 15:0.050305918 16:0.13045517 
-400 1:0.20391959 2:0.19295934 3:0.03326685 4:0.037470933 5:0.043237947 6:0.059039064 7:0.044171408 8:0.082973734 9:0.02111052 10:0.029845985 11:0.021330278 12:0.059144791 13:0.05135262 14:0.13063118 15:0.040949896 16:0.097747885 
-400 1:0.091380529 2:0.089208253 3:0.010027776 4:0.014775464 5:0.019743148 6:0.032445002 7:0.01834107 8:0.047066733 9:0.010839093 10:0.014626238 11:0.010679445 12:0.035798352 13:0.034173697 14:0.10381418 15:0.026760072 16:0.074829742 
-400 1:0.89193892 2:0.87723911 3:0.096107349 4:0.11403461 5:0.072085336 6:0.14797153 7:0.082116842 8:0.1723879 9:0.053208068 10:0.078392208 11:0.042874083 12:0.12735672 13:0.090526991 14:0.2513662 15:0.071565047 16:0.18986414 
-331.25477837955833 1:0.77749699 2:0.78130603 3:0.097496934 4:0.10748415 5:0.069010429 6:0.13109383 7:0.084563211 8:0.16436732 9:0.048797373 10:0.068140455 11:0.039371982 12:0.11743446 13:0.086864427 14:0.23677084 15:0.067583412 16:0.17863964 
400 1:0.45218721 2:0.43043137 3:0.074076056 4:0.065474808 5:0.062997214 6:0.082207039 7:0.069858998 8:0.11492474 9:0.029332766 10:0.032513816 11:0.027078066 12:0.074225657 13:0.065482862 14:0.16128035 15:0.044514153 16:0.12151597 
-400 1:0.21186075 2:0.19815192 3:0.041059751 4:0.033441957 5:0.04735117 6:0.05225696 7:0.047380466 8:0.07568901 9:0.023960354 10:0.032441989 11:0.023119787 12:0.057592589 13:0.050572343 14:0.12478369 15:0.041929405 16:0.094431318 
400 1:0.10416093 2:0.097609162 3:0.019680481 4:0.012123942 5:0.029536884 6:0.033029053 7:0.025341483 8:0.043272041 9:0.014823599 10:0.017010497 11:0.013924486 12:0.034055479 13:0.037566744 14:0.10199201 15:0.03105172 16:0.074406736 
-400 1:0.0036120822 2:0.0014441817 8:0.0033509901 9:0.00093244197 10:0.002266824 12:0.0038954655 13:0.0058128433 14:0.020019053 15:0.00034709636 16:0.010173953 
400 1:0.89198983 2:0.8772096 3:0.10605788 4:0.11455956 5:0.072876014 6:0.1417383 7:0.086315125 8:0.16834681 9:0.050210986 10:0.074693777 11:0.04050725 12:0.12366585 13:0.088551283 14:0.24726121 15:0.069211863 16:0.18612675 
-400 1:0.77756435 2:0.78142941 3:0.10490242 4:0.10744321 5:0.070060663 6:0.12660193 7:0.088061638 8:0.16134602 9:0.046825435 10:0.06584131 11:0.037671249 12:0.11462525 13:0.085303098 14:0.23339099 15:0.065852486 16:0.17562504 
-400 1:0.45248419 2:0.4307659 3:0.082579628 4:0.064631209 5:0.067219816 6:0.079048611 7:0.074632145 8:0.11159912 9:0.028686976 10:0.031888615 11:0.026838452 12:0.071814463 13:0.064009801 14:0.15620323 15:0.0431218 16:0.11753055 
400 1:0.015089938 2:0.0088274246 3:0.019942157 4:0.015572113 5:0.023799902 6:0.017271474 7:0.023236301 8:0.023356952 9:0.011787948 10:0.01003856 11:0.010532375 12:0.014828124 13:0.027761918 14:0.041765708 15:0.018084507 16:0.025886392 
-400 1:0.89271885 2:0.8778761 3:0.13470419 4:0.11713575 5:0.082108431 6:0.1314038 7:0.10141384 8:0.15997282 9:0.044560034 10:0.069218822 11:0.037003044 12:0.11680038 13:0.086279221 14:0.23904301 15:0.066524163 16:0.17857976 
400 1:0.77847004 2:0.78162497 3:0.13233078 4:0.10925076 5:0.080174252 6:0.11629715 7:0.10318801 8:0.1534114 9:0.042097304 10:0.060617097 11:0.034585234 12:0.10755686 13:0.082549006 14:0.22368886 15:0.063087188 16:0.16734073 
400 1:0.45560649 2:0.43222979 3:0.1117257 4:0.068443663 5:0.088544935 6:0.076746546 7:0.094224297 8:0.10715202 9:0.031763684 10:0.03177866 11:0.030698292 12:0.068285219 13:0.064948857 14:0.14611009 15:0.04671745 16:0.1103416 
400 1:0.23350273 2:0.21128494 3:0.080840163 4:0.043659218 5:0.082018495 6:0.057184566 7:0.078133136 8:0.076751731 9:0.037943002 10:0.039192855 11:0.036948558 12:0.061844304 13:0.064820409 14:0.12431659 15:0.059259452 16:0.096975699 
400 1:0.14030731 2:0.11869972 3:0.080044933 4:0.042453695 5:0.092529491 6:0.061095979 7:0.083768755 8:0.067737319 9:0.037987389 10:0.028516347 11:0.038355719 12:0.046146549 13:0.07746958 14:0.11787555 15:0.066690326 16:0.0890515 
400 1:0.048750803 2:0.028311243 3:0.077166855 4:0.05472121 5:0.093119368 6:0.060065504 7:0.090830483 8:0.075677596 9:0.04073222 10:0.026871987 11:0.040549114 12:0.042928759 13:0.093513891 14:0.098263547 15:0.070238262 16:0.067215376 
400 1:0.89738709 2:0.87966192 3:0.23656324 4:0.14803763 5:0.14605455 6:0.12322307 7:0.1698295 8:0.15561499 9:0.043384284 10:0.060597178 11:0.04441594 12:0.10150062 13:0.096844666 14:0.21662359 15:0.080124639 16:0.15983178 
400 1:0.78507531 2:0.78393054 3:0.22984992 4:0.13598247 5:0.14559112 6:0.11342592 7:0.16891523 8:0.14782298 9:0.046048854 10:0.055311181 11:0.044034228 12:0.093113936 13:0.092514329 14:0.19930212 15:0.076067708 16:0.1491165 
400 1:0.4681522 2:0.43875784 3:0.19190598 4:0.095835194 5:0.16473617 6:0.096926913 7:0.15753326 8:0.11723715 9:0.057643581 10:0.04358181 11:0.053756729 12:0.069934055 13:0.089741133 14:0.13643698 15:0.075798862 16:0.10535105 
400 1:0.26964536 2:0.23145704 3:0.16080987 4:0.082039855 5:0.17025462 6:0.09532702 7:0.15476552 8:0.10665893 9:0.080158666 10:0.062253632 11:0.073743336 12:0.082621865 13:0.11849547 14:0.14936808 15:0.11114533 16:0.12014249 
400 1:0.17988417 2:0.14169946 3:0.15557781 4:0.087817281 5:0.1790739 6:0.10933298 7:0.16444965 8:0.11650802 9:0.07413391 10:0.053408492 11:0.074769847 12:0.072782427 13:0.1399077 14:0.15641941 15:0.12238467 16:0.12249395 
400 1:0.09531299 2:0.055019863 3:0.15654309 4:0.11026463 5:0.19077528 6:0.12596168 7:0.1868692 8:0.15541132 9:0.082303032 10:0.058118951 11:0.083297439 12:0.087399513 13:0.18558875 14:0.1857003 15:0.14465947 16:0.13346092 
400 1:0.29906148 2:0.49966067 3:0.20966755 4:0.22512342 5:0.18234801 6:0.25913495 7:0.181152 8:0.27063414 9:0.076495305 10:0.11355823 11:0.072626039 12:0.16817351 13:0.13023037 14:0.28616285 15:0.11312745 16:0.23178393 
170.77222956522027 1:0.25124562 2:0.41343921 3:0.20718797 4:0.22459891 5:0.17199299 6:0.2462008 7:0.17561793 8:0.25942579 9:0.071098931 10:0.10650096 11:0.067404158 12:0.1582578 13:0.12285937 14:0.27193201 15:0.10533581 16:0.21917436 
-400 1:0.10998072 2:0.17255472 3:0.17021295 4:0.18689212 5:0.13651168 6:0.19793445 7:0.14355102 8:0.20719112 9:0.046385434 10:0.079644941 11:0.048898373 12:0.1199593 13:0.088640019 14:0.19757205 15:0.070234619 16:0.15693215 
400 1:0.044635206 2:0.074708343 3:0.11294335 4:0.12178741 5:0.11612602 6:0.15445882 7:0.10971311 8:0.15326008 9:0.033685487 10:0.071232572 11:0.039102346 12:0.097168297 13:0.065674618 14:0.1443864 15:0.060398385 16:0.12514697 
400 1:0.014611768 2:0.031591404 3:0.061289422 4:0.065703787 5:0.077218689 6:0.097477727 7:0.066787913 8:0.092703871 9:0.023437774 10:0.055612031 11:0.025667487 12:0.063461937 13:0.043013971 14:0.11165807 15:0.041050907 16:0.088399701 
400 1:0.2983478 2:0.49937779 3:0.23668657 4:0.23029172 5:0.19060051 6:0.25859776 7:0.19282645 8:0.26795262 9:0.071964018 10:0.10991071 11:0.069528833 12:0.16369881 13:0.12843864 14:0.28058839 15:0.11020781 16:0.22683699 
-400 1:0.25023913 2:0.41275597 3:0.24444903 4:0.23309293 5:0.18501306 6:0.24582788 7:0.19366586 8:0.25617832 9:0.065757141 10:0.10216255 11:0.064121358 12:0.15190303 13:0.12157166 14:0.26299873 15:0.10250554 16:0.21149398 
-400 1:0.11066635 2:0.17328759 3:0.22300264 4:0.20557621 5:0.16230489 6:0.20466298 7:0.17571779 8:0.207487 9:0.043506671 10:0.080498137 11:0.04985939 12:0.11627375 13:0.089618489 14:0.18134595 15:0.071273275 16:0.1442989 
400 1:0.29766676 2:0.49920925 3:0.28349799 4:0.24365692 5:0.21231773 6:0.26232472 7:0.21802074 8:0.26652294 9:0.069687016 10:0.10646318 11:0.069210641 12:0.1578176 13:0.13230087 14:0.27303106 15:0.112063 16:0.22045884 
400 1:0.032624673 2:0.050898813 3:0.13008155 4:0.094443373 5:0.14032139 6:0.13939793 7:0.12260064 8:0.11173539 9:0.038589284 10:0.076329485 11:0.042555612 12:0.076660395 13:0.066762164 14:0.117425 15:0.066017471 16:0.094552092 
-400 1:0.01002862 2:0.015071459 3:0.094007351 4:0.075980186 5:0.086844139 6:0.084774442 7:0.079029694 8:0.080403857 9:0.022631705 10:0.039548039 11:0.02359288 12:0.043821633 13:0.039814077 14:0.059549164 15:0.035232369 16:0.047104798 
351.44444747714556 1:0.29772475 2:0.49916223 3:0.30326596 4:0.25085229 5:0.22353017 6:0.26676387 7:0.23056737 8:0.26657265 9:0.069962725 10:0.10555216 11:0.070449769 12:0.1563708 13:0.13482422 14:0.27036011 15:0.11516623 16:0.21867517 
-400 1:0.25018325 2:0.41281044 3:0.30317211 4:0.2497844 5:0.21620362 6:0.25318319 7:0.22841302 8:0.25625035 9:0.065242112 10:0.10090589 11:0.066269577 12:0.14623912 13:0.12929164 14:0.25400302 15:0.10812528 16:0.20403126 
-400 1:0.2506102 2:0.41329214 3:0.32835692 4:0.25891227 5:0.23100297 6:0.25951561 7:0.24314871 8:0.25683969 9:0.065962151 10:0.10086963 11:0.068255588 12:0.14510061 13:0.13315228 14:0.25106364 15:0.11160373 16:0.20192669 
-400 1:0.11619874 2:0.17778966 3:0.32898235 4:0.25105977 5:0.23372069 6:0.24067138 7:0.25139612 8:0.2278643 9:0.055612605 10:0.093659401 11:0.065909073 12:0.12344231 13:0.11197823 14:0.17462738 15:0.094891749 16:0.14168313 
400 1:0.070187807 2:0.10058829 3:0.26721069 4:0.18490668 5:0.24218893 6:0.22637452 7:0.22713843 8:0.18636766 9:0.066752918 10:0.11128047 11:0.075798467 12:0.12697487 13:0.11406111 14:0.15739723 15:0.11315467 16:0.13582097 
-400 1:0.11965837 2:0.18005393 3:0.37175277 4:0.27612045 5:0.26353231 6:0.25908723 7:0.28167927 8:0.24051204 9:0.062191021 10:0.10266311 11:0.074002206 12:0.12799662 13:0.12347727 14:0.17492667 15:0.10623959 16:0.14355147 
400 1:0.057222974 2:0.07492502 3:0.26583746 4:0.18549146 5:0.26141655 6:0.23595384 7:0.23753823 8:0.18933463 9:0.078476436 10:0.12440172 11:0.083121434 12:0.12477909 13:0.13065046 14:0.16317917 15:0.12726988 16:0.13638854 
-153.18972907740849 1:0.039303675 2:0.044141315 3:0.24493819 4:0.20643105 5:0.22674249 6:0.21835017 7:0.21663432 8:0.21519193 9:0.074081093 10:0.11304644 11:0.075238563 12:0.12643993 13:0.13208586 14:0.16903256 15:0.11680318 16:0.13837849 
400 1:0.084906034 2:0.11421263 3:0.35143724 4:0.24325927 5:0.31583989 6:0.28365365 7:0.29649216 8:0.22801848 9:0.092990376 10:0.13503358 11:0.10083201 12:0.15059143 13:0.15260044 14:0.181648 15:0.14981224 16:0.1572542 
400 1:0.066830531 2:0.083365113 3:0.30929631 4:0.21854012 5:0.3017152 6:0.27131483 7:0.27650577 8:0.22237934 9:0.093022943 10:0.1274744 11:0.097053483 12:0.13098606 13:0.1537243 14:0.18072505 15:0.14845034 16:0.14927034 
400 1:0.063906483 2:0.066421337 3:0.35258296 4:0.28364849 5:0.33462787 6:0.30683139 7:0.3215242 8:0.30679563 9:0.11804152 10:0.13350224 11:0.11526443 12:0.1635154 13:0.20690496 14:0.2514745 15:0.18116106 16:0.20049034 
400 1:0.33274299 2:0.53243339 3:0.86996579 4:0.59771323 5:0.61522937 6:0.55392796 7:0.61682576 8:0.39078632 9:0.12771696 10:0.16395295 11:0.1475482 12:0.17952064 13:0.27657846 14:0.2847257 15:0.24250485 16:0.23112044 
400 1:0.29484704 2:0.45060822 3:0.89526868 4:0.61191702 5:0.63280892 6:0.55942172 7:0.63720554 8:0.41093332 9:0.13419732 10:0.19379236 11:0.15421474 12:0.19323121 13:0.28463182 14:0.27446783 15:0.25001228 16:0.23016436 
5.5790578963804265 1:0.18115076 2:0.242339 3:0.84592104 4:0.67070758 5:0.64361393 6:0.6264348 7:0.65449226 8:0.51198053 9:0.17122141 10:0.26339895 11:0.18774901 12:0.27171466 13:0.30009511 14:0.30333692 15:0.27622649 16:0.26736206 
-400 1:0.16303432 2:0.20148188 3:0.78550571 4:0.66573286 5:0.71936977 6:0.7188437 7:0.67670363 8:0.59734625 9:0.24107547 10:0.38343397 11:0.24593221 12:0.3964403 13:0.38274878 14:0.46546543 15:0.36780027 16:0.39332011 
400 1:0.1537267 2:0.18121402 3:0.73866045 4:0.6940186 5:0.72398353 6:0.76101983 7:0.68093091 8:0.68116033 9:0.25546914 10:0.40895805 11:0.25703195 12:0.42546141 13:0.41885424 14:0.54057193 15:0.3962321 16:0.46918464 
83.842219208818079 1:0.14459047 2:0.1631698 3:0.72785068 4:0.7808885 5:0.69778049 6:0.81679761 7:0.68714315 8:0.81617624 9:0.26878804 10:0.42669329 11:0.25919345 12:0.49038154 13:0.47009227 14:0.73577631 15:0.41169286 16:0.58864862 
400 1:0.81984597 2:0.95089924 3:0.064681217 4:0.13672692 5:0.057081591 6:0.15070026 7:0.053794511 8:0.14535379 9:0.038222976 10:0.095279031 11:0.02916139 12:0.11327367 13:0.046941098 14:0.18096237 15:0.040039808 16:0.14497283 
400 1:0.72209293 2:0.79755974 3:0.064930327 4:0.13220116 5:0.053462524 6:0.13573916 7:0.053601153 8:0.1372004 9:0.036827747 10:0.087383926 11:0.027494811 12:0.1067503 13:0.045783538 14:0.17178494 15:0.037873924 16:0.13801472 
400 1:0.3797304 2:0.37974724 3:0.05630897 4:0.09192621 5:0.044019457 6:0.094440341 7:0.045305807 8:0.096146688 9:0.025448058 10:0.053618148 11:0.0200735 12:0.071826056 13:0.035924647 14:0.12610814 15:0.024402054 16:0.094976775 
400 1:0.16949549 2:0.17240949 3:0.035885464 4:0.050449498 5:0.035082519 6:0.064520463 7:0.033231888 8:0.060547486 9:0.014283908 10:0.034705032 11:0.011635467 12:0.045947667 13:0.025313405 14:0.08734934 15:0.02035949 16:0.066464663 
400 1:0.075495839 2:0.078165323 3:0.015153416 4:0.021322303 5:0.016990257 6:0.032251045 7:0.014589704 8:0.028526969 9:0.0074262377 10:0.019332752 11:0.0065734084 12:0.025756227 13:0.011654782 14:0.057979695 15:0.01022278 16:0.042737551 
400 1:0.82002282 2:0.95081818 3:0.070797198 4:0.13808605 5:0.058611117 6:0.14861281 7:0.057108633 8:0.14400351 9:0.035715513 10:0.093013361 11:0.027433079 12:0.11077512 13:0.046529032 14:0.17795892 15:0.03868321 16:0.14224122 
400 1:0.72217232 2:0.79752576 3:0.071254589 4:0.13332562 5:0.055044919 6:0.13314214 7:0.057053138 8:0.13555212 9:0.03426424 10:0.08468201 11:0.025602413 12:0.10387848 13:0.045379959 14:0.1683362 15:0.036405653 16:0.13485432 
400 1:0.82004946 2:0.95085371 3:0.076703422 4:0.13939896 5:0.061190147 6:0.14708458 7:0.060851559 8:0.14274393 9:0.034153473 10:0.090579338 11:0.026446875 12:0.10833569 13:0.046965234 14:0.17544053 15:0.038296141 16:0.13967024 
400 1:0.72230071 2:0.79764795 3:0.077259213 4:0.13486172 5:0.057668511 6:0.13121228 7:0.060989413 8:0.13438645 9:0.032621488 10:0.081654802 11:0.024607027 12:0.10121369 13:0.045872036 14:0.1653052 15:0.036080141 16:0.13209359 
-219.78983216173077 1:0.37990263 2:0.37990749 3:0.069004871 4:0.093568243 5:0.049467396 6:0.090247445 7:0.053807806 8:0.093016453 9:0.021020783 10:0.046010081 11:0.017306212 12:0.065325633 13:0.035688929 14:0.11794358 15:0.022120386 16:0.086818151 
400 1:0.18081325 2:0.17913526 3:0.048276879 4:0.051214319 5:0.045900252 6:0.062465757 7:0.042722661 8:0.056924608 9:0.014566024 10:0.033511642 11:0.013989066 12:0.043491647 13:0.029455377 14:0.081639051 15:0.02481191 16:0.06264662 
400 1:0.091849245 2:0.088169537 3:0.027204687 4:0.022387562 5:0.030440861 6:0.034400694 7:0.025303431 8:0.027745826 9:0.011616735 10:0.020589668 11:0.011448739 12:0.024347948 13:0.018231843 14:0.054848205 15:0.017174855 16:0.041157912 
-400 1:0.011303481 2:0.0052877609 3:0.0043446715 4:0.0034205432 5:0.0055811419 6:0.0034979538 7:0.0011574704 9:0.0079716155 10:0.011377618 11:0.0037872947 12:0.0025368303 13:0.0021933124 14:0.01010115 15:0.0018342877 16:0.0049412409 
400 1:0.82013321 2:0.95079255 3:0.09701845 4:0.14446399 5:0.073490277 6:0.14395082 7:0.075631581 8:0.14115849 9:0.031164957 10:0.083805934 11:0.02587503 12:0.10262513 13:0.051332586 14:0.16893607 15:0.04046103 16:0.13404985 
400 1:0.72236478 2:0.79772431 3:0.097972423 4:0.1397891 5:0.070290141 6:0.1283803 7:0.075725615 8:0.13243654 9:0.029696226 10:0.074779727 11:0.024014534 12:0.095600784 13:0.050246011 14:0.15869226 15:0.038476236 16:0.12605304 
400 1:0.19493659 2:0.18667437 3:0.071440853 4:0.058398604 5:0.07240583 6:0.069289617 7:0.063644931 8:0.059425525 9:0.024241485 10:0.038081348 11:0.025093826 12:0.045239147 13:0.044888385 14:0.081635743 15:0.040715154 16:0.063886158 
400 1:0.11136349 2:0.098686755 3:0.051297583 4:0.033983182 5:0.060691141 6:0.049306605 7:0.049503289 8:0.037988134 9:0.027783573 10:0.028074775 11:0.026528524 12:0.029447896 13:0.038497601 14:0.061336327 15:0.037750628 16:0.047049712 
-400 1:0.032606442 2:0.017048044 3:0.030972721 4:0.025273515 5:0.042797111 6:0.032976981 7:0.031138318 8:0.026586451 9:0.035276394 10:0.02635617 11:0.025417879 12:0.019124707 13:0.033993986 14:0.041015171 15:0.031861976 16:0.027333995 
-400 1:0.3896344 2:0.38163838 3:0.14900725 4:0.11272018 5:0.11925089 6:0.099870794 7:0.12115045 8:0.098420165 9:0.029861065 10:0.041970998 11:0.032813378 12:0.056867909 13:0.067286208 14:0.10487095 15:0.051887408 16:0.074776836 
400 1:0.23388678 2:0.20392635 3:0.14118925 4:0.08415442 5:0.15462793 6:0.097177625 7:0.13197872 8:0.079682328 9:0.062883958 10:0.049744066 11:0.061926212 12:0.058264121 13:0.096874923 14:0.095487915 15:0.092715159 16:0.07775639 
400 1:0.16223653 2:0.1225574 3:0.12365303 4:0.068849795 5:0.15112184 6:0.089935824 7:0.1243687 8:0.072604761 9:0.078478076 10:0.043298151 11:0.072407044 12:0.04951321 13:0.10259734 14:0.090475276 15:0.10086545 16:0.071833156 
400 1:0.094200999 2:0.047076423 3:0.10983399 4:0.073546141 5:0.14747459 6:0.094198391 7:0.11915965 8:0.085713387 9:0.10698641 10:0.052805066 11:0.083632268 12:0.057280038 13:0.11908355 14:0.11207384 15:0.1133556 16:0.079315625 
-400 1:0.85827905 2:0.95611453 3:0.36150187 4:0.2376205 5:0.30896962 6:0.19154811 7:0.29974076 8:0.1802168 9:0.071969353 10:0.069841959 11:0.085191369 12:0.091227747 13:0.17264847 14:0.15536162 15:0.14595248 16:0.12175735 
400 1:0.76422864 2:0.80607045 3:0.36281565 4:0.23280239 5:0.30738294 6:0.18132783 7:0.3039684 8:0.17272608 9:0.074110471 10:0.065884709 11:0.086505145 12:0.085011229 13:0.17369819 14:0.14672871 15:0.14818236 16:0.11621602 
397.47162529342262 1:0.44066757 2:0.39612058 3:0.33001509 4:0.18500771 5:0.3042905 6:0.16751741 7:0.28569746 8:0.15188129 9:0.09011288 10:0.062556252 11:0.096714757 12:0.075433038 13:0.16873981 14:0.12315907 15:0.15018097 16:0.094989844 
400 1:0.31445381 2:0.23944698 3:0.28921321 4:0.15852241 5:0.32879341 6:0.1802709 7:0.27958226 8:0.14911166 9:0.14162888 10:0.08865539 11:0.13713172 12:0.10254085 13:0.21036227 14:0.15400881 15:0.20084368 16:0.12764972 
400 1:0.25476322 2:0.16853604 3:0.26999235 4:0.15623455 5:0.32787696 6:0.19167382 7:0.27676392 8:0.16612768 9:0.1668978 10:0.088364296 11:0.1556529 12:0.10480031 13:0.2268675 14:0.17586733 15:0.22003682 16:0.14088519 
400 1:0.19922005 2:0.10149989 3:0.25616345 4:0.1704364 5:0.33264187 6:0.21593152 7:0.28154153 8:0.20216465 9:0.21554023 10:0.11013527 11:0.17744361 12:0.13282584 13:0.26491374 14:0.24596834 15:0.24877846 16:0.17952719 
400 1:0.50391197 2:0.4901914 3:0.11666559 4:0.18651837 5:0.12221818 6:0.23611717 7:0.1122645 8:0.23569182 9:0.067934275 10:0.11091819 11:0.062027607 12:0.15860367 13:0.10979784 14:0.26880592 15:0.097532041 16:0.21623166 
400 1:0.41421157 2:0.40051857 3:0.11100926 4:0.17298706 5:0.11138825 6:0.21334197 7:0.10555169 8:0.22152655 9:0.060611796 10:0.099128187 11:0.05666193 12:0.14703071 13:0.10482153 14:0.25473419 15:0.090740465 16:0.20224841 
-400 1:0.18350452 2:0.18775737 3:0.071182914 4:0.10606739 5:0.067184977 6:0.12678528 7:0.074906707 8:0.15211222 9:0.03362358 10:0.053415246 11:0.03546885 12:0.093196258 13:0.066989765 14:0.17456003 15:0.056356933 16:0.13575788 
-400 1:0.077915363 2:0.081453599 3:0.036644604 4:0.059285115 5:0.042392645 6:0.074907579 7:0.047295641 8:0.099074855 9:0.020883827 10:0.036665458 11:0.021881377 12:0.062731408 13:0.045273084 14:0.1195216 15:0.037504606 16:0.091350026 
-400 1:0.03089769 2:0.034279838 3:0.011553238 4:0.026291685 5:0.018339431 6:0.039913442 7:0.019157119 8:0.053894158 9:0.0087662041 10:0.017600654 11:0.010418263 12:0.037245721 13:0.028892985 14:0.097296648 15:0.021679772 16:0.067273892 
-400 1:0.50434673 2:0.49044591 3:0.12527847 4:0.18195784 5:0.11487677 6:0.22241531 7:0.11190034 8:0.22888194 9:0.060959287 10:0.10127601 11:0.056355167 12:0.15243922 13:0.10404184 14:0.26179123 15:0.090635888 16:0.20971778 
-400 1:0.41493475 2:0.40082711 3:0.12185416 4:0.16697642 5:0.10315637 6:0.1961167 7:0.10606162 8:0.213102 9:0.052476093 10:0.088205278 11:0.049815364 12:0.13915606 13:0.097666897 14:0.24453057 15:0.082204878 16:0.19326481 
-400 1:0.18590535 2:0.18927249 3:0.082005061 4:0.096513443 5:0.064587332 6:0.10620715 7:0.076385021 8:0.13785712 9:0.026721366 10:0.042648077 11:0.028826479 12:0.081849456 13:0.058258917 14:0.15700759 15:0.045489293 16:0.12077314 
-400 1:0.092147306 2:0.091203593 3:0.053077947 4:0.05187355 5:0.052621916 6:0.061077889 7:0.054195262 8:0.08629021 9:0.023562429 10:0.041008402 11:0.023714783 12:0.059171245 13:0.048155986 14:0.10825004 15:0.04018734 16:0.084204994 
-400 1:0.049930144 2:0.047534227 3:0.035218243 4:0.027982745 5:0.042204387 6:0.046193328 7:0.036974374 8:0.052508999 9:0.014775137 10:0.023042919 11:0.015488545 12:0.034813926 13:0.037868362 14:0.093167678 15:0.030409139 16:0.065219514 
-400 1:0.01091729 2:0.0073088128 3:0.031907596 4:0.028698292 5:0.030436169 6:0.028463596 7:0.029178564 8:0.027364625 9:0.010122481 10:0.01534587 11:0.0093917698 12:0.010499838 13:0.019981964 14:0.024258053 15:0.014711679 16:0.015755329 
-400 1:0.50569147 2:0.49102524 3:0.13772684 4:0.17903249 5:0.11448114 6:0.21224807 7:0.1160449 8:0.2236902 9:0.056287766 10:0.097698137 11:0.052691527 12:0.1475668 13:0.10109864 14:0.25568527 15:0.086489618 16:0.20432553 
-400 1:0.41703767 2:0.40244123 3:0.13827361 4:0.16369468 5:0.10469802 6:0.18487324 7:0.11265628 8:0.20693277 9:0.047973294 10:0.083212666 11:0.04602373 12:0.13340071 13:0.094429091 14:0.23721603 15:0.077999979 16:0.18650723 
400 1:0.50783634 2:0.49152747 3:0.15313067 4:0.17806245 5:0.11870229 6:0.20560694 7:0.12241111 8:0.22026436 9:0.053052656 10:0.093639731 11:0.050234184 12:0.14377598 13:0.099363685 14:0.25150889 15:0.0846503 16:0.20022303 
400 1:0.19233373 2:0.19283365 3:0.1079004 4:0.097436763 5:0.080440417 6:0.10044364 7:0.091026925 8:0.13186327 9:0.026725423 10:0.042127743 11:0.029220773 12:0.076634407 13:0.058898844 14:0.14678426 15:0.045721404 16:0.11247274 
-400 1:0.10408311 2:0.098120049 3:0.080606677 4:0.059706502 5:0.075657733 6:0.064484365 7:0.073479958 8:0.088545546 9:0.029862493 10:0.043632194 11:0.030272612 12:0.060623419 13:0.058855891 14:0.10773734 15:0.050171692 16:0.084909059 
-400 1:0.42006397 2:0.40321589 3:0.15704645 4:0.16415799 5:0.11267275 6:0.17894106 7:0.12219053 8:0.2029471 9:0.04585873 10:0.080569722 11:0.044490073 12:0.12979069 13:0.09369681 14:0.23217347 15:0.076595716 16:0.18248269 
400 1:0.071279213 2:0.05981024 3:0.084986791 4:0.050986517 5:0.088699743 6:0.065479457 7:0.081040189 8:0.070673347 9:0.028003313 10:0.029431248 11:0.029565362 12:0.040757883 13:0.064734556 14:0.10168085 15:0.054018728 16:0.072230019 
-267.32288141318179 1:0.036206085 2:0.021692095 3:0.0952418 4:0.069391772 5:0.094843425 6:0.068523563 7:0.095769159 8:0.074524544 9:0.032446813 10:0.027982736 11:0.033961691 12:0.031055272 13:0.073928878 14:0.063456371 15:0.057976834 16:0.045036789 
400 1:0.20065582 2:0.19573979 3:0.13714014 4:0.10103291 5:0.10270348 6:0.10096151 7:0.10905869 8:0.13057357 9:0.030293558 10:0.042952154 11:0.032554351 12:0.074316166 13:0.063533783 14:0.14084123 15:0.050743893 16:0.10787655 
29.782605128788735 1:0.11882454 2:0.10565415 3:0.11576565 4:0.07320039 5:0.10625241 6:0.074659817 7:0.10159589 8:0.095321894 9:0.038564984 10:0.049334574 11:0.039204024 12:0.06356521 13:0.074666232 14:0.11030882 15:0.06436079 16:0.087946065 
400 1:0.094038688 2:0.07184992 3:0.14146502 4:0.082217067 5:0.14336339 6:0.091769591 7:0.1333711 8:0.098114058 9:0.043636955 10:0.037560485 11:0.04638359 12:0.050076198 13:0.097742885 14:0.11413517 15:0.081665777 16:0.084755041 
400 1:0.062012248 2:0.035443209 3:0.16089016 4:0.11003425 5:0.16184771 6:0.10725427 7:0.16460891 8:0.12044303 9:0.054085646 10:0.040512819 11:0.058298286 12:0.051443305 13:0.12723498 14:0.10155337 15:0.10092106 16:0.074630901 
400 1:0.55817229 2:0.5084151 3:0.3356601 4:0.21145448 5:0.23431943 6:0.19669001 7:0.23642807 8:0.22098066 9:0.05883247 10:0.081806667 11:0.063456155 12:0.12465888 13:0.12389847 14:0.22210295 15:0.10747834 16:0.17614426 
400 1:0.46477261 2:0.41889969 3:0.33205116 4:0.20418628 5:0.23184183 6:0.17936192 7:0.23409891 8:0.21052961 9:0.057906281 10:0.075963989 11:0.061899539 12:0.11424053 13:0.12186344 14:0.20407192 15:0.10344055 16:0.15999848 
400 1:0.26249009 2:0.22242375 3:0.32784808 4:0.17594455 5:0.2566238 6:0.14443247 7:0.25409192 8:0.17147602 9:0.070259899 10:0.059580985 11:0.073192075 12:0.081605405 13:0.12434735 14:0.1350258 15:0.11211428 16:0.10870657 
400 1:0.20028333 2:0.14615801 3:0.33735868 4:0.18664193 5:0.29825246 6:0.16198149 7:0.28994396 8:0.1826808 9:0.097353965 10:0.082977377 11:0.10092156 12:0.099077098 13:0.18325557 14:0.1588078 15:0.16186942 16:0.12966509 
400 1:0.16980775 2:0.11435124 3:0.34572279 4:0.20693818 5:0.32366937 6:0.19596107 7:0.32029915 8:0.21080124 9:0.096587822 10:0.072913937 11:0.10620729 12:0.094284341 13:0.20725642 14:0.18078411 15:0.17906556 16:0.13850723 
400 1:0.14392522 2:0.082585245 3:0.38193667 4:0.25324443 5:0.36380261 6:0.23438407 7:0.37696475 8:0.27683538 9:0.11609171 10:0.085192069 11:0.12863311 12:0.1203532 13:0.27264228 14:0.22399139 15:0.22232009 16:0.17032449 
-400 1:0.44843704 2:0.48203793 3:0.22740832 4:0.2712332 5:0.20793483 6:0.27517447 7:0.20053391 8:0.26780209 9:0.082607083 10:0.1188591 11:0.079156213 12:0.15832134 13:0.13132855 14:0.24318548 15:0.1193627 16:0.20199664 
-400 1:0.37351513 2:0.39992788 3:0.20012417 4:0.24407966 5:0.1786411 6:0.24362552 7:0.1760402 8:0.24659163 9:0.070510775 10:0.10711897 11:0.067831814 12:0.14233069 13:0.11481252 14:0.22259754 15:0.10152286 16:0.1841341 
-400 1:0.16829142 2:0.17401169 3:0.12619624 4:0.16983551 5:0.11024264 6:0.16431165 7:0.1022732 8:0.17359702 9:0.036263466 10:0.070391864 11:0.03730502 12:0.09219835 13:0.067567095 14:0.1557053 15:0.050876692 16:0.12121844 
-400 1:0.071536392 2:0.075593449 3:0.083083071 4:0.11859461 5:0.076509319 6:0.13250017 7:0.075864904 8:0.14701492 9:0.02095825 10:0.0588983 11:0.026139284 12:0.068999305 13:0.047764376 14:0.12915245 15:0.041697863 16:0.098202899 
-400 1:0.027673306 2:0.032383829 3:0.041778907 4:0.068821952 5:0.044092976 6:0.089475326 7:0.042814214 8:0.096023589 9:0.0096338866 10:0.042475447 11:0.013912183 12:0.048052564 13:0.026239838 14:0.091144197 15:0.025000993 16:0.074539959 
-400 1:0.44853622 2:0.48209241 3:0.24037293 4:0.27701899 5:0.21478701 6:0.2753526 7:0.20966506 8:0.26991966 9:0.081193767 10:0.11694154 11:0.078430496 12:0.1554895 13:0.13280204 14:0.2408217 15:0.11952558 16:0.19896081 
-400 1:0.37372106 2:0.39993891 3:0.21342652 4:0.24993631 5:0.18550211 6:0.24451774 7:0.18502387 8:0.25101361 9:0.06905888 10:0.10574462 11:0.066638239 12:0.13860704 13:0.11656449 14:0.21926108 15:0.10114138 16:0.17883568 
-400 1:0.16922797 2:0.17462254 3:0.15181367 4:0.1813844 5:0.12370595 6:0.1684946 7:0.12028754 8:0.18526764 9:0.035360508 10:0.070373982 11:0.037947543 12:0.087509394 13:0.071983032 14:0.15212496 15:0.051767305 16:0.11246097 
-400 1:0.44872755 2:0.48227233 3:0.25507742 4:0.28413516 5:0.22293434 6:0.27783468 7:0.21949436 8:0.27390903 9:0.080619633 10:0.11640646 11:0.078549333 12:0.15378185 13:0.13518541 14:0.24036181 15:0.1208922 16:0.19807012 
-400 1:0.37391177 2:0.40006861 3:0.22800653 4:0.256026 5:0.19435216 6:0.247026 7:0.1953201 8:0.25566295 9:0.068765752 10:0.10556772 11:0.066589393 12:0.1368233 13:0.11979039 14:0.21860808 15:0.1021728 16:0.17646579 
389.90955994447364 1:0.077519923 2:0.079833843 3:0.11012642 4:0.13284358 5:0.097321078 6:0.13680489 7:0.095150888 8:0.16091867 9:0.024382126 10:0.063597344 11:0.030556535 12:0.070671655 13:0.057283703 14:0.12475275 15:0.048122574 16:0.10142671 
-400 1:0.037908111 2:0.039799742 3:0.075728796 4:0.089605682 5:0.074098349 6:0.10378157 7:0.069950648 8:0.12099914 9:0.016605116 10:0.050181977 11:0.02151772 12:0.049457148 13:0.04003435 14:0.09453927 15:0.03703275 16:0.080851577 
-400 3:0.027583573 4:0.032409977 5:0.015673509 6:0.025460351 7:0.017661458 8:0.038320832 10:0.017439334 11:0.00077711639 12:0.005159969 14:0.011279047 16:0.013395348 
-400 1:0.17071615 2:0.17539787 3:0.18291889 4:0.19745745 5:0.14169438 6:0.17901452 7:0.14050402 8:0.19853207 9:0.036580462 10:0.071444638 11:0.040150572 12:0.08665435 13:0.079299949 14:0.15417284 15:0.055880401 16:0.11140288 
-400 1:0.081183672 2:0.082393475 3:0.1337056 4:0.1465008 5:0.11410994 6:0.1476834 7:0.11168995 8:0.17488281 9:0.028652722 10:0.068472467 11:0.034834445 12:0.073946387 13:0.065679796 14:0.12788938 15:0.054878529 16:0.1064075 
-400 1:0.4493694 2:0.48255086 3:0.28951654 4:0.30052504 5:0.24133754 6:0.28583074 7:0.24231499 8:0.28609991 9:0.080581501 10:0.11604776 11:0.079786249 12:0.15238065 13:0.14164241 14:0.24094664 15:0.12411027 16:0.19676125 
-400 1:0.37481853 2:0.40027246 3:0.26458755 4:0.27329579 5:0.21359959 6:0.25740951 7:0.21763112 8:0.26637188 9:0.068868674 10:0.10529518 11:0.067227885 12:0.1336951 13:0.12648137 14:0.21879016 15:0.1053802 16:0.1734978 
-400 1:0.044016842 2:0.043931745 3:0.10251966 4:0.11043622 5:0.097393699 6:0.12343082 7:0.091397077 8:0.14120007 9:0.024089927 10:0.058131754 11:0.028606409 12:0.056231119 13:0.052808192 14:0.10429681 15:0.047886383 16:0.089448422 
400 1:0.0072349152 2:0.0050703203 3:0.059609272 4:0.06335289 5:0.044950023 6:0.058587167 7:0.046121653 8:0.074115396 9:0.01284602 10:0.034787476 11:0.012750431 12:0.021952938 13:0.019984575 14:0.036206681 15:0.018462321 16:0.034899518 
-400 1:0.17515348 2:0.17778598 3:0.23088799 4:0.2319711 5:0.17871745 6:0.20153913 7:0.17563494 8:0.22300778 9:0.042114139 10:0.075752057 11:0.046239097 12:0.087818362 13:0.095501117 14:0.16221562 15:0.067656726 16:0.11384691 
-400 1:0.095572919 2:0.091264375 3:0.20030522 4:0.19672571 5:0.1736749 6:0.18702947 7:0.16340807 8:0.21499342 9:0.046100609 10:0.081967868 11:0.051553048 12:0.08622808 13:0.098550655 14:0.14992775 15:0.080423601 16:0.12378398 
400 1:0.065212563 2:0.05728098 3:0.18316902 4:0.17582846 5:0.17475149 6:0.18462774 7:0.16267906 8:0.20190038 9:0.051310085 10:0.082550488 11:0.055068966 12:0.080169849 13:0.10045189 14:0.14386129 15:0.088883027 16:0.12081761 
400 1:0.031748075 2:0.020547852 3:0.1473448 4:0.14723839 5:0.13129266 6:0.14253117 7:0.12805367 8:0.16367143 9:0.04814025 10:0.071966723 11:0.047063135 12:0.065073304 13:0.08143276 14:0.10449143 15:0.072453074 16:0.090086803 
-400 1:0.4677293 2:0.49146113 3:0.53250265 4:0.47590145 5:0.42530924 6:0.40021744 7:0.41611937 8:0.38434014 9:0.10594834 10:0.12669383 11:0.11216448 12:0.15665273 13:0.2168038 14:0.26581532 15:0.18454315 16:0.20915221 
-203.94156600414215 1:0.39755923 2:0.41330063 3:0.51663482 4:0.47447395 5:0.40556124 6:0.38317713 7:0.39661282 8:0.37595761 9:0.10017909 10:0.12678993 11:0.10205564 12:0.14198735 13:0.2084256 14:0.25026292 15:0.1685947 16:0.18805555 
-400 1:0.20791563 2:0.19855614 3:0.48734537 4:0.43305054 5:0.38329437 6:0.36497 7:0.36923647 8:0.36787656 9:0.092085674 10:0.12498719 11:0.098726854 12:0.12691845 13:0.1969914 14:0.25066596 15:0.15347934 16:0.16760032 
400 1:0.14099309 2:0.1239129 3:0.42980519 4:0.40380237 5:0.37900311 6:0.36850169 7:0.35053954 8:0.39086136 9:0.11736219 10:0.16476779 11:0.11869103 12:0.16434291 13:0.22173887 14:0.27703178 15:0.18259944 16:0.21963836 
400 1:0.10909369 2:0.091150641 3:0.37958997 4:0.37566134 5:0.35974401 6:0.37064645 7:0.33431336 8:0.37980092 9:0.11574359 10:0.16624902 11:0.11864296 12:0.16338982 13:0.21510296 14:0.28135747 15:0.18898882 16:0.22443384 
400 1:0.081127867 2:0.058350749 3:0.34636334 4:0.36400124 5:0.32517806 6:0.35960764 7:0.30913872 8:0.37107018 9:0.12497738 10:0.17991108 11:0.12053352 12:0.17821856 13:0.21475029 14:0.28515294 15:0.18947345 16:0.23179233 
-400 1:0.18445793 2:0.15494552 3:0.13990341 4:0.24449256 5:0.17746556 6:0.314675 7:0.23791668 8:0.38781217 9:0.074700102 10:0.13635714 11:0.11312319 12:0.23629837 13:0.21298853 14:0.37214696 15:0.19364883 16:0.3105804 
-400 1:0.14303824 2:0.11790078 3:0.13123176 4:0.22729701 5:0.16281769 6:0.29252648 7:0.22615865 8:0.36703768 9:0.067308858 10:0.12602268 11:0.10654967 12:0.22347489 13:0.20256446 14:0.35404429 15:0.18439965 16:0.29489142 
-400 1:0.046046525 2:0.037021011 3:0.08336889 4:0.14495094 5:0.097463593 6:0.1862742 7:0.15648322 8:0.25474218 9:0.03848394 10:0.078678705 11:0.070997 12:0.14931998 13:0.13217238 14:0.23483913 15:0.12549368 16:0.19814569 
400 1:0.01446585 2:0.01221864 3:0.044574898 4:0.085266717 5:0.053463463 6:0.11179189 7:0.10034049 8:0.17065682 9:0.027430726 10:0.055084564 11:0.04544666 12:0.099797957 13:0.081894189 14:0.14702497 15:0.078730486 16:0.12806813 
400 1:0.00039726595 2:0.0010707635 3:0.015303533 4:0.041678656 5:0.023252282 6:0.062021103 7:0.052558877 8:0.10037927 9:0.01070248 10:0.029540755 11:0.025714153 12:0.062339179 13:0.068558097 14:0.12459291 15:0.055169996 16:0.093707085 
-284.68838836961936 1:0.14306131 2:0.11636532 3:0.10703094 4:0.19422033 5:0.11964726 6:0.24303894 7:0.19137064 8:0.33306804 9:0.047631335 10:0.10116813 11:0.088023797 12:0.20174004 13:0.17885391 14:0.32695961 15:0.16184473 16:0.27161986 
400 1:0.055691175 2:0.041399647 3:0.073929824 4:0.10404859 5:0.085086323 6:0.12637447 7:0.11225709 8:0.19168618 9:0.043736313 10:0.052575123 11:0.049036078 12:0.1086743 13:0.093009517 14:0.17581092 15:0.086784139 16:0.14807551 
400 1:0.18582433 2:0.15363881 3:0.11143152 4:0.20088114 5:0.12565002 6:0.24832466 7:0.19225433 8:0.34500229 9:0.050434198 10:0.1044649 11:0.089555323 12:0.20939454 13:0.18480502 14:0.33970878 15:0.16587594 16:0.28314087 
400 1:0.05068779 2:0.036399648 3:0.10971513 4:0.098244816 5:0.13774595 6:0.12425209 7:0.12919489 8:0.15427828 9:0.12127355 10:0.11881589 11:0.087334879 12:0.11571008 13:0.13540526 14:0.14640217 15:0.12352026 16:0.13420783 
400 1:0.04569228 2:0.032466158 3:0.14558475 4:0.12709856 5:0.19156693 6:0.17739628 7:0.1804179 8:0.17831288 9:0.13895983 10:0.13189144 11:0.10215552 12:0.11225421 13:0.16688572 14:0.15905914 15:0.14687489 16:0.13251421 
400 1:0.041031871 2:0.028727019 3:0.21596427 4:0.20948493 5:0.25597197 6:0.2496819 7:0.29111931 8:0.27413112 9:0.18844104 10:0.18639621 11:0.15678443 12:0.16190463 13:0.25547126 14:0.18831633 15:0.21555881 16:0.1575294 
400 1:0.18812767 2:0.15383351 3:0.11220303 4:0.19642444 5:0.12366932 6:0.24101266 7:0.18625157 8:0.33871585 9:0.05099012 10:0.10304907 11:0.087214246 12:0.20690711 13:0.18155539 14:0.3358193 15:0.16263504 16:0.27996314 
400 1:0.14908591 2:0.11765987 3:0.10622713 4:0.17601547 5:0.11465392 6:0.21620606 7:0.16799493 8:0.306725 9:0.04930732 10:0.091049343 11:0.077530518 12:0.1869937 13:0.16346024 14:0.30860442 15:0.14658831 16:0.25549605 
400 1:0.067751102 2:0.048067726 3:0.10251189 4:0.11010863 5:0.12039129 6:0.13297579 7:0.12054837 8:0.18482792 9:0.058633573 10:0.057265881 11:0.054282334 12:0.10704295 13:0.10152575 14:0.1692834 15:0.0904392 16:0.14270879 
400 1:0.15320891 2:0.12051135 3:0.11177826 4:0.1720292 5:0.11941064 6:0.2096788 7:0.16138935 8:0.29656565 9:0.05258755 10:0.087224126 11:0.073557049 12:0.18042748 13:0.15677422 14:0.30053231 15:0.14052387 16:0.24873248 
400 1:0.068318516 2:0.046626735 3:0.16956685 4:0.13793027 5:0.20062967 6:0.16757318 7:0.18139395 8:0.18835877 9:0.15399198 10:0.13691631 11:0.1138569 12:0.13821359 13:0.19671781 14:0.18951569 15:0.17028922 16:0.16705282 
400 1:0.064738981 2:0.043815471 3:0.21887428 4:0.18292902 5:0.26755509 6:0.23736463 7:0.26050147 8:0.2404819 9:0.17158005 10:0.1528891 11:0.13654314 12:0.1430629 13:0.24536039 14:0.21617723 15:0.211824 16:0.17856529 
400 1:0.061667569 2:0.041138217 3:0.30518049 4:0.28250942 5:0.34361437 6:0.32931802 7:0.40223715 8:0.37437642 9:0.22698934 10:0.20967281 11:0.20293462 12:0.20629166 13:0.38804337 14:0.30093604 15:0.31417274 16:0.23689821 
400 1:0.091387428 2:0.06209325 3:0.16438395 4:0.1397945 5:0.1860362 6:0.16261508 7:0.15344684 8:0.1918975 9:0.11043349 10:0.087403707 11:0.074172512 12:0.11249908 13:0.12924515 14:0.17787713 15:0.10871281 16:0.14576991 
400 1:0.086128145 2:0.05793608 3:0.23208478 4:0.18554474 5:0.26232529 6:0.21650572 7:0.23653071 8:0.2292147 9:0.20163654 10:0.18003868 11:0.14964701 12:0.17206708 13:0.25774246 14:0.24094005 15:0.21911225 16:0.20646216 
400 1:0.10818257 2:0.074243061 3:0.41048011 4:0.36125958 5:0.48963532 6:0.46036148 7:0.46974796 8:0.44455838 9:0.29907793 10:0.28045306 11:0.24660023 12:0.26526073 13:0.44249627 14:0.40649521 15:0.37735608 16:0.32651162 
400 1:0.10788506 2:0.073133923 3:0.53379661 4:0.49737251 5:0.6152944 6:0.60987633 7:0.67706192 8:0.64640945 9:0.37538818 10:0.36653528 11:0.34875083 12:0.37329799 13:0.69671214 14:0.62543434 15:0.55135566 16:0.45041016 
400 1:0.24077316 2:0.18130477 3:0.21714659 4:0.19718847 5:0.22761582 6:0.23150584 7:0.16237827 8:0.26534286 9:0.10353052 10:0.10263973 11:0.069359317 12:0.15520541 13:0.13714676 14:0.27600366 15:0.1219146 16:0.22446501 
400 1:0.21042395 2:0.15229109 3:0.24192907 4:0.20551549 5:0.26006487 6:0.23706621 7:0.16746438 8:0.24007985 9:0.13054693 10:0.11159553 11:0.072374955 12:0.13697709 13:0.12348068 14:0.2414681 15:0.11116261 16:0.19265856 
400 1:0.16235341 2:0.11216915 3:0.39625064 4:0.32705259 5:0.44914123 6:0.38929215 7:0.32530567 8:0.31734821 9:0.26911846 10:0.24224313 11:0.17568526 12:0.20100538 13:0.26565281 14:0.30530855 15:0.21647701 16:0.22652794 
-95.631636699807586 1:0.15800448 2:0.11102187 3:0.53573722 4:0.47948018 5:0.6239205 6:0.59466857 7:0.53750682 8:0.51887703 9:0.41519964 10:0.41338482 11:0.32626981 12:0.37789407 13:0.5647549 14:0.5780611 15:0.47039464 16:0.44697192 
-298.58853447352146 1:0.15718074 2:0.11070953 3:0.64109898 4:0.60554433 5:0.77375257 6:0.79354507 7:0.72847247 8:0.72049648 9:0.43666062 10:0.4448874 11:0.37538853 12:0.43029973 13:0.66033453 14:0.6646561 15:0.56797081 16:0.51804966 
80.758839163108505 1:0.15555303 2:0.11104657 3:0.79524398 4:0.78742313 5:0.93572366 6:1 7:1 8:1 9:0.51745152 10:0.54303092 11:0.49831188 12:0.57144523 13:1 14:1 15:0.7939598 16:0.69153911 
400 1:0.27964792 2:0.34633049 3:0.19000266 4:0.23789091 5:0.16913861 6:0.21596342 7:0.16004573 8:0.20020758 9:0.068330772 10:0.11789593 11:0.060578093 12:0.12578644 13:0.097768478 14:0.18725735 15:0.087859251 16:0.15096802 
400 1:0.24690747 2:0.30623972 3:0.17331141 4:0.21878622 5:0.15134217 6:0.19489634 7:0.14419888 8:0.182129 9:0.062998295 10:0.1093136 11:0.05427203 12:0.11394457 13:0.08755821 14:0.17301127 15:0.077692516 16:0.13748302 
400 1:0.13280576 2:0.15185344 3:0.11345552 4:0.14033589 5:0.093513854 6:0.13073622 7:0.09035974 8:0.12173267 9:0.040172361 10:0.069011122 11:0.034612451 12:0.076358512 13:0.051863197 14:0.12203647 15:0.041808415 16:0.089922339 
7.6325028890482391 1:0.05437642 2:0.065924048 3:0.07466957 4:0.090120539 5:0.070779055 6:0.1006102 7:0.062749363 8:0.083937511 9:0.024899397 10:0.045818806 11:0.023197275 12:0.054982267 13:0.038043946 14:0.089534774 15:0.035690866 16:0.071976811 
-400 1:0.019660426 2:0.026870325 3:0.042839609 4:0.051212702 5:0.048098955 6:0.069960192 7:0.037833109 8:0.052014213 9:0.015600638 10:0.030654222 11:0.016027274 12:0.036674865 13:0.023046922 14:0.063276805 15:0.022136064 16:0.049673244 
400 1:0.27956203 2:0.34617087 3:0.20817941 4:0.25013253 5:0.17971107 6:0.21553096 7:0.1726248 8:0.20571184 9:0.067018151 10:0.11452141 11:0.060281739 12:0.12138386 13:0.10030425 14:0.18278225 15:0.08929801 16:0.14682931 
400 1:0.24714105 2:0.3060945 3:0.19842012 4:0.23550397 5:0.16594711 6:0.19493575 7:0.16114226 8:0.18965046 9:0.061632365 10:0.10415033 11:0.054171626 12:0.107874 13:0.091842301 14:0.1665428 15:0.08031024 16:0.13125767 
400 1:0.27999228 2:0.34622419 3:0.2247539 4:0.2610324 5:0.18960476 6:0.21747676 7:0.18427944 8:0.21113969 9:0.067312196 10:0.11225849 11:0.061304558 12:0.11893506 13:0.10371792 14:0.18031219 15:0.092356324 16:0.14458922 
400 1:0.24790238 2:0.30651227 3:0.21515533 4:0.24681045 5:0.17578116 6:0.19692552 7:0.17209457 8:0.19525881 9:0.062015146 10:0.10227502 11:0.055177677 12:0.10602513 13:0.095382698 14:0.16474707 15:0.083289027 16:0.12947455 
-400 1:0.13528694 2:0.15275092 3:0.15146236 4:0.16397391 5:0.11799226 6:0.13417873 7:0.11620492 8:0.13151845 9:0.039026864 10:0.062614411 11:0.036141098 12:0.07155586 13:0.060069568 14:0.11425698 15:0.048719294 16:0.083962701 
-400 1:0.067218177 2:0.07481017 3:0.12149661 4:0.11671159 5:0.10410911 6:0.11175799 7:0.093902282 8:0.096293889 9:0.030283086 10:0.046545744 11:0.031789672 12:0.058878623 13:0.053108916 14:0.088659979 15:0.050790127 16:0.075340204 
-400 1:0.0366573 2:0.038719125 3:0.090182424 4:0.07646969 5:0.083359823 6:0.085879885 7:0.071245275 8:0.067645244 9:0.025046179 10:0.03343467 11:0.026130859 12:0.042202458 13:0.040211033 14:0.067613102 15:0.03870846 16:0.055386197 
-400 1:0.24930722 2:0.3073062 3:0.24181201 4:0.26790386 5:0.19211759 6:0.20290241 7:0.18851551 8:0.20743087 9:0.062888496 10:0.099340923 11:0.057741284 12:0.10345411 13:0.10218513 14:0.16248441 15:0.088791579 16:0.12704714 
-400 1:0.13786291 2:0.15426943 3:0.17777039 4:0.18456289 5:0.13441569 6:0.14065643 7:0.13321532 8:0.14149588 9:0.040872462 10:0.061324194 11:0.039228681 12:0.07086239 13:0.067287348 14:0.11273683 15:0.055675566 16:0.083656862 
-400 1:0.012586545 2:0.0093790311 3:0.072562501 4:0.051404253 5:0.059347585 6:0.04368658 7:0.049908299 8:0.033032667 9:0.023837065 10:0.021367414 11:0.019913798 12:0.020649912 13:0.028616222 14:0.031338427 15:0.026922703 16:0.024686448 
-400 1:0.074132279 2:0.080178753 3:0.14962277 4:0.14062525 5:0.12422127 6:0.12385756 7:0.1127933 8:0.11039294 9:0.035832074 10:0.049678735 11:0.038286172 12:0.063909121 13:0.063476101 14:0.091905154 15:0.060835324 16:0.080445781 
-400 1:0.14285617 2:0.15676112 3:0.205984 4:0.21237594 5:0.15433533 6:0.15113333 7:0.15327853 8:0.15724665 9:0.042933989 10:0.059933882 11:0.043253299 12:0.071247205 13:0.076040886 14:0.11209224 15:0.064087451 16:0.084452063 
-400 1:0.050178748 2:0.048643027 3:0.13396426 4:0.11825556 5:0.11735485 6:0.11216639 7:0.1026343 8:0.094869487 9:0.037106134 10:0.041775208 11:0.038541384 12:0.053208325 13:0.059221603 14:0.080252059 15:0.057304919 16:0.067628376 
-400 1:0.031167563 2:0.023336008 3:0.13056278 4:0.11401385 5:0.11194247 6:0.096694887 7:0.096677266 8:0.081555068 9:0.046692368 10:0.043306202 11:0.040962759 12:0.047191631 13:0.06178413 14:0.068229444 15:0.058273606 16:0.056319792 
-400 1:0.090039313 2:0.089872025 3:0.19722697 4:0.19444405 5:0.16474971 6:0.15402097 7:0.14937375 8:0.14335582 9:0.048199911 10:0.05731925 11:0.051754054 12:0.076267123 13:0.084783889 14:0.10282933 15:0.081909642 16:0.092780508 
-400 1:0.063701518 2:0.057083428 3:0.16961029 4:0.15608785 5:0.14873968 6:0.138667 7:0.1305871 8:0.12141861 9:0.048408289 10:0.049818303 11:0.049766969 12:0.065006562 13:0.07674823 14:0.093663201 15:0.074194029 16:0.080763988 
400 1:0.050514895 2:0.034116462 3:0.17418922 4:0.15849906 5:0.15348025 6:0.13752291 7:0.13260981 8:0.11854991 9:0.065238163 10:0.05993934 11:0.057419129 12:0.067675151 13:0.088307835 14:0.097716674 15:0.082696192 16:0.081074603 
-400 1:0.32585144 2:0.36160028 3:0.52303839 4:0.54591691 5:0.41205123 6:0.36542889 7:0.41092622 8:0.40448457 9:0.094872184 10:0.092443436 11:0.10828691 12:0.12482084 13:0.20757023 14:0.20130433 15:0.18189773 16:0.16271289 
400 1:0.29505789 2:0.3232905 3:0.53151554 4:0.5330559 5:0.40517664 6:0.35071406 7:0.40215686 8:0.38498896 9:0.09172868 10:0.086891189 11:0.10428914 12:0.11798175 13:0.19941154 14:0.19095264 15:0.17507337 16:0.15393771 
-400 1:0.19754979 2:0.18264188 3:0.45402944 4:0.44793344 5:0.35354748 6:0.3080799 7:0.34760094 8:0.32681614 9:0.086852394 10:0.081484251 11:0.09795358 12:0.1138854 13:0.17384404 14:0.16146319 15:0.15810266 16:0.13824368 
-400 1:0.15504308 2:0.12645118 3:0.40814072 4:0.38990352 5:0.35609657 6:0.31806254 7:0.32143357 8:0.30051911 9:0.11657037 10:0.11682206 11:0.12022651 12:0.15219009 13:0.19323258 14:0.18999243 15:0.18561898 16:0.17921218 
400 1:0.13505253 2:0.10001425 3:0.37353081 4:0.35757753 5:0.34661192 6:0.31975973 7:0.30582812 8:0.29272681 9:0.12739184 10:0.12368477 11:0.12686588 12:0.15558697 13:0.19790681 14:0.2077724 15:0.18900786 16:0.18508384 
-400 1:0.11822126 2:0.078246668 3:0.36334261 4:0.34883121 5:0.34603158 6:0.32835543 7:0.30176318 8:0.2930432 9:0.15611278 10:0.15347953 11:0.13746831 12:0.17332828 13:0.21672742 14:0.25073031 15:0.20266169 16:0.20815437 
400 1:0.20793745 2:0.22723174 3:0.1898862 4:0.25128675 5:0.1179897 6:0.19166002 7:0.13106725 8:0.23069611 9:0.045740075 10:0.067191355 11:0.049747571 12:0.12078426 13:0.095074885 14:0.18087701 15:0.087305509 16:0.17300408 
400 1:0.17933001 2:0.18982401 3:0.19540328 4:0.25280249 5:0.11164059 6:0.18360312 7:0.10727534 8:0.20453338 9:0.036763344 10:0.052356616 11:0.037883263 12:0.097286604 13:0.10496891 14:0.19226857 15:0.07737118 16:0.15520443 
-400 1:0.094932094 2:0.072783291 3:0.14213756 4:0.1979744 5:0.078244425 6:0.11096369 7:0.094234265 8:0.17484906 9:0.015410787 10:0.02726537 11:0.025232717 12:0.06707646 13:0.05971425 14:0.089746177 15:0.050304435 16:0.099537276 
400 1:0.036989942 2:0.028411949 3:0.084848709 4:0.12912315 5:0.061417196 6:0.07808473 7:0.068100654 8:0.12593164 9:0.014834821 10:0.019622 11:0.018403269 12:0.047717441 13:0.033571005 14:0.063026451 15:0.030779643 16:0.067173675 
400 1:0.011227381 2:0.0090072546 3:0.037120979 4:0.06268014 5:0.028010517 6:0.03874689 7:0.033507857 8:0.067007445 9:0.0028695602 10:0.0067255809 11:0.0063375882 12:0.024772933 13:0.020154348 14:0.051846609 15:0.017250502 16:0.04403998 
400 1:0.21084389 2:0.23018686 3:0.22240658 4:0.26188928 5:0.11548586 6:0.18215348 7:0.14292958 8:0.22713138 9:0.039708305 10:0.059113473 11:0.043888662 12:0.11252958 13:0.08859089 14:0.17152068 15:0.07898248 16:0.16367441 
-336.21949799680897 1:0.18318188 2:0.1929903 3:0.23020093 4:0.26382238 5:0.1028605 6:0.16879979 7:0.11835268 8:0.20057537 9:0.031307817 10:0.045387633 11:0.033811092 12:0.090692304 13:0.095943443 14:0.18041423 15:0.069105528 16:0.1457887 
-400 1:0.1040552 2:0.079604559 3:0.17923741 4:0.20297828 5:0.077038087 6:0.098918758 7:0.093557671 8:0.16091214 9:0.018547898 10:0.021380305 11:0.024787892 12:0.059749305 13:0.0513977 14:0.077454358 15:0.042869445 16:0.088065296 
-400 1:0.054786183 2:0.041121364 3:0.11871238 4:0.1326202 5:0.07337334 6:0.075669467 7:0.071448006 8:0.1163163 9:0.023452608 10:0.022355467 11:0.02331344 12:0.044702947 13:0.031249896 14:0.065550126 15:0.032468814 16:0.062658653 
400 1:0.033022277 2:0.023751484 3:0.074425451 4:0.07213752 5:0.052270718 6:0.049623907 7:0.048205718 8:0.063036636 9:0.011416515 10:0.0092998752 11:0.011393488 12:0.022328176 13:0.023068983 14:0.053253617 15:0.023651632 16:0.042078771 
400 1:0.012478426 2:0.007459579 3:0.050658148 4:0.043670632 5:0.023929833 6:0.019235916 7:0.032063454 8:0.021972591 9:0.0014415507 11:0.0029585354 13:0.0013138633 15:0.002129324 
400 1:0.21664159 2:0.23382673 3:0.24936919 4:0.27528036 5:0.11742172 6:0.17818722 7:0.1557519 8:0.22722889 9:0.036970295 10:0.05631882 11:0.041660827 12:0.10820137 13:0.085361995 14:0.16684733 15:0.075031623 16:0.15897948 
400 1:0.19085641 2:0.198498 3:0.25983134 4:0.27627429 5:0.10218412 6:0.16112877 7:0.12866078 8:0.19822435 9:0.0292823 10:0.044162128 11:0.03257579 12:0.088032678 13:0.091267586 14:0.17468992 15:0.065675728 16:0.14162786 
400 1:0.11445309 2:0.086683765 3:0.21022651 4:0.21482652 5:0.087413467 6:0.099899068 7:0.10292604 8:0.1585364 9:0.021432441 10:0.022128748 11:0.026930638 12:0.058861159 13:0.048737265 14:0.076237947 15:0.042093318 16:0.08588177 
-400 1:0.068151802 2:0.049849104 3:0.15244018 4:0.15046072 5:0.089314714 6:0.083388522 7:0.087083191 8:0.11992829 9:0.027255893 10:0.025016103 11:0.027144752 12:0.046058446 13:0.031931296 14:0.069672704 15:0.036252853 16:0.064193867 
400 1:0.22549872 2:0.23967555 3:0.27697319 4:0.28581384 5:0.12448476 6:0.17658551 7:0.17081335 8:0.2309555 9:0.036130987 10:0.055596236 11:0.041203536 12:0.10653042 13:0.083843082 14:0.16586633 15:0.073682323 16:0.15694922 
400 1:0.055196639 2:0.037599511 3:0.13765332 4:0.11321377 5:0.086018667 6:0.071838558 7:0.090883695 8:0.079645753 9:0.018711695 10:0.015327131 11:0.019746272 12:0.026535708 13:0.029328236 14:0.061083201 15:0.0345015 16:0.04702552 
400 1:0.036347162 2:0.022087498 3:0.12386341 4:0.10247411 5:0.067287758 6:0.056093525 7:0.093232319 8:0.06491749 9:0.012334288 10:0.010061441 11:0.017203974 12:0.013653326 13:0.020861333 14:0.019841732 15:0.024755575 16:0.01619521 
400 1:0.20685573 2:0.20995528 3:0.31177285 4:0.30422586 5:0.11248752 6:0.15967315 7:0.15169585 8:0.20250402 9:0.029847961 10:0.043669291 11:0.033749167 12:0.087173127 13:0.088810451 14:0.17078213 15:0.064832404 16:0.13915795 
400 1:0.084468357 2:0.059318259 3:0.20080054 4:0.17577469 5:0.11373174 6:0.094193652 7:0.11636557 8:0.12718204 9:0.031286459 10:0.027236609 11:0.032333411 12:0.047941968 13:0.03547179 14:0.075281262 15:0.042842519 16:0.066334099 
400 1:0.07658419 2:0.049803261 3:0.19546299 4:0.14728475 5:0.11961022 6:0.092819586 7:0.13132462 8:0.09649013 9:0.026502771 10:0.020788332 11:0.028407522 12:0.031166013 13:0.038691513 14:0.069335312 15:0.046729002 16:0.051986966 
400 1:0.058060534 2:0.035386588 3:0.18797114 4:0.14544366 5:0.10563931 6:0.084162436 7:0.14745712 8:0.096674196 9:0.022056548 10:0.017902907 11:0.029517822 12:0.025192115 13:0.037448511 14:0.037601352 15:0.044794958 16:0.029732214 
400 1:0.28171551 2:0.27231044 3:0.48420778 4:0.38378179 5:0.21365926 6:0.2036809 7:0.29298621 8:0.26580781 9:0.051739674 10:0.058512829 11:0.054267082 12:0.10055481 13:0.093044572 14:0.16921116 15:0.082112186 16:0.15092935 
-400 1:0.2639181 2:0.2447155 3:0.589091 4:0.48913109 5:0.22114189 6:0.22489581 7:0.2972033 8:0.27445632 9:0.069205202 10:0.080247775 11:0.064991653 12:0.10165074 13:0.10767496 14:0.19487093 15:0.090603761 16:0.14997761 
137.48756156429397 1:0.18881342 2:0.13366307 3:0.50775629 4:0.40037876 5:0.23937945 6:0.18749942 7:0.24864574 8:0.22211225 9:0.073761798 10:0.06012084 11:0.065339267 12:0.0767463 13:0.084594794 14:0.11378769 15:0.081705205 16:0.1030448 
400 1:0.15391278 2:0.10332858 3:0.44171047 4:0.34770274 5:0.27410841 6:0.20210782 7:0.2671349 8:0.21516366 9:0.089381829 10:0.078336962 11:0.077779457 12:0.080080241 13:0.096193828 14:0.14731637 15:0.10277698 16:0.10786177 
400 1:0.13544853 2:0.086929403 3:0.3901847 4:0.29280931 5:0.25652406 6:0.19511023 7:0.27386329 8:0.1939676 9:0.07529065 10:0.06380491 11:0.070277117 12:0.065906204 13:0.10177974 14:0.12514132 15:0.10937093 16:0.095457152 
400 1:0.12098286 2:0.07526315 3:0.38888615 4:0.30881241 5:0.23675221 6:0.19558866 7:0.31266978 8:0.22280808 9:0.072176404 10:0.070087187 11:0.078637443 12:0.077438906 13:0.11357962 14:0.1167163 15:0.1192324 16:0.091749512 
-280.42143787790883 1:0.25645596 2:0.28168321 3:0.18148513 4:0.21745707 5:0.1228722 6:0.22529443 7:0.11963806 8:0.24429253 9:0.066649936 10:0.10520034 11:0.058090627 12:0.14668031 13:0.1019624 14:0.23118663 15:0.089386187 16:0.20098571 
-400 1:0.22280869 2:0.23971468 3:0.17042638 4:0.21070798 5:0.11716409 6:0.21422218 7:0.11398227 8:0.23343098 9:0.059412789 10:0.097503103 11:0.051787291 12:0.13356505 13:0.097378768 14:0.22053884 15:0.082153767 16:0.18721764 
-400 1:0.11672937 2:0.12215459 3:0.11165667 4:0.16014916 5:0.08957497 6:0.17319901 7:0.093020819 8:0.17921776 9:0.034685507 10:0.071156085 11:0.034210864 12:0.1009998 13:0.061628655 14:0.13978185 15:0.052256275 16:0.12610602 
400 1:0.047208346 2:0.052250568 3:0.070619784 4:0.10448246 5:0.07739383 6:0.17267333 7:0.071803875 8:0.13735673 9:0.021366131 10:0.060446944 11:0.024883272 12:0.080204137 13:0.043834433 14:0.1259761 15:0.039994229 16:0.10640585 
400 1:0.016087683 2:0.019913537 3:0.036249477 4:0.060324114 5:0.051812034 6:0.13158129 7:0.042761266 8:0.094256394 9:0.014048248 10:0.063777439 11:0.016267797 12:0.072853789 13:0.028176978 14:0.11403055 15:0.026014756 16:0.080687754 
400 1:0.25614116 2:0.28144127 3:0.22565135 4:0.22406109 5:0.11995413 6:0.21472944 7:0.13221203 8:0.23577803 9:0.057722803 10:0.097434357 11:0.049934559 12:0.13738975 13:0.093370177 14:0.2196165 15:0.07925117 16:0.19022737 
-400 1:0.22271052 2:0.23963043 3:0.22665162 4:0.22060543 5:0.11363452 6:0.20037532 7:0.13095616 8:0.22213882 9:0.048337147 10:0.08868809 11:0.041802559 12:0.12185279 13:0.086544909 14:0.20279485 15:0.069539793 16:0.17130028 
-400 1:0.25666824 2:0.28170323 3:0.26933977 4:0.23501623 5:0.12693138 6:0.20995803 7:0.15053955 8:0.23134626 9:0.052213874 10:0.092256069 11:0.045780174 12:0.13066244 13:0.090189576 14:0.21062629 15:0.07483732 16:0.18149279 
-400 1:0.11977351 2:0.12477742 3:0.17186211 4:0.17410718 5:0.11248723 6:0.18552382 7:0.11579283 8:0.16728304 9:0.027936794 10:0.064664654 11:0.02888597 12:0.088869162 13:0.054507956 14:0.12953235 15:0.042616382 16:0.10522102 
-400 1:0.22370216 2:0.24033219 3:0.27673605 4:0.23740567 5:0.1254427 6:0.19917835 7:0.15470514 8:0.21861102 9:0.043861922 10:0.0847008 11:0.039288845 12:0.1158803 13:0.085047126 14:0.19181477 15:0.067019351 16:0.16151696 
26.18487367043792 1:0.06522081 2:0.068995066 3:0.14841488 4:0.13569202 5:0.13116631 6:0.22339296 7:0.11618025 8:0.14634711 9:0.02927193 10:0.07610254 11:0.034787327 12:0.093840279 13:0.056915443 14:0.1361073 15:0.052721877 16:0.09723828 
400 1:0.040021803 2:0.042202681 3:0.12374081 4:0.1085946 5:0.12240262 6:0.20212728 7:0.10527178 8:0.13455513 9:0.027220502 10:0.076256737 11:0.031872779 12:0.10060924 13:0.053103101 14:0.12758124 15:0.048512086 16:0.097516745 
-400 1:0.2579776 2:0.28310174 3:0.32524237 4:0.25416082 5:0.14345729 6:0.21092172 7:0.17858307 8:0.2286026 9:0.047668613 10:0.087478362 11:0.043708254 12:0.1241766 13:0.090108268 14:0.20233162 15:0.073662914 16:0.17219907 
-400 1:0.22629845 2:0.24141264 3:0.33980986 4:0.26401827 5:0.14705883 6:0.20500879 7:0.18781669 8:0.21772389 9:0.041041087 10:0.08158154 11:0.0397087 12:0.11031985 13:0.085902125 14:0.18047433 15:0.067998178 16:0.15246701 
-400 1:0.12658998 2:0.13069756 3:0.24852721 4:0.21406348 5:0.16091868 6:0.22392291 7:0.15932901 8:0.17940982 9:0.032853913 10:0.069791935 11:0.035069667 12:0.089010626 13:0.063963138 14:0.13674568 15:0.051166002 16:0.10033142 
400 1:0.083487265 2:0.085339531 3:0.24699645 4:0.2024871 5:0.20642738 6:0.29603967 7:0.18636276 8:0.19221693 9:0.047388364 10:0.098514371 11:0.054573141 12:0.11902392 13:0.088281795 14:0.16870354 15:0.080985114 16:0.11467713 
400 1:0.061921831 2:0.062467162 3:0.23203425 4:0.20181498 5:0.20710044 6:0.29239684 7:0.18881449 8:0.2079418 9:0.04876586 10:0.10058469 11:0.055778325 12:0.13597424 13:0.094045721 14:0.1665166 15:0.085096546 16:0.1310412 
-400 1:0.13744499 2:0.13956262 3:0.33301193 4:0.27367675 5:0.21907243 6:0.2751666 7:0.21459992 8:0.205937 9:0.043112878 10:0.080356009 11:0.046844982 12:0.097546682 13:0.081294529 14:0.15183169 15:0.067918509 16:0.10542817 
-400 1:0.054707825 2:0.053284228 3:0.29031491 4:0.30076045 5:0.24201015 6:0.32059383 7:0.24706438 8:0.26910174 9:0.063010827 10:0.10820322 11:0.072175048 12:0.13654263 13:0.12442713 14:0.19055268 15:0.11014529 16:0.13659678 
148.53483497837249 1:0.10338607 2:0.10232072 3:0.35042951 4:0.29581222 5:0.27658141 6:0.36757046 7:0.26121697 8:0.25282538 9:0.06318485 10:0.11682147 11:0.071792886 12:0.14044982 13:0.11819246 14:0.19988991 15:0.10758734 16:0.13540745 
400 1:0.084875718 2:0.08273828 3:0.34186608 4:0.30761093 5:0.28430089 6:0.38045213 7:0.27412286 8:0.28677151 9:0.065565892 10:0.12033667 11:0.074376956 12:0.16076946 13:0.13023709 14:0.20179935 15:0.11553509 16:0.15903111 
-400 1:0.083048575 2:0.079272635 3:0.42397502 4:0.43521166 5:0.33261931 6:0.42927539 7:0.35259491 8:0.37834924 9:0.086725287 10:0.13706633 11:0.097426526 12:0.1731807 13:0.1749026 14:0.25255468 15:0.15336764 16:0.19131362 
-63.717349262382953 1:0.33473864 2:0.34630141 3:0.97551525 4:0.77973032 5:0.54163605 6:0.54769504 7:0.60762209 8:0.42418948 9:0.091773346 10:0.13862582 11:0.12420972 12:0.15416639 13:0.21313202 14:0.23857135 15:0.19520241 16:0.18204662 
-400 1:0.3113983 2:0.31628928 3:0.95887977 4:0.80594784 5:0.56637532 6:0.58323371 7:0.61909741 8:0.44603518 9:0.09962029 10:0.15320148 11:0.13086577 12:0.17390731 13:0.22279827 14:0.24217515 15:0.20505877 16:0.18854064 
97.023762821221595 1:0.23825741 2:0.23380041 3:0.90048051 4:0.84180993 5:0.62112635 6:0.73178363 7:0.64732558 8:0.56129116 9:0.12996536 10:0.21597099 11:0.14742525 12:0.22922702 13:0.25406426 14:0.3786169 15:0.22771117 16:0.24286266 
-400 1:0.21226412 2:0.20825858 3:0.88711631 4:0.87424546 5:0.65740263 6:0.8385241 7:0.68108159 8:0.65822393 9:0.16303138 10:0.29489312 11:0.18543354 12:0.33102643 13:0.31554991 14:0.48855335 15:0.2863819 16:0.32825893 
400 1:0.20144469 2:0.19563122 3:0.89909518 4:0.91855764 5:0.67517906 6:0.89390785 7:0.71243769 8:0.75038964 9:0.1687828 10:0.29949898 11:0.19592357 12:0.39587247 13:0.34260023 14:0.50942463 15:0.30863437 16:0.42511061 
-224.72837134278788 1:0.1885823 2:0.18280451 3:0.91014838 4:1 5:0.68668401 6:0.90860265 7:0.7397418 8:0.81970572 9:0.18387751 10:0.31003407 11:0.21129408 12:0.38061175 13:0.38297814 14:0.58765042 15:0.33882558 16:0.45404959 
-400 1:0.86576813 2:0.97229099 3:0.067713998 4:0.10576705 5:0.062390044 6:0.14208147 7:0.051669009 8:0.14230357 9:0.040731311 10:0.075592287 11:0.03307635 12:0.10134062 13:0.051870003 14:0.17249402 15:0.046755727 16:0.13887794 
-400 1:0.77160406 2:0.84797698 3:0.061750263 4:0.10057562 5:0.056815688 6:0.12693891 7:0.049101926 8:0.13742355 9:0.037173171 10:0.065912493 11:0.030044653 12:0.09284579 13:0.047463533 14:0.15856569 15:0.042714387 16:0.12853102 
22.27579865120126 1:0.45872039 2:0.45495048 3:0.04613106 4:0.078396112 5:0.040177196 6:0.086447626 7:0.037522476 8:0.095962286 9:0.021948872 10:0.040146802 11:0.0186712 12:0.060894009 13:0.027569156 14:0.10024406 15:0.023150891 16:0.080917306 
-400 1:0.20592269 2:0.2077757 3:0.027113833 4:0.047193471 5:0.034513727 6:0.068459615 7:0.026804173 8:0.065451548 9:0.011782296 10:0.030887717 11:0.011705383 12:0.043732513 13:0.018928178 14:0.07208816 15:0.017403314 16:0.060280491 
-400 1:0.093221158 2:0.094797537 3:0.009105918 4:0.022139302 5:0.020195514 6:0.044352952 7:0.011773451 8:0.036792774 9:0.0079543795 10:0.023129316 11:0.0077072433 12:0.031171251 13:0.010081472 14:0.054132469 15:0.0096501252 16:0.043848399 
-400 1:0.86782455 2:0.9728297 3:0.094156004 4:0.11079465 5:0.061373077 6:0.13394833 7:0.058332879 8:0.13640919 9:0.034365661 10:0.070598625 11:0.028077429 12:0.095422134 13:0.045137201 14:0.16478772 15:0.040046014 16:0.1320629 
-400 1:0.77411872 2:0.84814268 3:0.09444432 4:0.10466214 5:0.059509248 6:0.11817989 7:0.058010358 8:0.12891012 9:0.029861348 10:0.059684854 11:0.024472605 12:0.084606677 13:0.040424779 14:0.14801094 15:0.035262275 16:0.11889914 
328.73767644269628 1:0.870139 2:0.97297704 3:0.11830381 4:0.11629105 5:0.068128146 6:0.12984216 7:0.069206692 8:0.1335844 9:0.032050744 10:0.067495346 11:0.027064221 12:0.091930211 13:0.044161364 14:0.16004896 15:0.03920899 16:0.12798712 
-400 1:0.77696002 2:0.84923041 3:0.12324869 4:0.11018514 5:0.074066184 6:0.11527338 7:0.073206641 8:0.12487954 9:0.029307077 10:0.057080068 11:0.025634574 12:0.080733791 13:0.042656966 14:0.14205208 15:0.037007149 16:0.1136777 
400 1:0.4637875 2:0.45648348 3:0.091378205 4:0.080683902 5:0.07651712 6:0.087879531 7:0.066356666 8:0.084016852 9:0.024078485 10:0.038091253 11:0.023340588 12:0.051909052 13:0.036154605 14:0.086471625 15:0.030391725 16:0.067764774 
-400 1:0.87391382 2:0.97414213 3:0.15939838 4:0.12546147 5:0.087770171 6:0.12597694 7:0.092987217 8:0.13060789 9:0.032116674 10:0.064099513 11:0.029779444 12:0.087220237 13:0.04831405 14:0.15335596 15:0.043397669 16:0.12187067 
-400 1:0.781973 2:0.8505978 3:0.17629582 4:0.12099916 5:0.10781701 6:0.11737155 7:0.10613579 8:0.12159322 9:0.034309734 10:0.055515807 11:0.033381276 12:0.076530963 13:0.054300696 14:0.13492748 15:0.04843425 16:0.10711256 
-400 1:0.26382983 2:0.23676385 3:0.11902679 4:0.064631753 5:0.14433773 6:0.10304714 7:0.11436155 8:0.076361552 9:0.05576054 10:0.051510908 11:0.055222187 12:0.061302636 13:0.088348128 14:0.096988164 15:0.083094403 16:0.08123447 
-400 1:0.17104734 2:0.13577728 3:0.11225403 4:0.052511588 5:0.14966252 6:0.096929066 7:0.12054037 8:0.07268323 9:0.063881204 10:0.051575564 11:0.061362587 12:0.060269561 13:0.09862268 14:0.098077282 15:0.091234073 16:0.079035342 
-400 1:0.4759303 2:0.45995611 3:0.16204798 4:0.096635491 5:0.15581189 6:0.11220638 7:0.12946858 8:0.090134829 9:0.049953751 10:0.048957512 11:0.04929265 12:0.056551222 13:0.079320394 14:0.091958575 15:0.070785597 16:0.071881704 
-400 1:0.10291641 2:0.05281708 3:0.13797833 4:0.071026653 5:0.1876961 6:0.10882595 7:0.15878613 8:0.096531697 9:0.088926241 10:0.059512481 11:0.082796179 12:0.074637622 13:0.13628322 14:0.1163564 15:0.12445389 16:0.095838413 
